tree
version=v4
num_class=1
num_tree_per_iteration=1
label_index=0
max_feature_idx=159
objective=regression
feature_names=D1 D2 D3 D4 D5 D6 D7 D8 D9 E1 E10 E11 E12 E13 E14 E15 E16 E17 E18 E19 E2 E20 E3 E4 E5 E6 E7 E8 E9 I1 I2 I3 I4 I5 I6 I7 I8 I9 M1 M10 M11 M12 M13 M14 M15 M16 M17 M18 M2 M3 M4 M5 M6 M7 M8 M9 P1 P10 P11 P12 P13 P2 P3 P4 P5 P6 P7 P8 P9 S1 S10 S11 S12 S2 S3 S4 S5 S6 S7 S8 S9 V1 V10 V11 V12 V13 V2 V3 V4 V5 V6 V7 V8 V9 target_lag_1 target_lag_2 target_lag_3 target_lag_5 target_lag_10 target_lag_20 target_lag_40 target_lag_60 target_rolling_mean_5 target_rolling_std_5 target_rolling_min_5 target_rolling_max_5 target_rolling_skew_5 target_ewm_5 target_rolling_mean_10 target_rolling_std_10 target_rolling_min_10 target_rolling_max_10 target_rolling_skew_10 target_ewm_10 target_rolling_mean_20 target_rolling_std_20 target_rolling_min_20 target_rolling_max_20 target_rolling_skew_20 target_ewm_20 target_rolling_mean_40 target_rolling_std_40 target_rolling_min_40 target_rolling_max_40 target_rolling_skew_40 target_ewm_40 target_rolling_mean_60 target_rolling_std_60 target_rolling_min_60 target_rolling_max_60 target_rolling_skew_60 target_ewm_60 momentum_5 momentum_10 momentum_20 momentum_40 momentum_60 roc_5 roc_10 roc_20 ma_cross_5_20 ma_cross_10_40 realized_vol_5 realized_vol_10 realized_vol_20 realized_vol_40 realized_vol_60 vol_of_vol_20 range_5 range_10 range_20 zscore_20 zscore_40 zscore_60 rank_20 rank_40 rank_60 P10_x_P8 M3_x_V13 E3_x_E14
feature_infos=[0:1] [0:1] [0:1] [0:1] [0:1] [-1:0] [0:1] [0:1] [0:1] [0.52857032787126701:4.2039951265603097] [0.00066137566137559997:0.87599206349206304] [0.00066137566137559997:0.090939153439153403] [0.00066137566137559997:0.092261904761904795] [0.00066137566137559997:0.036044973544973498] [0.00066137566137559997:0.020833333333333301] [0.00066137566137559997:0.98677248677248697] [-5.1305188673472601:2.9157857107485001] [-3.34491952963196:2.9153490309557899] [-1.76376975924738:2.3836730925923701] [-1.4983962998008:12.6830161553086] [-2.9422024612578701:3.4032422756577398] [-0.90339130517572697:3.4098119799511899] [-5.3749512807538702:3.6196232602069398] [0.00066137566137559997:0.20271164021164001] [0.00066137566137559997:1] [0.00066137566137559997:0.172619047619048] [-19.9189721504777:3.5099937207434202] [-1.89465671920152:35.860071920866801] [0.00066137566137559997:1] [0.0026455026455025998:1] [-3.2002570436364901:3.4066255825607299] [0.037037037037037:1] [0.00066137566137559997:0.58101851851851805] [-1.1916261175403799:3.5670057031218398] [0.31283068783068801:1] [0.0033068783068783002:0.96164021164021196] [0.00066137566137559997:0.607473544973545] [-1.22442851377693:3.5695580454597602] [-2.52287010851511:5.1258988383677] [-3.2971290683184802:2.39671825335838] [-3.1902494359085001:6.2191830266757204] [-2.4205916056100301:5.20205171767791] [-1.8940247639665899:1.02631191231548] [-1.3259499241288799:-0.59429818788212896] [0.0016534391534391:0.92526455026455001] [0.00066137566137559997:1] [0.00066137566137559997:0.62632275132275095] [0.20403439153439201:1] [-1.9458392744894499:4.31622203662514] [-1.46131526780206:10.719109713161201] [-7.7337383330637604:13.1199669445514] [-3.2872132785116399:5.9619055655384603] [-2.2030693261185599:12.8334305393723] [-1.9028477184433701:2.9875395150464801] [0.00066137566137559997:0.99933862433862397] [-2.8314285812128301:4.9816159685117301] [0.00066137566137559997:1] [-0.45889676183045103:2.4875052323844402] [-0.59498868755971901:3.0170059739331401] [-0.84619424609638205:9.9755731960005303] [0.0072751322751322001:1] [-3.1408886710536401:5.6521146114738796] [0.043981481481481503:0.96164021164021196] [0.068121693121693097:0.98082010582010604] [-1.4301206000196101:6.5817880935200597] [-0.57866953650576103:11.355950873192199] [-2.5749342714196102:3.4299133997759101] [-1.7708822320261199:2.8645083409994698] [0.00066137566137559997:0.36177248677248702] [-1.5432359987100199:5.4448519667550697] [0.00066137566137559997:1] [0.00066137566137559997:1] [-2.1034715447855898:4.6537947296070996] [-2.9991968437466299:2.3140043192262598] [-3.47220227007961:2.4027811579544802] [0.00066137566137559997:1] [-6.9019232941307704:7.3112248689365904] [0.00066137566137559997:0.99933862433862397] [0.00066137566137559997:0.990079365079365] [-3.8768464742350299:2.3115378201753498] [0.00066137566137559997:1] [0.00066137566137559997:1] [-1.47354286691075:12.7421902928869] [0.00066137566137559997:0.99801587301587302] [0.00066137566137559997:0.99669312169312196] [-2.52395541561819:24.1514652140451] [0.00066137566137559997:0.99603174603174605] [0.00066137566137559997:0.99933862433862397] [0.00066137566137559997:0.99933862433862397] [-2.20552213105992:4.2901596659564802] [0.00066137566137559997:0.99669312169312196] [-1.5830094245881701:12.6782641336777] [0.00066137566137559997:1] [-1.4974199587211801:12.997535955344601] [-0.040581913745923501:0.040551076196261603] [-0.040581913745923501:0.040551076196261603] [-0.040581913745923501:0.040551076196261603] [-0.040581913745923501:0.040551076196261603] [-0.040581913745923501:0.040551076196261603] [-0.040581913745923501:0.040551076196261603] [-0.040581913745923501:0.040551076196261603] [-0.040581913745923501:0.040551076196261603] [-0.023645503083992461:0.019348589807044] [0:0.04356617414022404] [-0.040581913745923501:0.0057564189709562999] [-0.0088352820712271005:0.040551076196261603] [-2.1761319470626677:2.1834431626590241] [-0.023312294916845794:0.016468449783464744] [-0.013084923868194692:0.010361984394863296] [0:0.039001023981594905] [-0.040581913745923501:0] [0:0.040551076196261603] [-2.5570944676290734:2.4570882478818969] [-0.015757155337809074:0.01075814068518458] [-0.011528109064003766:0.0069178167488597193] [0:0.035684605367260369] [-0.040581913745923501:0] [0:0.040551076196261603] [-2.8035492735245517:1.6577096702825049] [-0.01173221453449729:0.0067987553771750196] [-0.0062127498890584085:0.004607730679197705] [0:0.030754696258098131] [-0.040581913745923501:0] [0:0.040551076196261603] [-2.9145492370389392:1.1750396791377042] [-0.007993784127808044:0.0046334784284467441] [-0.003873532690576274:0.0043673999855840633] [0:0.026917171457545054] [-0.040581913745923501:0] [0:0.040551076196261603] [-2.8259663663641268:1.1242590793637444] [-0.0059209234200747135:0.0033884809523388152] [-0.07959556090182951:0.073388277305625499] [-0.079235888597162699:0.079648672733244399] [-0.079443962252251393:0.079578675158152298] [-0.062373903003124599:0.070094823198632902] [-0.080122511559951592:0.064827937275511893] [-4260.6577470138982:799.99484433057728] [-1570.6389450919235:2722.1667894547959] [-795.36369959432818:4362.4189321591721] [-0.019037917719057253:0.023691138778603623] [-0.010241961385198138:0.013230819811726132] [0:0.69159157409739613] [0:0.61912206199299757] [0:0.56647554861150995] [0:0.48821566767753838] [0:0.42729685004370122] [0:0.11753075195143511] [0:0.08112551106766791] [0:0.08112551106766791] [0:0.08112551106766791] [-3.7089608436456909:2.7027532590481207] [-4.8558146517869476:3.0777228864781296] [-5.3961231350486329:3.5264015661400032] [0:1] [0:1] [0:1] [-0.43580089271334232:7.116792975212987] [-23.252345893583229:99.345164449692319] [-0.021231649589619869:0.064344658576502831]
tree_sizes=1466 1386 1440 1366 1650 1362 1254 1434 1296 1298 1272 1492 1344 1174 1596 1267 1342 1515 1336 1483 1405 1388 1429 1450 1337 1398 1323 1086 1352 1321 1085 1533 1460 1691 1585 1438 1518 1534 1614 1648 1373 1351 1275 1345 1319 1280 1200 1276 1268 1696 1247 1174 1327 1192 1406 1330 1187 1410 1448 1226 1488 1187 1537 1929 1603 1035 1546 1549 1246 1019 1051 1098 1464 962 1028 1551 1416 1452 1067 1242 1113 999 1331 1111 858 1211 1148 993 1224 1148 1060 1052 983 952 973 859 1016 929 840 948 712 553 778 628 770 731 557 706 482 627 549 645 547 721 616 727 875 872 806 708 854 852 631 563 498 690 552 553 484 554 550 843 620 479 621 552 553 554 481 481 736 589 559 408 667 483 553 483 707 550 551 702 570 698 701 482 552 550 482 551 555 551 626 789 629 485 554 549 548 709 551 548 404 480 556 630 484 631 630 560 627 694 627 554 614 549 683 611 611 683 842 682 770 560 631 631 556 632 622 627 548 620 464 547 547 840 846 542 705 548 621 553 626 623 625 470 472 399 398 473 531 528 527 386 387 398 399 398 399 399 456 457 459 463 387 548 474 550 548 549 551 480 545 620 631 471 542 471 544 693 311 311 398 398 398 468 395 463 469 468 547 464 464 467 391 464 461 464 463 463 397 397 388 389 397 475 395 476 401 315 473 618 550 543 541 387 388 311 387 388 618 686 617 618 687 456 313 313 314 314 310 309 310 309 310 474 475 546 474 706 461 314 400 612 400 601 601 455 530 458 385 384 385 540 312 550 467 543 469 470 550 618 620 537 545 687 685 464 529 529 463 536 461 388 311 527 526 486 558 602 314 314 314 312 313 536 464 538 537 611 385 311 311 311 311 537 385 310 309 385 387 387 387 386 387 401 473 313 400 313 386 386 387 311 311 389 315 315 315 315 313 313 313 312 312 400 400 400 462 383 461 389 462 387 386 603 463 533 536 536 455 535 384 387 387 469 617 467 466 311 334 334 334 334 334 454 312 312 312 312 540 467 539 467 541 454 385 310 310 309 387 386 387 312 312 674 538 609 529 463 524 456 454 461 461 314 312 387 387

Tree=0
num_leaves=14
num_cat=0
split_feature=151 107 156 156 105 156 151 142 156 113 151 115 151
split_gain=0.0912249 0.0249787 0.0193092 0.00513196 0.00442026 0.00371459 0.00144444 0.000550499 0.000255386 0.000125312 8.43924e-05 3.98682e-05 1.77044e-05
threshold=-0.079270514982109588 -0.0046277412515019845 0.77500000000000013 0.091666666666666688 0.018906290138294302 0.29166666666666669 0.26181701122533629 0.10001084278307015 0.45833333333333343 0.00015989135456023841 0.97655338877939901 0.0051027654854632733 -0.0078939085300517523
decision_type=2 2 2 2 2 2 2 2 2 2 2 2 2
left_child=1 3 6 -1 -4 7 9 -3 11 -2 -6 -7 -11
right_child=2 5 4 -5 10 8 -8 -9 -10 12 -12 -13 -14
leaf_value=-0.00097929143276420812 0.00020425835733024099 6.1969978613215192e-06 0.00069816863663780008 -0.00028223594735120148 0.00065136026676549242 0.00020425835733024099 0.00043070764462594291 -0.00025297382003115548 0.00020425835733024099 0.00020425835733024099 0.0013681122495411528 8.5635821227041545e-05 0.00026295918728896109
leaf_weight=107 68 131 258 78 28 37 234 164 75 31 64 174 140
leaf_count=107 68 131 258 78 28 37 234 164 75 31 64 174 140
internal_value=0.000198121 -0.000197622 0.000560385 -0.000712832 0.000845917 -2.48366e-05 0.000338444 -0.000154934 0.00012691 0.000227143 0.00120498 9.87461e-05 0.000254882
internal_weight=1589 766 823 185 350 581 473 295 286 239 92 211 171
internal_count=1589 766 823 185 350 581 473 295 286 239 92 211 171
is_linear=0
shrinkage=1


Tree=1
num_leaves=14
num_cat=0
split_feature=153 153 153 105 153 110 152 146 126 131 151 105 153
split_gain=0.0858578 0.0229014 0.0203407 0.00434451 0.00256503 0.00254241 0.00173683 0.00050784 0.00010235 1.74876e-05 3.59793e-05 1.68939e-05 3.89699e-06
threshold=-0.11860351815812251 -1.3048738522981267 0.71665354308384377 0.021606415993783951 -0.59341657136671955 -0.025549714904321143 0.18992880789844088 0.13667980352520526 0.0007325156613340293 0.00027210139991055152 -0.15383640650589678 0.0034090870639893506 -0.032337881931314011
decision_type=2 2 2 2 2 2 2 2 2 2 2 2 2
left_child=1 5 6 -4 7 -1 9 -3 -6 -2 -11 -8 -12
right_child=2 4 3 -5 8 -7 11 -9 -10 10 12 -13 -14
leaf_value=-0.0013806435991139464 0 -0.00022681206107866517 0.0005008329955749532 0.0010719244596555531 -0.00017843100396639747 -0.00070233210881553694 0 -0.00052055127958383445 -3.0952125235330154e-05 0 0 0.00021184268635104832 3.7133920333300453e-05
leaf_weight=55 64 117 269 65 188 96 21 122 116 65 25 276 110
leaf_count=55 64 117 269 65 188 96 21 122 116 65 25 276 110
internal_value=-5.80602e-06 -0.000426225 0.00031462 0.000627227 -0.000261969 -0.00098324 0.000119516 -0.000397821 -0.000138627 5.6431e-06 1.61405e-05 0.00020387 3.24291e-05
internal_weight=1589 694 895 334 543 151 561 239 304 264 200 297 135
internal_count=1589 694 895 334 543 151 561 239 304 264 200 297 135
is_linear=0
shrinkage=0.05


Tree=2
num_leaves=15
num_cat=0
split_feature=153 153 153 105 153 153 104 121 104 153 154 125 127 153
split_gain=0.0780922 0.020085 0.0189433 0.0042643 0.00328252 0.00210467 0.00198832 0.000283085 0.000249887 0.000112943 7.06531e-05 3.10788e-05 2.72809e-05 2.66433e-05
threshold=-0.138186792138831 -1.5129881681795851 0.79790169485848728 0.022973816544656852 -0.81053267665775597 0.28665981446226202 -0.021280694351933197 0.0097916434283667076 -0.0026314568015906995 -0.0089374727242463332 0.47500000000000003 -0.00039969998715184317 0.0064219706818994171 -0.19456337162691795
decision_type=2 2 2 2 2 2 2 2 2 2 2 2 2 2
left_child=1 6 5 -4 7 9 -1 -3 12 -2 -11 -12 -6 -14
right_child=2 4 3 -5 8 -7 -8 -9 -10 10 11 -13 13 -15
leaf_value=-0.0013216326289098412 0 -0.00029369250273913094 0.00049627930668194435 0.0011276866495237498 0 0.00023748540979822132 -0.00061785959500738864 -0.00063532994166922872 0 0 0 6.9737040494197134e-05 -0.0002114916300202022 0
leaf_weight=61 99 106 261 50 36 239 60 78 54 59 41 162 253 30
leaf_count=61 99 106 261 50 36 239 60 78 54 59 41 162 253 30
internal_value=-5.69317e-06 -0.000415039 0.000293481 0.000614194 -0.000275629 0.000118839 -0.00101474 -0.000465943 -0.000168247 2.63986e-05 4.51376e-05 5.91519e-05 -0.00018723 -0.000199383
internal_weight=1589 678 911 311 557 600 121 184 373 361 262 203 319 283
internal_count=1589 678 911 311 557 600 121 184 373 361 262 203 319 283
is_linear=0
shrinkage=0.05


Tree=3
num_leaves=14
num_cat=0
split_feature=153 153 153 153 104 153 152 104 127 127 153 131 152
split_gain=0.071093 0.0181148 0.0171249 0.00304208 0.00299879 0.00187477 0.00156506 0.000178907 5.68457e-05 2.83566e-05 1.29392e-05 1.44807e-05 6.83489e-06
threshold=-0.138186792138831 -1.3048738522981267 0.71665354308384377 1.4690325206361974 -0.02263680216496335 -0.7468301470837847 0.18992880789844088 -0.0026314568015906995 0.0063798878151822514 0.0068914978756932904 -0.018342407387937149 0.00027210139991055152 -0.044699367532008934
decision_type=2 2 2 2 2 2 2 2 2 2 2 2 2
left_child=1 4 6 -4 -1 8 10 9 -3 -7 -2 -12 -13
right_child=2 5 3 -5 -6 7 -8 -9 -10 -11 11 12 -14
leaf_value=-0.0012688125305621554 0 0 0.00042456102584895379 0.00086166012954350395 -0.00059534711176762107 -2.9154423957272166e-06 0.00018469805707816773 0 -0.00042856272267463038 -0.00019274735785616598 0 0 2.6593925931975849e-05
leaf_weight=59 89 20 236 98 92 59 297 54 152 242 50 20 121
leaf_count=59 89 20 236 98 92 59 297 54 152 242 50 20 121
internal_value=-5.75874e-06 -0.000396466 0.000279544 0.000567997 -0.000892245 -0.000244783 0.000103838 -0.000154504 -0.000401866 -0.000172157 1.81864e-07 1.30123e-05 2.20429e-05
internal_weight=1589 678 911 334 151 527 577 355 172 301 280 191 141
internal_count=1589 678 911 334 151 527 577 355 172 301 280 191 141
is_linear=0
shrinkage=0.05


Tree=4
num_leaves=17
num_cat=0
split_feature=153 153 153 153 121 104 153 153 153 111 153 105 107 120 151 104
split_gain=0.0647188 0.0187472 0.0136034 0.00364282 0.00156762 0.00130531 0.00128427 0.000169035 0.000156642 7.64165e-05 7.4065e-05 3.66446e-05 2.15463e-05 1.62521e-05 1.45439e-05 1.54238e-06
threshold=-0.26966843628753528 0.57864571182238589 -1.5129881681795851 1.4690325206361974 0.0097916434283667076 -0.021280694351933197 0.16993427203361097 -0.55293797341487794 -0.7468301470837847 0.014939738788782951 -0.051089449159965626 0.0061123342715384008 7.5537194195634649e-05 -5.3545525129202366e-05 -0.15383640650589678 -0.00090045389782914995
decision_type=2 2 2 2 2 2 2 2 2 2 2 2 2 2 2 2
left_child=2 6 5 11 7 -1 10 -4 -6 -5 15 -3 -12 -14 -15 -2
right_child=1 3 4 9 8 -7 -8 -9 -10 -11 12 -13 13 14 -16 -17
leaf_value=-0.0011956290218448678 -3.2419431548640379e-05 0 -0.0002296477455483316 0.00024643310595674691 -0.00057460488808249441 -0.00055730021248777677 0.00014406217501094975 -4.8534745238454097e-05 -0.00025704874162591038 0.00092695228986134552 0 0.00039554827069479895 0 0 3.9348468656424842e-05 0
leaf_weight=61 145 20 173 23 82 60 230 104 100 75 49 278 36 23 108 22
leaf_count=61 145 20 173 23 82 60 230 104 100 75 49 278 36 23 108 22
internal_value=-5.79405e-06 0.00023293 -0.000429679 0.000502589 -0.000289066 -0.000921112 5.05202e-05 -0.000179735 -0.000427818 0.000818621 0 0.000381647 1.2999e-05 2.32569e-05 3.16121e-05 -2.98256e-05
internal_weight=1589 1009 580 396 459 121 613 277 182 98 383 298 216 167 131 167
internal_count=1589 1009 580 396 459 121 613 277 182 98 383 298 216 167 131 167
is_linear=0
shrinkage=0.05


Tree=5
num_leaves=14
num_cat=0
split_feature=153 153 153 105 104 153 153 104 153 107 126 126 151
split_gain=0.0558735 0.0159411 0.0122685 0.00288755 0.00185987 0.00094284 0.000753967 0.000726012 3.2774e-05 7.58938e-06 8.26921e-06 4.89148e-06 3.86302e-06
threshold=-0.26966843628753528 0.53300917144870741 -1.3048738522981267 0.013380249498814502 -0.02263680216496335 0.14572622206295555 1.0578317518127378 -0.0057630631285347988 -0.057912188802278032 7.5537194195634649e-05 -5.1534271325605407e-05 0.0010588099214886768 -0.14050035875060132
decision_type=2 2 2 2 2 2 2 2 2 2 2 2 2
left_child=2 5 4 -3 -1 8 -5 -4 11 -10 -11 -2 -12
right_child=1 3 7 6 -6 -7 -8 -9 9 10 12 -13 -14
leaf_value=-0.0011584946904641313 -2.8000771010955729e-05 0.00028081363541366481 -0.00029803492282838183 0.00034331765652286254 -0.00055100247604026188 0.00011945262951387024 0.00074319800081348484 -7.9012843258746842e-05 0 0 0 0 2.2890033884559034e-05
leaf_weight=54 120 220 293 81 93 233 127 125 45 30 27 34 94
leaf_count=54 120 220 293 81 93 233 127 125 45 30 27 34 94
internal_value=0 0.000220434 -0.000400303 0.000453424 -0.000808789 4.0765e-05 0.000611742 -0.000244531 0 0 1.12057e-05 -2.30586e-05 1.80938e-05
internal_weight=1576 1011 565 428 147 583 208 418 350 196 151 154 121
internal_count=1576 1011 565 428 147 583 208 418 350 196 151 154 121
is_linear=0
shrinkage=0.05


Tree=6
num_leaves=13
num_cat=0
split_feature=153 153 153 105 104 153 153 104 104 127 125 151
split_gain=0.0507819 0.0133856 0.0119296 0.00244154 0.0016486 0.00110693 0.00095697 0.00014833 4.78129e-05 1.94941e-05 2.29043e-06 1.42522e-05
threshold=-0.13543663052575614 -1.3048738522981267 0.66063768326036831 0.012577832353744852 -0.018374478346525898 -0.54342214526960075 0.16993427203361097 -0.004030267672610049 -0.0012272493974216996 0.0068310109476978917 0.00062859697814592649 -0.14050035875060132
decision_type=2 2 2 2 2 2 2 2 2 2 2 2
left_child=1 4 6 -4 -1 7 10 -3 9 -7 -2 -12
right_child=2 5 3 -5 -6 8 -8 -9 -10 -11 11 -13
leaf_value=-0.00099372978214076844 0 -0.0003073171277495582 0.00026635390009356581 0.00060760841011755985 -0.00042749688122282716 0 0.00014586395267435958 0 0 -0.00011909063108350175 0 2.0853647735158311e-05
leaf_weight=80 115 228 172 196 67 45 276 20 23 196 63 95
leaf_count=80 115 228 172 196 67 45 276 20 23 196 63 95
internal_value=0 -0.000336865 0.000238488 0.000461808 -0.000770107 -0.000202587 7.96317e-05 -0.000292123 -9.94673e-05 -0.000106458 0 6.01815e-06
internal_weight=1576 659 917 368 147 512 549 248 264 241 273 158
internal_count=1576 659 917 368 147 512 549 248 264 241 273 158
is_linear=0
shrinkage=0.05


Tree=7
num_leaves=15
num_cat=0
split_feature=153 151 153 105 104 153 153 104 105 127 153 125 131 117
split_gain=0.046238 0.0131305 0.00990506 0.00242509 0.00141491 0.000979038 0.00079594 0.00055274 8.27404e-05 3.83357e-05 1.94927e-05 1.22565e-05 7.92293e-06 1.24277e-06
threshold=-0.26966843628753528 0.53682039861475495 -1.3048738522981267 0.018666166987598952 -0.015900432269620547 1.008197291199266 0.10241505365854695 -0.0057630631285347988 0.0058499432397915007 0.0062871967279890849 1.0000000180025095e-35 -0.0010792385858554409 0.00090064799040001783 0.007741699453327951
decision_type=2 2 2 2 2 2 2 2 2 2 2 2 2 2
left_child=2 6 4 8 -1 -5 10 9 -3 -4 12 -8 13 -2
right_child=1 3 7 5 -6 -7 11 -9 -10 -11 -12 -13 -14 -15
leaf_value=-0.00088715377290978436 0 0 0 7.3726728924889976e-05 -0.0003109942941603071 0.00083937954420309428 0 -6.9587103666036228e-05 0.00033309271565989864 -0.00028127160046124473 0 0.00010474228102876472 0 -2.5569047659149412e-05
leaf_weight=99 23 21 20 21 48 63 20 125 332 273 86 241 75 129
leaf_count=99 23 21 20 21 48 63 20 125 332 273 86 241 75 129
internal_value=0 0.000200171 -0.000364507 0.000407833 -0.00073335 0.000707735 3.33195e-05 -0.000222691 0.000322128 -0.000270903 -6.38301e-06 0.000100066 -1.64546e-05 -2.3119e-05
internal_weight=1576 1011 565 437 147 84 574 418 353 293 313 261 227 152
internal_count=1576 1011 565 437 147 84 574 418 353 293 313 261 227 152
is_linear=0
shrinkage=0.05


Tree=8
num_leaves=13
num_cat=0
split_feature=153 153 156 105 153 104 153 104 151 105 125 126
split_gain=0.0421399 0.010833 0.00981156 0.00214552 0.00142271 0.00129985 0.000890019 0.000191549 6.07586e-05 5.35701e-05 3.97088e-05 2.27798e-05
threshold=-0.13543663052575614 -1.3048738522981267 0.80833333333333346 0.020473140754849455 0.28665981446226202 -0.025453620935040343 -0.47733559643090889 -0.0086773114484412477 1.0000000180025095e-35 0.0076975885731724513 -0.00019334323285250259 0.00082155241626792987
decision_type=2 2 2 2 2 2 2 2 2 2 2 2
left_child=1 5 4 9 8 -1 7 -3 -2 -4 -10 -8
right_child=2 6 3 -5 -6 -7 11 -9 10 -11 -12 -13
leaf_value=-0.0010646527223373487 0 -0.00033823733553005271 0 0.00084571711711600391 0.00018467993041848581 -0.00049259730146802188 -9.4827880092359306e-05 -0.00013649999862457108 0 0.00037584089300661538 4.6582724496736295e-05 0
leaf_weight=44 161 142 21 50 261 103 145 146 54 226 144 79
leaf_count=44 161 142 21 50 261 103 145 146 54 226 144 79
internal_value=0 -0.000307186 0.000216923 0.000457827 9.34046e-05 -0.000698423 -0.000184981 -0.000253406 1.30889e-05 0.000358761 3.28226e-05 -7.46205e-05
internal_weight=1576 659 917 297 620 147 512 288 359 247 198 224
internal_count=1576 659 917 297 620 147 512 288 359 247 198 224
is_linear=0
shrinkage=0.05


Tree=9
num_leaves=13
num_cat=0
split_feature=153 153 153 121 104 153 153 127 153 126 125 152
split_gain=0.0384415 0.0097343 0.00892206 0.00148679 0.00110292 0.000787565 0.000702257 0.000207356 5.50505e-05 1.62178e-05 1.39282e-06 1.1474e-05
threshold=-0.13543663052575614 -1.3048738522981267 0.66063768326036831 0.012206923112308463 -0.015146361731740998 -0.40704219040211581 0.17951040489766976 0.0087076595872680653 1.0578317518127378 0.0010485421616252346 0.00062859697814592649 -0.079372636718836667
decision_type=2 2 2 2 2 2 2 2 2 2 2 2
left_child=1 4 6 -4 -1 7 10 -3 -5 -7 -2 -12
right_child=2 5 3 8 -6 9 -8 -9 -10 -11 11 -13
leaf_value=-0.00080038078132055107 0 -0.00012453233334928416 0.0003010723631362164 0.0003009554624870048 -0.00025900995188115928 -6.4954836482778268e-05 0.00012575091156287604 -0.00030850080675850545 0.00081077487182923218 0 0 1.6864506094389165e-05
leaf_weight=101 116 164 272 44 46 142 272 162 52 44 48 113
leaf_count=101 116 164 272 44 46 142 272 162 52 44 48 113
internal_value=0 -0.000293585 0.000206993 0.000400531 -0.000665254 -0.000177003 6.81086e-05 -0.000231352 0.000629693 -5.48063e-05 0 4.64912e-06
internal_weight=1576 659 917 368 147 512 549 326 96 186 277 161
internal_count=1576 659 917 368 147 512 549 326 96 186 277 161
is_linear=0
shrinkage=0.05


Tree=10
num_leaves=13
num_cat=0
split_feature=153 153 153 104 105 121 151 153 153 156 120 104
split_gain=0.0366204 0.00802378 0.00799412 0.00276267 0.00246943 0.000384519 0.000259778 0.000250448 7.65895e-05 5.81439e-05 4.37812e-05 1.36241e-05
threshold=-0.11078095028697399 -0.95097422071100779 0.50005135420460534 -0.015146361731740998 0.013183568474470051 0.011681247539751064 0.10919133229534812 1.2029166648568073 -0.19456337162691795 0.40833333333333338 -0.00095709971770597602 -0.00193593838767135
decision_type=2 2 2 2 2 2 2 2 2 2 2 2
left_child=1 3 6 -1 -4 9 -2 -6 -7 11 -8 -3
right_child=2 5 4 -5 7 8 10 -9 -10 -11 -12 -13
leaf_value=-0.00071716102917854935 0 -9.3515780994285778e-05 0.00020679966568445203 -0.00026159391587906325 0.00032205488331883231 -0.00026702144946730196 0 0.0006429011631988754 0 0 9.0430416828585279e-05 0
leaf_weight=123 202 255 229 110 110 105 30 106 23 41 214 20
leaf_count=123 202 255 229 110 110 105 30 106 23 41 214 20
internal_value=0 -0.000277852 0.000209947 -0.000523741 0.000361824 -0.000137468 4.71549e-05 0.000502869 -0.000238755 -8.05604e-05 8.20014e-05 -8.93622e-05
internal_weight=1568 677 891 233 445 444 446 216 128 316 244 275
internal_count=1568 677 891 233 445 444 446 216 128 316 244 275
is_linear=0
shrinkage=0.05


Tree=11
num_leaves=16
num_cat=0
split_feature=153 153 153 104 105 151 127 110 105 153 156 105 156 153 113
split_gain=0.0333993 0.00781494 0.00661705 0.00255671 0.00161898 0.000927943 0.000447703 0.000185568 0.000135532 9.82825e-05 9.5312e-05 5.96859e-05 1.98541e-05 2.99636e-06 2.55082e-06
threshold=-0.072083197512529437 -0.95097422071100779 0.88561406186756508 -0.025453620935040343 0.022973816544656852 0.26181701122533629 0.012091079119092121 -0.0079702352877111977 0.0076975885731724513 -0.19456337162691795 0.39166666666666677 0.0042566770980114006 0.47500000000000003 -0.24679629692769578 -0.00045619383501013111
decision_type=2 2 2 2 2 2 2 2 2 2 2 2 2 2 2
left_child=1 3 5 -1 8 12 10 -5 -4 -8 13 -7 -2 -3 -14
right_child=2 6 4 7 -6 11 9 -9 -10 -11 -12 -13 14 -15 -16
leaf_value=-0.00090312198584030577 0 -9.0945312880842861e-05 0 -0.00039210424615124565 0.0007882507470417388 0 -0.00026392165520744816 0 0.00033903248697445833 0 0 0.00016801688942079542 0 0 2.0531940446700967e-05
leaf_weight=49 65 242 20 161 44 23 100 23 223 31 83 285 24 24 171
leaf_count=49 65 242 20 161 44 23 100 23 223 31 83 285 24 24 171
internal_value=0 -0.000253393 0.000210004 -0.000498647 0.000411683 9.92431e-05 -0.00012385 -0.000363343 0.000322634 -0.000226517 -7.09362e-05 0.000160119 7.87171e-06 -8.65848e-05 1.8358e-05
internal_weight=1568 713 855 233 287 568 480 184 243 131 349 308 260 266 195
internal_count=1568 713 855 233 287 568 480 184 243 131 349 308 260 266 195
is_linear=0
shrinkage=0.05


Tree=12
num_leaves=14
num_cat=0
split_feature=152 152 152 104 105 152 79 155 152 123 113 152 152
split_gain=0.0305321 0.00652112 0.00574935 0.00295103 0.00157856 0.000614931 0.000460293 7.10193e-05 5.85041e-05 5.48972e-05 4.50967e-05 1.04516e-05 2.45791e-06
threshold=-0.079372636718836667 -0.91553413551567508 0.84085852138706185 -0.014710584045276599 0.013183568474470051 0.33324982677436926 -0.24014948482378898 0.38750000000000007 -0.16615763273556514 0.011851829970543551 0.00028096296542992486 -0.019841150512718026 -0.26929191358342491
decision_type=2 2 2 2 2 2 2 2 2 2 2 2 2
left_child=1 3 5 -1 -4 10 8 12 -3 -7 -2 -12 -8
right_child=2 6 4 -5 -6 9 7 -9 -10 -11 11 -13 -14
leaf_value=-0.00064817697345593043 0 -0.00021642207566434271 0.00019574609435507614 -0.00021894870606536688 0.00050680390095137666 0 -7.0858652498970577e-05 0 0 0.0001670681474371016 0 3.8276209163616708e-05 0
leaf_weight=126 89 138 149 130 168 22 203 80 23 206 23 190 21
leaf_count=126 89 138 149 130 168 22 203 80 23 206 23 190 21
internal_value=0 -0.000240021 0.000202649 -0.000449904 0.000376473 8.91986e-05 -0.000113651 -5.24338e-05 -0.0001981 0.000156901 2.14995e-05 3.44141e-05 -6.72534e-05
internal_weight=1568 721 847 256 317 530 465 304 161 228 302 213 224
internal_count=1568 721 847 256 317 530 465 304 161 228 302 213 224
is_linear=0
shrinkage=0.05


Tree=13
num_leaves=12
num_cat=0
split_feature=152 104 151 151 105 152 152 104 122 104 129
split_gain=0.0278471 0.0058712 0.0053313 0.00192648 0.00174567 0.000962646 0.000284446 9.27334e-05 2.90943e-05 1.30782e-05 1.11875e-05
threshold=-0.079372636718836667 -0.017932273124616194 0.61677951063770997 -0.71189024149808056 0.011878499521641153 -0.62897438763888314 0.12742639826941318 -0.003900586159893049 -0.014404622299071199 -0.0017050504701106998 0.01423496167434155
decision_type=2 2 2 2 2 2 2 2 2 2 2
left_child=1 3 6 -1 -4 7 -2 -3 9 -7 -8
right_child=2 5 4 -5 -6 8 10 -9 -10 -11 -12
leaf_value=-0.00064455178690199608 0 -0.0002352317489470672 0.00016437767654387228 -0.00011936086488897947 0.00043855059180402035 -7.0510465890906109e-05 0 0 0 0 9.8605898633403268e-05
leaf_weight=110 167 226 184 52 223 234 42 20 59 20 231
leaf_count=110 167 226 184 52 223 234 42 20 59 20 231
internal_value=0 -0.000229317 0.000193441 -0.000506995 0.000326953 -0.000139825 5.85349e-05 -0.000223372 -5.81425e-05 -6.67213e-05 9.0141e-05
internal_weight=1568 721 847 162 407 559 440 246 313 254 273
internal_count=1568 721 847 162 407 559 440 246 313 254 273
is_linear=0
shrinkage=0.05


Tree=14
num_leaves=17
num_cat=0
split_feature=153 153 153 104 105 153 127 127 150 156 154 153 105 113 153 104
split_gain=0.0254317 0.00575719 0.00500256 0.00195706 0.00106168 0.000844369 0.000346885 0.000149179 0.000148047 6.35511e-05 4.80584e-05 4.54274e-05 3.36324e-05 1.88806e-05 5.86752e-06 4.46776e-06
threshold=-0.072083197512529437 -0.95097422071100779 0.98129035818313937 -0.025453620935040343 0.021387636279863204 0.35295111825774544 0.012091079119092121 0.0084467319929129089 0.018519045881416601 0.40833333333333338 0.47500000000000003 -0.19456337162691795 0.0083648773744727529 -0.00045619383501013111 -1.0000000180025095e-35 -0.0018440483166904497
decision_type=2 2 2 2 2 2 2 2 2 2 2 2 2 2 2 2
left_child=1 3 5 -1 12 10 9 -7 -5 15 -2 -8 -4 -12 -15 -3
right_child=2 6 4 8 -6 7 11 -9 -10 -11 13 -13 -14 14 -16 -17
leaf_value=-0.00079496717611574346 0 -7.2632774731599327e-05 0 0 0.00067366844931556608 4.4409523596746338e-05 -0.00023188985316417778 0.00021071788727441748 -0.00033123141018722585 0 0 0 0.00029408896399326382 0 4.3103638074905769e-05 0
leaf_weight=49 78 265 20 20 52 114 100 176 164 64 45 31 167 20 183 20
leaf_count=49 78 265 20 20 52 114 100 176 164 64 45 31 167 20 183 20
internal_value=0 -0.000221571 0.000182789 -0.000433334 0.000384553 9.63422e-05 -0.000108294 0.000162615 -0.000309491 -5.93214e-05 2.20235e-05 -0.000200478 0.000277117 3.34931e-05 4.00343e-05 -6.97586e-05
internal_weight=1568 713 855 233 239 616 480 290 184 349 326 131 187 248 203 285
internal_count=1568 713 855 233 239 616 480 290 184 349 326 131 187 248 203 285
is_linear=0
shrinkage=0.05


Tree=15
num_leaves=13
num_cat=0
split_feature=153 153 153 104 152 121 127 155 153 113 35 151
split_gain=0.0213323 0.00535226 0.00461353 0.00155664 0.000785233 0.000726316 0.000312876 9.78629e-05 6.88479e-05 4.83156e-05 1.70006e-05 1.37296e-05
threshold=-0.051089449159965626 -1.0598116400499131 0.98129035818313937 -0.020509186546977348 0.34957611081962031 0.013449133895851726 0.011817523117081025 0.33750000000000008 -0.17298911216001422 0.00035965545366529002 0.10052910052910045 -0.15775489800448098
decision_type=2 2 2 2 2 2 2 2 2 2 2 2
left_child=1 3 4 -1 9 -4 7 -3 -8 -2 -6 -11
right_child=2 6 5 -5 10 -7 8 -9 -10 11 -12 -13
leaf_value=-0.00067623940523323242 0 -8.5056198836827991e-05 0.00026614618783125102 -0.00025349329368604817 0 0.00063823604393101608 -0.00022235397189295533 0 0 0 0.00015524845980490954 3.4294595621770439e-05
leaf_weight=70 90 224 172 127 22 51 104 169 32 30 294 192
leaf_count=70 90 224 172 127 22 51 104 169 32 30 294 192
internal_value=0 -0.000198191 0.000170735 -0.000429342 9.05823e-05 0.000373902 -0.000102595 -5.91771e-05 -0.000191186 1.50636e-05 0.000149299 2.9372e-05
internal_weight=1577 726 851 197 628 223 529 393 136 312 316 222
internal_count=1577 726 851 197 628 223 529 393 136 312 316 222
is_linear=0
shrinkage=0.05


Tree=16
num_leaves=14
num_cat=0
split_feature=153 153 153 104 153 127 105 126 107 104 153 51 154
split_gain=0.0195163 0.00479903 0.00420866 0.00156994 0.00123102 0.00020024 0.000148705 0.000115762 5.15016e-05 2.0221e-05 1.56597e-05 5.74828e-06 1.33332e-06
threshold=-0.051089449159965626 -0.87560927745138228 1.2956031648370667 -0.014710584045276599 0.39466657827659046 0.0089279488993932021 0.011641551621250251 0.00033669297094568625 -0.00020428632510318458 -0.0037077164952463494 -0.2228154248447925 3.9754692142238306 0.4250000000000001
decision_type=2 2 2 2 2 2 2 2 2 2 2 2 2
left_child=1 3 4 -1 8 -6 -4 9 -2 -3 -9 12 -10
right_child=2 7 6 -5 5 -7 -8 10 11 -11 -12 -13 -14
leaf_value=-0.00052024402468233333 0 -0.00013273116699388717 0 -0.00017869824559916907 7.7124278400394212e-05 0.00022936648763169053 0.00048881763092585117 -3.5867637298519337e-05 0 0 0 0 3.8266042347434217e-05
leaf_weight=129 72 179 20 129 172 205 105 188 35 27 74 22 220
leaf_count=129 72 179 20 129 172 205 105 188 35 27 74 22 220
internal_value=0 -0.00018981 0.000163065 -0.000368979 0.000107631 0.000173206 0.000444714 -8.02978e-05 2.24427e-05 -0.000122737 -2.7819e-05 3.31541e-05 3.53599e-05
internal_weight=1577 726 851 258 726 377 125 468 349 206 262 277 255
internal_count=1577 726 851 258 726 377 125 468 349 206 262 277 255
is_linear=0
shrinkage=0.05


Tree=17
num_leaves=17
num_cat=0
split_feature=151 107 151 105 155 151 155 104 123 105 155 105 31 79 151 129
split_gain=0.0177055 0.0048475 0.00324865 0.00122055 0.000640584 0.000507914 0.000171708 3.74311e-05 2.77066e-05 2.21136e-05 1.89564e-05 1.7877e-05 1.23933e-05 8.52169e-06 8.44014e-06 7.82234e-06
threshold=-0.022731594432347776 -0.004943181323044765 0.75809378226626956 0.016423876731235854 0.28750000000000003 -0.44823860029803048 0.56250000000000011 -0.0033484445239683495 0.013060294705214252 0.0036987304506103506 0.48750000000000004 0.0065432867971666501 0.97255291005291011 1.0709645001848402 0.12010678498712378 0.015772255143835356
decision_type=2 2 2 2 2 2 2 2 2 2 2 2 2 2 2 2
left_child=1 5 6 11 7 -1 -2 -3 -8 -10 12 -4 13 -6 -11 -16
right_child=2 4 3 -5 10 -7 8 -9 9 14 -12 -13 -14 -15 15 -17
leaf_value=-0.00046357673346158047 0 -0.00016111711526616969 0 0.00047537330812417794 -4.1127000081953475e-05 0 0 0 0 0 0 0.00019616779748405245 0 0 0 0.00010928392147850918
leaf_weight=140 111 265 20 103 185 24 56 26 20 27 77 207 21 45 25 225
leaf_count=140 111 265 20 103 185 24 56 26 20 27 77 207 21 45 25 225
internal_value=0 -0.000168065 0.000166991 0.000292137 -9.33937e-05 -0.000419208 6.71693e-05 -0.000152705 8.45324e-05 9.34118e-05 -2.55035e-05 0.000186805 -3.22276e-05 -3.56098e-05 9.775e-05 0.0001033
internal_weight=1577 783 794 330 619 164 464 291 353 297 328 227 251 230 277 250
internal_count=1577 783 794 330 619 164 464 291 353 297 328 227 251 230 277 250
is_linear=0
shrinkage=0.05


Tree=18
num_leaves=14
num_cat=0
split_feature=153 153 153 104 152 127 127 105 155 153 153 110 81
split_gain=0.016362 0.0039568 0.00346949 0.00119782 0.00102526 0.000243164 0.000119476 6.35675e-05 5.6781e-05 5.1049e-05 3.41984e-05 2.75201e-05 5.18019e-06
threshold=-0.051089449159965626 -1.0598116400499131 1.2956031648370667 -0.024845098059378446 0.44449197699570336 0.011817523117081025 0.0091470344430227297 0.011641551621250251 0.33750000000000008 0.09650579362745472 -0.24132194415397581 -0.0082201709818241989 0.81051587301587313
decision_type=2 2 2 2 2 2 2 2 2 2 2 2 2
left_child=1 3 4 -1 9 8 -6 -4 -3 -2 -7 -5 -11
right_child=2 5 7 11 6 10 -8 -9 -10 12 -12 -13 -14
leaf_value=-0.0006799487778896753 0 -6.9980650006299996e-05 0 -0.00026626382314800384 7.4660688493967452e-05 -0.00020702987611463856 0.00022085963221290923 0.00044517012226167582 0 4.2199169400504712e-05 0 0 0
leaf_weight=46 141 224 20 131 171 93 178 105 169 205 43 20 31
leaf_count=46 141 224 20 131 171 93 178 105 169 205 43 20 31
internal_value=0 -0.00017369 0.000149412 -0.000373831 9.8215e-05 -8.96508e-05 0.000163591 0.000406477 -4.93027e-05 2.44083e-05 -0.000169385 -0.000247097 3.86277e-05
internal_weight=1577 726 851 197 726 529 349 125 393 377 136 151 236
internal_count=1577 726 851 197 726 529 349 125 393 377 136 151 236
is_linear=0
shrinkage=0.05


Tree=19
num_leaves=16
num_cat=0
split_feature=153 153 153 115 105 152 79 113 105 155 151 39 145 153 74
split_gain=0.015045 0.00355775 0.0031657 0.00116362 0.000648558 0.000493092 9.06154e-05 3.60926e-05 3.30842e-05 1.40328e-05 9.74127e-06 9.11893e-06 5.23407e-06 7.40791e-06 7.08421e-07
threshold=-0.051089449159965626 -0.87560927745138228 0.98129035818313937 0.0099499567492269004 0.024289587354435253 0.34957611081962031 0.31020784830367554 0.00035965545366529002 0.0081757129996567514 0.41250000000000003 -0.15383640650589678 1.8586166828494552 0.11952055983924101 -0.11078095028697399 -0.69628757594749191
decision_type=2 2 2 2 2 2 2 2 2 2 2 2 2 2 2
left_child=1 3 5 -1 8 7 12 -2 -4 -8 -9 -7 -3 -14 -12
right_child=2 6 4 -5 -6 11 9 10 -10 -11 14 -13 13 -15 -16
leaf_value=-0.00016638489558356949 0 0 0 -0.00047439479195728312 0.00061864840675215048 0.00012648754365942051 -2.7276909809162871e-05 0 0.0002410681604208547 0 0 0 -0.0001222761566114643 0 2.9963608036518153e-05
leaf_weight=144 90 20 20 114 36 296 195 31 167 63 20 20 165 25 171
leaf_count=144 90 20 20 114 36 296 195 31 167 63 20 20 165 25 171
internal_value=0 -0.000166729 0.000143098 -0.000321986 0.000312758 7.48513e-05 -7.04067e-05 1.09265e-05 0.000226847 -2.06517e-05 2.3959e-05 0.000122126 -0.000107697 -0.000113524 2.81884e-05
internal_weight=1577 726 851 258 223 628 468 312 187 258 222 316 210 190 191
internal_count=1577 726 851 258 223 628 468 312 187 258 222 316 210 190 191
is_linear=0
shrinkage=0.05


Tree=20
num_leaves=15
num_cat=0
split_feature=153 153 153 105 104 146 151 153 105 153 113 9 74 51
split_gain=0.014154 0.00321759 0.00284358 0.00117356 0.000796015 0.000273575 0.000264519 8.91967e-05 5.76024e-05 3.99115e-05 1.96539e-05 6.25421e-06 6.64385e-06 1.71476e-07
threshold=-0.051089449159965626 -1.0598116400499131 0.82579089657530957 0.024662219539742351 -0.013424956848129999 0.19323169713281518 0.26181701122533629 -0.24679629692769578 0.007515264953542101 -0.3086026759431324 -0.0022935298867314282 0.94863225345707514 -0.95717549408806979 0.33745515196149056
decision_type=2 2 2 2 2 2 2 2 2 2 2 2 2 2
left_child=1 4 6 8 -1 9 11 -7 -4 -3 -8 -2 -13 -14
right_child=2 5 3 -5 -6 7 10 -9 -10 -11 -12 12 13 -15
leaf_value=-0.00042652194132331814 0 -5.8258749186669235e-05 0 0.00060704647045020232 -8.9011488819471939e-05 -0.00020468873458649218 0 0 0.00020643004441069175 0 9.6960985047086441e-05 0 0 1.3231293277658405e-05
leaf_weight=140 46 245 22 37 69 94 22 43 243 141 264 22 20 187
leaf_count=140 46 245 22 37 69 94 22 43 243 141 264 22 20 187
internal_value=0 -0.000164324 0.000134512 0.000263359 -0.000339103 -8.48688e-05 5.62058e-05 -0.000164713 0.0001963 -4.3545e-05 9.22321e-05 5.43352e-07 8.28264e-06 1.24936e-05
internal_weight=1595 732 863 302 209 523 561 137 265 386 286 275 229 207
internal_count=1595 732 863 302 209 523 561 137 265 386 286 275 229 207
is_linear=0
shrinkage=0.05


Tree=21
num_leaves=15
num_cat=0
split_feature=153 153 151 117 104 127 153 104 129 156 156 105 77 104
split_gain=0.0129843 0.0028731 0.00257525 0.00124696 0.000754327 0.000236798 0.000214973 6.83148e-05 3.6112e-05 3.38818e-05 3.32433e-05 2.74191e-05 8.24541e-06 3.14696e-06
threshold=-0.051089449159965626 -1.0598116400499131 0.75809378226626956 0.024662219539742351 -0.020509186546977348 0.012172452762580515 0.13768120823168087 -0.0073465253497652485 0.018759491412133251 0.4250000000000001 0.39166666666666677 0.0067779649689980008 0.106646825396825 -0.0018440483166904497
decision_type=2 2 2 2 2 2 2 2 2 2 2 2 2 2
left_child=1 4 6 11 -1 10 -2 9 -8 -7 13 -4 -10 -3
right_child=2 5 3 -5 -6 7 8 -9 12 -11 -12 -13 -14 -15
leaf_value=-0.00051962619927573873 0 -5.2638558736295905e-05 0 0.0004943949414101626 -0.00019063172141151692 -0.00020512615268500407 0 0 0 0 0 0.00017366846564137252 8.9533917558737118e-05 0
leaf_weight=69 188 275 23 61 140 87 94 30 20 20 91 262 215 20
leaf_count=69 188 275 23 61 140 87 94 30 20 20 91 262 215 20
internal_value=0 -0.000157537 0.000128679 0.000238298 -0.000323356 -8.16653e-05 4.56159e-05 -0.000157696 7.0018e-05 -0.000182834 -4.16966e-05 0.000165792 8.51275e-05 -5.05606e-05
internal_weight=1595 732 863 346 209 523 517 137 329 107 386 285 235 295
internal_count=1595 732 863 346 209 523 517 137 329 107 386 285 235 295
is_linear=0
shrinkage=0.05


Tree=22
num_leaves=15
num_cat=0
split_feature=153 153 153 105 148 151 127 104 127 153 9 153 73 51
split_gain=0.0119207 0.00256478 0.00234479 0.000703122 0.000666526 0.000365223 0.000206536 5.10206e-05 3.06218e-05 3.01974e-05 5.02893e-06 4.17139e-06 3.44977e-06 5.36205e-07
threshold=-0.051089449159965626 -1.0598116400499131 0.98129035818313937 0.022973816544656852 0.022034758490649953 0.27174102741916467 0.012172452762580515 -0.0073465253497652485 0.010863896092146557 -0.35124923386853207 0.94863225345707514 -0.24679629692769578 -0.6188644409703814 0.33745515196149056
decision_type=2 2 2 2 2 2 2 2 2 2 2 2 2 2
left_child=1 4 5 -4 -1 10 9 11 -7 -3 -2 -8 -12 -14
right_child=2 6 3 -5 -6 8 7 -9 -10 -11 12 -13 13 -15
leaf_value=-0.00010629847905670142 0 -5.539877207208009e-05 0.00018072611848653938 0.00053516119002915412 -0.00040888904931995329 4.5389098001755611e-05 -0.0001960765677583585 0 0.00015669406804067935 0 0 0 0 1.1187605695063366e-05
leaf_weight=86 48 224 189 42 123 230 85 30 122 162 32 22 20 180
leaf_count=86 48 224 189 42 123 230 85 30 122 162 32 22 20 180
internal_value=0 -0.000151058 0.000123181 0.000267008 -0.0003084 6.26671e-05 -7.85759e-05 -0.000151187 9.82004e-05 -3.9822e-05 1.26755e-07 -0.000174503 7.36119e-06 1.02934e-05
internal_weight=1595 732 863 231 209 632 523 137 352 386 280 107 232 200
internal_count=1595 732 863 231 209 632 523 137 352 386 280 107 232 200
is_linear=0
shrinkage=0.05


Tree=23
num_leaves=16
num_cat=0
split_feature=153 134 153 121 153 152 150 151 73 126 103 29 123 81 122
split_gain=0.010971 0.00242873 0.00214924 0.000972805 0.000498884 0.000244858 8.6844e-05 7.00675e-05 3.82407e-05 1.43328e-05 1.30101e-05 6.80304e-06 3.66894e-06 2.86904e-06 2.40846e-06
threshold=-0.051089449159965626 -0.021266698380752843 0.54678393595640695 0.012825531362563723 -0.54342214526960075 -0.91553413551567508 0.017891737979446255 1.0000000180025095e-35 -0.9838470069887183 0.00092651382206119712 0.0036643831318054314 0.27628968253968256 0.0098835270902117526 0.031084656084656055 -0.011814442234754049
decision_type=2 2 2 2 2 2 2 2 2 2 2 2 2 2 2
left_child=1 5 7 12 6 -1 -3 -2 -9 14 -8 -10 -4 -13 -6
right_child=2 4 3 -5 9 -7 10 8 11 -11 -12 13 -14 -15 -16
leaf_value=-0.00044099245182771182 0 0 0 0.00036361730333041168 -3.9998846081923326e-05 0 0 0 0 0 -0.00016688515444481252 0 0.00013464723799100754 5.0734025875072436e-05 0
leaf_weight=84 108 37 23 108 203 25 20 42 25 94 249 20 287 250 20
leaf_count=84 108 37 23 108 203 25 20 42 25 94 249 20 287 250 20
internal_value=0 -0.000145013 0.000118071 0.000201979 -9.5844e-05 -0.000379869 -0.000147814 2.79933e-05 3.94248e-05 -2.98788e-05 -0.000160187 4.58203e-05 0.000129443 4.85468e-05 -3.78086e-05
internal_weight=1595 732 863 418 623 109 306 445 337 317 269 295 310 270 223
internal_count=1595 732 863 418 623 109 306 445 337 317 269 295 310 270 223
is_linear=0
shrinkage=0.05


Tree=24
num_leaves=14
num_cat=0
split_feature=152 104 153 151 105 151 151 104 105 105 113 120 153
split_gain=0.010061 0.00216476 0.00197298 0.000566029 0.000547465 0.000283804 0.00025322 4.5581e-05 3.11165e-05 1.74027e-05 2.24107e-06 1.89656e-06 9.50603e-07
threshold=-0.073077468601868062 -0.017382492389523444 0.98129035818313937 -0.72230029012121455 0.024289587354435253 0.27174102741916467 -0.50372395473552578 -0.0033484445239683495 0.0054705258771853013 0.0085931471033462523 0.00034456655873535397 0.0016543445957531539 -0.032337881931314011
decision_type=2 2 2 2 2 2 2 2 2 2 2 2 2
left_child=1 3 5 -1 9 10 7 -3 -7 -4 -2 -8 -12
right_child=2 6 4 -5 -6 8 11 -9 -10 -11 12 -13 -14
leaf_value=-0.00038672998830896477 0 -0.00011827718045120895 0 -5.0483789924159609e-05 0.00051854837769990756 0 -1.0338292414966586e-05 0 9.572137941858142e-05 0.00018236202593444994 0 0 6.6746902478694807e-06
leaf_weight=116 73 300 26 57 36 47 189 39 306 169 26 32 179
leaf_count=116 73 300 26 57 36 47 189 39 306 169 26 32 179
internal_value=0 -0.000138926 0.000112975 -0.000304922 0.000245412 5.65384e-05 -7.86731e-05 -0.000109747 8.78787e-05 0.000169118 0 -8.36462e-06 5.22654e-06
internal_weight=1595 733 862 173 231 631 560 339 353 195 278 221 205
internal_count=1595 733 862 173 231 631 560 339 353 195 278 221 205
is_linear=0
shrinkage=0.05


Tree=25
num_leaves=15
num_cat=0
split_feature=153 153 153 115 153 105 146 126 115 117 151 74 104 35
split_gain=0.00937385 0.00210538 0.00180276 0.000645297 0.000343535 0.000319373 0.000138488 0.000100339 2.51598e-05 1.86147e-05 1.64428e-05 2.44676e-05 7.93387e-06 1.26248e-07
threshold=-0.032337881931314011 -0.83516917830283643 1.1579892870706987 0.012267042756181967 0.35295111825774544 0.010056176464153152 0.17130096930842814 0.00062606177937628911 0.0051268391959463288 0.010035320713588251 -0.29623869530234204 -0.95717549408806979 -0.0021995784270538994 0.19543650793650805
decision_type=2 2 2 2 2 2 2 2 2 2 2 2 2 2
left_child=1 3 4 8 10 -4 -6 9 -1 -3 -2 -12 -11 -13
right_child=2 7 5 -5 6 -7 -8 -9 -10 12 11 13 -14 -15
leaf_value=0 0 0 0 -0.00039644898175128577 3.9916642788202719e-05 0.00030001812948545023 0.00016702990100198511 0 -0.00015187226031365789 -8.0783893009692888e-05 0 0 0 2.3382439535304482e-05
leaf_weight=20 20 33 30 90 208 150 134 192 171 227 37 21 21 240
leaf_count=20 20 33 30 90 208 150 134 192 171 227 37 21 21 240
internal_value=0 -0.000127884 0.000114956 -0.000241773 6.62412e-05 0.000265677 0.000104371 -4.96201e-05 -0.000142556 -7.09666e-05 9.49529e-06 1.53005e-05 -7.67705e-05 2.23954e-05
internal_weight=1594 754 840 281 660 180 342 473 191 281 318 298 248 261
internal_count=1594 754 840 281 660 180 342 473 191 281 318 298 248 261
is_linear=0
shrinkage=0.05


Tree=26
num_leaves=14
num_cat=0
split_feature=153 153 153 136 153 105 127 121 150 104 74 154 104
split_gain=0.0086072 0.00189383 0.00160755 0.000779746 0.000312125 0.000263006 0.000119777 5.21565e-05 4.59816e-05 1.33908e-05 8.14733e-06 1.45612e-05 1.41697e-06
threshold=-0.032337881931314011 -0.68716663074726581 1.1579892870706987 -0.020366004807609247 0.30419065059821976 0.010111999406445351 0.010790946765104973 0.0075290875689010888 0.017891737979446255 -0.0062229533458345492 -1.0552733783834898 0.4250000000000001 -0.0021408659974582497
decision_type=2 2 2 2 2 2 2 2 2 2 2 2 2
left_child=1 3 4 -1 10 -4 -6 -3 -5 -10 -2 -12 -9
right_child=2 7 5 8 6 -7 -8 12 9 -11 11 -13 -14
leaf_value=-0.00037433614098591865 0 0 0 0 3.7183671989819245e-05 0.00028703954214222949 0.00015361797760938666 -5.8619066172837191e-05 -0.00014781483238811451 0 0 1.688295689946528e-05 0
leaf_weight=97 30 174 32 26 225 148 145 239 177 20 42 218 21
leaf_count=97 30 174 32 26 225 148 145 239 177 20 42 218 21
internal_value=0 -0.000122581 0.000110117 -0.000219184 6.34919e-05 0.000253183 9.63524e-05 -3.98008e-05 -0.000129147 -0.000139507 4.31224e-06 9.95238e-06 -5.60816e-05
internal_weight=1594 754 840 320 660 180 370 434 223 197 290 260 260
internal_count=1594 754 840 320 660 180 370 434 223 197 290 260 260
is_linear=0
shrinkage=0.05


Tree=27
num_leaves=11
num_cat=0
split_feature=152 153 152 121 105 153 127 153 121 121
split_gain=0.00793061 0.00216904 0.00108966 0.000662675 0.000304554 8.70177e-05 6.28655e-05 5.72779e-05 2.9128e-05 2.51479e-05
threshold=0.055098247275057931 -0.68716663074726581 1.0202466995769901 0.010944106792165972 0.015371974990741902 0.23357324724840253 0.0080773426047179905 -0.11078095028697399 0.0074399759419380767 0.0052710476345106507
decision_type=2 2 2 2 2 2 2 2 2 2
left_child=1 3 5 9 -4 -2 -7 8 -3 -1
right_child=2 7 4 -5 -6 6 -8 -9 -10 -11
leaf_value=0 0 0 9.7131868319672054e-05 -0.00033974206804303684 0.00032575952154854465 0 0.00010107716028221366 0 -5.6299866244432119e-05 -0.00012243527779921167
leaf_weight=20 130 143 121 112 102 128 253 169 228 188
leaf_count=20 130 143 121 112 102 128 253 169 228 188
internal_value=0 -0.000102993 0.000120746 -0.000209425 0.000224217 6.57737e-05 7.98295e-05 -3.06381e-05 -4.18574e-05 -0.000115098
internal_weight=1594 860 734 320 223 511 381 540 371 208
internal_count=1594 860 734 320 223 511 381 540 371 208
is_linear=0
shrinkage=0.05


Tree=28
num_leaves=14
num_cat=0
split_feature=152 152 152 104 126 105 153 127 104 152 107 92 121
split_gain=0.00729851 0.00195628 0.000972366 0.000638448 0.000174469 0.000166489 0.000122707 9.28742e-05 7.59728e-05 2.38343e-05 1.86352e-06 6.14706e-07 2.871e-07
threshold=0.055098247275057931 -0.90465845694217484 1.1541051219123164 -0.026428776950883748 -0.00027927236897572612 0.0099949322761896022 0.35295111825774544 0.0084467319929129089 -0.0082449415444334987 -0.26929191358342491 -0.0032618733348079303 0.017691798941798956 0.0048863674198637739
decision_type=2 2 2 2 2 2 2 2 2 2 2 2 2
left_child=1 3 6 -1 -3 -4 10 -8 -5 11 -2 -6 -13
right_child=2 4 5 8 9 -7 7 -9 -10 -11 -12 12 -14
leaf_value=-0.0004785199152326625 0 -9.6329420820640737e-05 0 -0.00017270261867398406 0 0.00026062903670245934 6.3278155647954621e-06 0.0001218586209905158 0 0 8.6566456176370798e-06 0 -2.4280230015628114e-05
leaf_weight=40 20 140 33 166 23 148 131 214 51 222 188 20 198
leaf_count=40 20 140 33 166 23 148 131 214 51 222 188 20 198
internal_value=0 -9.86971e-05 0.000115941 -0.000219173 -3.90318e-05 0.000230763 6.92838e-05 9.24935e-05 -0.000148138 -1.08925e-05 6.7341e-06 -2.17953e-05 -2.3069e-05
internal_weight=1594 860 734 257 603 181 553 345 217 463 208 241 218
internal_count=1594 860 734 257 603 181 553 345 217 463 208 241 218
is_linear=0
shrinkage=0.05


Tree=29
num_leaves=14
num_cat=0
split_feature=152 151 152 116 121 150 153 129 151 156 105 104 126
split_gain=0.00673754 0.00184879 0.000855794 0.000779619 0.00027041 0.000102594 6.30692e-05 3.57982e-05 1.32349e-05 1.19288e-05 9.27222e-06 8.67845e-06 5.14901e-07
threshold=0.055098247275057931 -0.86065335225638473 1.0202466995769901 -0.025549714904321143 0.013274476039498828 0.042225241948143456 0.23357324724840253 0.018759491412133251 -0.20147750760600602 0.47500000000000003 0.0051109819787024001 -0.0041219829910648488 0.001507517543283918
decision_type=2 2 2 2 2 2 2 2 2 2 2 2 2
left_child=1 3 6 -1 -4 8 -2 -8 12 -7 -9 -5 -3
right_child=2 5 4 11 -6 9 7 10 -10 -11 -12 -13 -14
leaf_value=-0.000386718987227246 0 -1.256816581425373e-05 0.00012555879377836452 -0.00012499176907792745 0.00038881482847016543 -7.930019037084622e-05 0 0 0 0 8.8269487325032736e-05 0 0
leaf_weight=71 130 254 175 201 48 133 83 21 136 23 277 21 21
leaf_count=71 130 254 175 201 48 133 83 21 136 23 277 21 21
internal_value=0 -9.48544e-05 0.00011137 -0.000200682 0.000204784 -3.13246e-05 6.07891e-05 7.32775e-05 -3.7441e-06 -7.19091e-05 8.46455e-05 -0.000118525 -1.18837e-05
internal_weight=1594 860 734 293 223 567 511 381 411 156 298 222 275
internal_count=1594 860 734 293 223 567 511 381 411 156 298 222 275
is_linear=0
shrinkage=0.05


Tree=30
num_leaves=11
num_cat=0
split_feature=153 151 153 135 149 113 121 152 151 32
split_gain=0.00686641 0.00139 0.00133161 0.000780508 0.000358896 5.50246e-05 4.36935e-05 1.42808e-05 1.38536e-05 1.77065e-06
threshold=-0.057912188802278032 0.57693010693551161 -0.91445657914753187 0.027935183238790955 0.023397414535786355 0.0005817609763491445 0.0075290875689010888 -0.23315264357012824 -0.26028315318105699 0.54117063492063511
decision_type=2 2 2 2 2 2 2 2 2 2
left_child=2 5 4 -3 -1 -2 -4 -8 -7 -10
right_child=1 3 6 -5 -6 8 7 -9 9 -11
leaf_value=-1.4898943751209335e-05 0 0.00011671324614073191 0 0.00038332150643120562 -0.00025745164017532059 0 -7.5432884118479767e-05 0 3.5858685749738537e-05 0
leaf_weight=68 113 379 176 57 182 20 202 84 273 24
leaf_count=68 113 379 176 57 182 20 202 84 273 24
internal_value=2.22313e-07 9.79078e-05 -0.000111567 0.000163113 -0.000211502 2.01449e-05 -4.66362e-05 -6.24075e-05 3.13727e-05 3.41625e-05
internal_weight=1578 866 712 436 250 430 462 286 317 297
internal_count=1578 866 712 436 250 430 462 286 317 297
is_linear=0
shrinkage=0.05


Tree=31
num_leaves=17
num_cat=0
split_feature=153 153 135 104 151 153 105 146 146 113 126 74 113 104 151 74
split_gain=0.00629991 0.00129854 0.00121093 0.000374474 0.000367559 0.000169543 0.000131415 5.19387e-05 2.90523e-05 2.897e-05 2.04016e-05 1.23466e-05 4.72426e-06 2.45677e-06 1.42199e-06 1.08515e-06
threshold=-0.057912188802278032 1.3802161593082138 -0.017680109231934495 -0.013803677163019848 0.31615997192553508 -0.35998085585674494 0.015531704548547151 0.18321434676970186 0.086190281770060148 -0.0014774781425487187 0.0015217474621493485 -1.2721659919352797 0.00059320021313442569 -0.0036100728928217993 -0.25642868643805544 -0.73299712293421793
decision_type=2 2 2 2 2 2 2 2 2 2 2 2 2 2 2 2
left_child=2 4 3 -1 12 8 -3 11 -4 -9 13 -6 -2 -10 -14 -16
right_child=1 6 5 -5 7 -7 -8 9 10 -11 -12 -13 14 -15 15 -17
leaf_value=-0.00030573456739245051 0 6.2260447799935054e-06 0 0 0 0 0.0003187353741992199 0 -9.5617730029963824e-05 0.00016344591148035836 0 4.9796767183521018e-05 0 0 0 1.0190186343380189e-05
leaf_weight=107 82 41 23 41 23 202 84 22 293 114 25 286 20 21 20 174
leaf_count=107 82 41 23 41 23 202 84 22 293 114 25 286 20 21 20 174
internal_value=0 9.35277e-05 -0.000107136 -0.000247538 5.9294e-05 -6.13924e-05 0.000256287 8.89849e-05 -8.39175e-05 0.000147865 -8.79431e-05 4.68545e-05 0 -9.22601e-05 7.42726e-06 8.89739e-06
internal_weight=1578 866 712 148 741 564 125 445 362 136 339 309 296 314 214 194
internal_count=1578 866 712 148 741 564 125 445 362 136 339 309 296 314 214 194
is_linear=0
shrinkage=0.05


Tree=32
num_leaves=16
num_cat=0
split_feature=151 152 136 104 105 151 156 104 35 115 104 92 15 105 107
split_gain=0.00580809 0.00138082 0.000993217 0.000434616 0.00038776 0.000169842 5.00044e-05 1.25845e-05 1.15029e-05 1.06737e-05 1.38216e-05 4.13666e-06 3.25418e-06 1.21947e-06 7.87499e-09
threshold=1.0000000180025095e-35 -0.83907071747189821 0.016450223301416555 -0.026428776950883748 0.025549899662518704 0.36274400527675343 0.40833333333333338 -0.0010490834937780498 0.10929232804232801 0.004710759997906413 -0.0067942369845294991 0.020667989417989405 0.93601190476190521 0.009187036961345001 -0.0010159220687713372
decision_type=2 2 2 2 2 2 2 2 2 2 2 2 2 2 2
left_child=1 3 5 -1 13 14 7 11 -7 -5 -11 -3 -13 -4 -2
right_child=2 6 4 9 -6 8 -8 -9 -10 10 -12 12 -14 -15 -16
leaf_value=-0.00039119641708185876 0 0 0 0 0.000444221088417234 0 0 0 8.4523406699519145e-05 -0.00013551517696633563 0 -4.6047066823487954e-05 0 0.00013011938357960202 3.3247811987821162e-07
leaf_weight=46 35 20 21 23 37 34 163 20 364 208 20 279 23 107 178
leaf_count=46 35 20 21 23 37 34 163 20 364 208 20 279 23 107 178
internal_value=0 -9.1351e-05 0.000100422 -0.000180958 0.000222342 5.9285e-05 -2.87272e-05 -3.9798e-05 8.03854e-05 -0.000122375 -0.000128851 -4.21889e-05 -4.39542e-05 0.000118877 0
internal_weight=1578 802 776 297 165 611 505 342 398 251 228 322 302 128 213
internal_count=1578 802 776 297 165 611 505 342 398 251 228 322 302 128 213
is_linear=0
shrinkage=0.05


Tree=33
num_leaves=19
num_cat=0
split_feature=153 152 156 105 145 153 152 103 127 153 104 35 107 117 74 92 131 127
split_gain=0.00537214 0.00109517 0.00104548 0.00027837 0.000231546 0.000171733 7.23615e-05 5.69891e-05 5.48254e-05 1.8772e-05 1.85135e-05 1.32378e-05 1.32162e-05 9.85925e-06 6.55768e-06 3.69051e-06 3.32383e-06 2.63435e-06
threshold=-0.057912188802278032 1.1541051219123164 0.058333333333333341 0.026555350820242452 0.18489632430936706 0.39466657827659046 -0.23315264357012824 0.0087957404795345993 0.0084467319929129089 -0.3674815089995993 -0.019323398545088095 0.17096560846560852 -0.00012743185568630554 0.0093574683972961516 -0.30550668206040693 0.013062169312169301 0.0012988951176801699 0.0054294774046229318
decision_type=2 2 2 2 2 2 2 2 2 2 2 2 2 2 2 2 2 2
left_child=2 5 7 13 9 12 16 -1 -7 10 -4 -10 -2 -3 -14 -12 -6 -17
right_child=1 3 4 -5 6 8 -8 -9 11 -11 15 -13 14 -15 -16 17 -18 -19
leaf_value=0 0 0 0 0.00050406750069238173 -0.00015321659526067454 0 0 -0.00032386244985138955 0 0 0 0.00010443271231407473 0 0.00014327657224189524 1.6017643701609813e-05 0 0 -4.7458747731783004e-05
leaf_weight=20 75 20 23 21 131 128 37 67 20 165 20 186 56 153 207 21 20 208
leaf_count=20 75 20 23 21 131 128 37 67 20 165 20 186 56 153 207 21 20 208
internal_value=0 8.64935e-05 -9.87988e-05 0.000200251 -6.53458e-05 4.61887e-05 -0.000123918 -0.000281366 7.46033e-05 -2.8686e-05 -3.86569e-05 9.8424e-05 3.308e-06 0.000134216 1.18171e-05 -4.26396e-05 -0.000142524 -4.49125e-05
internal_weight=1578 866 712 194 625 672 188 87 334 437 272 206 338 173 263 249 151 229
internal_count=1578 866 712 194 625 672 188 87 334 437 272 206 338 173 263 249 151 229
is_linear=0
shrinkage=0.05


Tree=34
num_leaves=18
num_cat=0
split_feature=153 135 156 152 105 79 153 32 89 103 39 107 152 104 110 151 51
split_gain=0.00498419 0.00101689 0.000930184 0.000358126 0.000308805 0.000203752 7.89398e-05 2.61504e-05 2.46698e-05 2.17156e-05 1.59837e-05 1.21918e-05 9.2744e-06 6.76744e-06 1.97154e-06 1.19392e-06 7.22632e-07
threshold=-0.057912188802278032 0.023951167782516554 0.058333333333333341 0.44449197699570336 0.013935169366804502 0.061817849818188657 -0.31643110285520598 0.55803571428571408 0.77956147746926463 0.0087957404795345993 1.8586166828494552 0.0006166724383739995 -0.37391356985118646 -0.0075995313421536991 -0.016370550793128744 -0.22554348384946779 3.6903893954965454
decision_type=2 2 2 2 2 2 2 2 2 2 2 2 2 2 2 2 2
left_child=2 3 9 11 -3 6 8 10 13 -1 -5 -2 14 -4 -7 -13 -17
right_child=1 4 5 7 -6 12 -8 -9 -10 -11 -12 15 -14 -15 -16 16 -18
leaf_value=0 0 0 -0.00014242847315873412 9.5639534171752414e-05 0.00031706773035864865 0 0 0 0 -0.00030769346542649487 0 0 0 0 -2.6391097077911602e-05 1.3911636552664374e-05 0
leaf_weight=20 114 21 155 380 68 27 75 23 20 67 25 21 119 22 207 194 20
leaf_count=20 114 21 155 380 68 27 75 23 20 67 25 21 119 22 207 194 20
internal_value=0 8.33041e-05 -9.51728e-05 5.64737e-05 0.0002611 -6.29507e-05 -0.000102709 8.87428e-05 -0.000124757 -0.00026891 9.21075e-05 2.5635e-06 -1.81351e-05 -0.00013293 -2.43948e-05 1.18069e-05 1.29235e-05
internal_weight=1578 866 712 777 89 625 272 428 197 87 405 349 353 177 234 235 214
internal_count=1578 866 712 777 89 625 272 428 197 87 405 349 353 177 234 235 214
is_linear=0
shrinkage=0.05


Tree=35
num_leaves=16
num_cat=0
split_feature=153 134 135 105 151 153 146 126 149 126 105 107 34 74 79
split_gain=0.00434795 0.0010699 0.000867694 0.000302392 0.000178358 0.000118727 5.07134e-05 2.52321e-05 2.0409e-05 1.12514e-05 4.89069e-06 2.86413e-06 2.26222e-06 1.79153e-06 4.41557e-07
threshold=-0.0089374727242463332 -0.021266698380752843 0.019662131417773003 0.013183568474470051 0.40786512509190392 -0.46135177212935957 0.097586637629637069 0.0012654811367359999 0.029406139802210355 0.00094451111027186898 0.0050567241400686002 7.5537194195634649e-05 0.96494708994709011 -1.8338350976060747 0.92297850760600653
decision_type=2 2 2 2 2 2 2 2 2 2 2 2 2 2 2
left_child=1 8 4 -4 11 6 -3 -8 -1 14 -6 -2 -13 -12 -7
right_child=2 5 3 -5 10 9 7 -9 -10 -11 13 12 -14 -15 -16
leaf_value=0 0 0 0 0.00026563901522609076 0 -1.7585821847845544e-05 -9.5893630538683249e-05 0 -0.00028422192858764479 0 0 7.8665455976057134e-06 0 7.5392157192089233e-05 0
leaf_weight=22 64 47 32 91 20 200 257 39 82 81 21 207 26 354 37
leaf_count=22 64 47 32 91 20 200 257 39 82 81 21 207 26 354 37
internal_value=0 -8.71917e-05 7.87373e-05 0.000214662 4.73254e-05 -5.37527e-05 -7.96071e-05 -8.81554e-05 -0.000251436 -1.01313e-05 7.10765e-05 0 5.54237e-06 7.31698e-05 -1.60108e-05
internal_weight=1580 765 815 123 692 661 343 296 104 318 395 297 233 375 237
internal_count=1580 765 815 123 692 661 343 296 104 318 395 297 233 375 237
is_linear=0
shrinkage=0.05


Tree=36
num_leaves=17
num_cat=0
split_feature=153 156 153 121 42 105 135 153 104 154 74 152 104 38 92 122
split_gain=0.00400997 0.00106637 0.000795693 0.000229534 0.000145154 8.31647e-05 4.0732e-05 3.89928e-05 3.60949e-05 3.43748e-05 2.34901e-05 2.04338e-05 2.32946e-05 4.11888e-06 2.80283e-06 1.56765e-06
threshold=-0.0089374727242463332 0.058333333333333341 1.3802161593082138 0.011647373629822181 -0.10027910888145619 0.015531704548547151 -0.016758076167787395 0.13768120823168087 -0.0073465253497652485 0.52500000000000013 -1.3258479499289149 -0.29339537582928671 -0.020031106891912096 -1.8662027033669848 0.013062169312169301 -0.011292172491088997
decision_type=2 2 2 2 2 2 2 2 2 2 2 2 2 2 2 2
left_child=1 6 4 11 9 -4 -1 -6 -5 -2 -11 12 -3 -14 -15 -16
right_child=2 3 5 8 7 -7 -8 -9 -10 10 -12 -13 13 14 15 -17
leaf_value=-0.00032278082921294196 0 0 0 -0.00012348357807693706 0 0.00026307773259429124 0 0.00010723340143219949 0 0 2.9149776508616659e-05 0 0 0 -3.8651622184868276e-05 0
leaf_weight=59 85 22 35 158 27 77 23 154 31 34 403 153 22 25 248 24
leaf_count=59 85 22 35 158 27 77 23 154 31 34 403 153 22 25 248 24
internal_value=0 -8.38282e-05 7.55175e-05 -5.39302e-05 4.63346e-05 0.000213884 -0.000271587 9.6158e-05 -0.000110776 1.94669e-05 2.54806e-05 -2.20441e-05 -2.92177e-05 -3.30913e-05 -3.47962e-05 -3.6712e-05
internal_weight=1580 765 815 683 703 112 82 181 189 522 437 494 341 319 297 272
internal_count=1580 765 815 683 703 112 82 181 189 522 437 494 341 319 297 272
is_linear=0
shrinkage=0.05


Tree=37
num_leaves=17
num_cat=0
split_feature=153 156 136 126 152 152 111 104 74 127 152 104 38 35 107 74
split_gain=0.0037079 0.000960769 0.000725987 0.000205228 0.000188385 0.000127737 6.36317e-05 3.28907e-05 2.37285e-05 1.57762e-05 1.56852e-05 7.10539e-06 2.84903e-06 2.61966e-06 3.32059e-07 1.62752e-06
threshold=-0.0089374727242463332 0.058333333333333341 0.017355219306983052 6.1471464687303022e-05 0.5625657229690072 0.37904707532221654 0.015790075703443405 -0.028056407609226498 -1.7431129764269249 0.0097256926545969593 -0.29339537582928671 -0.016319941043864146 -1.8662027033669848 0.087632275132275159 7.5537194195634649e-05 -0.69070387420899637
decision_type=2 2 2 2 2 2 2 2 2 2 2 2 2 2 2 2
left_child=1 7 5 9 -4 14 -6 -1 -7 -3 11 -5 -13 -10 -2 -16
right_child=2 3 4 10 6 8 -8 -9 13 -11 -12 12 -14 -15 15 -17
leaf_value=-0.00042278492299470893 0 0 0 0 0 0 0.00025230239396779733 -6.9467415142716784e-05 0 -0.00011495466282633537 0 0 -2.6637908588030052e-05 6.6466570931133164e-05 0 5.1585084076655963e-06
leaf_weight=30 70 73 28 25 26 21 88 52 25 172 145 21 247 342 31 184
leaf_count=30 70 73 28 25 26 21 88 52 25 172 145 21 247 342 31 184
internal_value=0 -8.06822e-05 7.25413e-05 -5.18005e-05 0.000187169 4.09027e-05 0.000218533 -0.000259989 6.10283e-05 -9.54875e-05 -1.59345e-05 -2.26563e-05 -2.50486e-05 6.40243e-05 0 1.96452e-06
internal_weight=1580 765 815 683 142 673 114 82 388 245 438 293 268 367 285 215
internal_count=1580 765 815 683 142 673 114 82 388 245 438 293 268 367 285 215
is_linear=0
shrinkage=0.05


Tree=38
num_leaves=18
num_cat=0
split_feature=153 156 153 126 151 129 74 127 151 105 69 104 104 107 34 105 74
split_gain=0.00344209 0.000876208 0.00066533 0.000180793 0.000119428 4.36907e-05 3.2659e-05 2.04037e-05 1.51561e-05 1.21279e-05 1.14339e-05 7.25555e-06 6.05022e-06 4.66875e-06 2.6733e-06 1.2164e-06 7.04202e-07
threshold=-0.0089374727242463332 0.058333333333333341 1.3802161593082138 6.1471464687303022e-05 0.40786512509190392 0.015631387115709803 -1.711784178686685 0.0096999725933979569 -0.31373940579382181 0.0089878968991521525 1.7898891869055302 -0.016319941043864146 -0.0065034502354931996 7.5537194195634649e-05 0.96494708994709011 0.014014535878331652 -0.67565859566849185
decision_type=2 2 2 2 2 2 2 2 2 2 2 2 2 2 2 2 2
left_child=1 -1 4 10 13 -4 -6 15 11 -9 12 -5 -3 -2 16 -8 -15
right_child=2 3 5 8 6 -7 7 9 -10 -11 -12 -13 -14 14 -16 -17 -18
leaf_value=-0.00025006438152162401 0 -0.00010128246429774559 0 0 0 0.00022178715469727643 1.4658810873000042e-05 0 0 0.00010586658542011579 0 -2.3593332953251222e-05 0 0 0 0 1.0453346785534118e-05
leaf_weight=82 67 204 21 23 20 91 170 27 133 150 20 282 21 33 27 25 184
leaf_count=82 67 204 21 23 20 91 170 27 133 150 20 282 21 33 27 25 184
internal_value=0 -7.78952e-05 6.97267e-05 -4.98716e-05 4.2236e-05 0.000197485 6.29305e-05 6.62762e-05 -1.51836e-05 9.65808e-05 -9.1454e-05 -2.13361e-05 -9.60934e-05 6.77241e-08 6.91533e-06 1.31057e-05 9.19529e-06
internal_weight=1580 765 815 683 703 112 392 372 438 177 245 305 225 311 244 195 217
internal_count=1580 765 815 683 703 112 392 372 438 177 245 305 225 311 244 195 217
is_linear=0
shrinkage=0.05


Tree=39
num_leaves=19
num_cat=0
split_feature=153 135 135 104 105 152 136 126 49 121 68 75 104 74 16 74 117 10
split_gain=0.00318519 0.000798273 0.000628109 0.000206166 0.000204875 0.000117597 8.22868e-05 3.54901e-05 1.69266e-05 1.13286e-05 4.56717e-06 4.40641e-06 6.30718e-06 3.60589e-06 5.79093e-06 2.29783e-06 9.84449e-07 2.89744e-07
threshold=-0.0089374727242463332 -0.016225227481933596 0.019662131417773003 -0.011885989714946548 0.013183568474470051 0.50983921783375641 -0.0060692279151878994 0.0012219269261715016 -1.0504570912894546 0.0050666961441969615 0.24371693121693103 0.039021164021164061 -0.0030589665045302494 -0.95717549408806979 1.6810077805675003 -1.8338350976060747 0.0089308559572576513 0.086474867724867718
decision_type=2 2 2 2 2 2 2 2 2 2 2 2 2 2 2 2 2 2
left_child=1 3 5 6 -4 13 -1 8 -3 -10 11 -11 -13 -2 16 -7 -15 -18
right_child=2 7 4 -5 -6 15 -8 -9 9 10 -12 12 -14 14 -16 -17 17 -19
leaf_value=-0.00023314964992933657 0 0 0 0 0.00022733913119237656 0 0 0 0 0 0 -5.2744630264865941e-05 0 0 0 6.4556357472508486e-05 0 1.1109214347883709e-05
leaf_weight=115 42 20 32 43 91 21 20 97 27 27 20 336 60 21 42 326 20 220
leaf_count=115 42 20 32 43 91 21 20 97 27 27 20 336 60 21 42 326 20 220
internal_value=0 -7.47701e-05 6.72437e-05 -0.000176299 0.000184627 3.91312e-05 -0.000211634 -3.54417e-05 -4.1058e-05 -4.29825e-05 -4.49887e-05 -4.63319e-05 -4.81745e-05 1.18673e-06 5.59868e-06 6.24406e-05 9.58305e-06 1.04937e-05
internal_weight=1580 765 815 178 123 692 135 587 490 470 443 423 396 345 303 347 261 240
internal_count=1580 765 815 178 123 692 135 587 490 470 443 423 396 345 303 347 261 240
is_linear=0
shrinkage=0.05


Tree=40
num_leaves=15
num_cat=0
split_feature=152 153 153 128 42 126 152 105 104 49 153 42 153 128
split_gain=0.00297944 0.000820926 0.000497002 0.000392644 0.000107955 5.34615e-05 1.49016e-05 1.62923e-05 1.25193e-05 6.48991e-06 6.03548e-06 2.82266e-06 1.70785e-06 4.96758e-07
threshold=0.074014516375714545 -0.68716663074726581 1.8662803723893886 -0.036010300761534796 -0.10955401799531199 0.00032976976735245208 0.5380508681604298 0.017528834812166504 -0.0017838668245173498 -0.86223147100624842 0.2511801348851036 -1.4788967081741697 0.015218611697632176 -0.014653254450226099
decision_type=2 2 2 2 2 2 2 2 2 2 2 2 2 2
left_child=1 3 4 -1 6 8 -2 -8 11 -5 -6 -3 -13 -11
right_child=2 5 -4 9 10 -7 7 -9 -10 13 -12 12 -14 -15
leaf_value=-0.0002788672011333639 0 0 0.00027752185218860996 0 0 0 3.9633814051770821e-05 0 0 -8.1386438933409743e-05 0.00010868065869448986 -3.9288353728714594e-05 0 0
leaf_weight=64 213 27 41 22 29 282 257 26 27 221 166 195 24 26
leaf_count=64 213 27 41 22 29 282 257 26 27 221 166 195 24 26
internal_value=0 -6.2982e-05 7.32277e-05 -0.000127915 5.38328e-05 -1.49985e-05 2.56297e-05 3.58148e-05 -3.07675e-05 -7.33304e-05 9.98923e-05 -3.43172e-05 -3.68104e-05 -7.6953e-05
internal_weight=1620 888 732 333 691 555 496 283 273 269 195 246 219 247
internal_count=1620 888 732 333 691 555 496 283 273 269 195 246 219 247
is_linear=0
shrinkage=0.05


Tree=41
num_leaves=15
num_cat=0
split_feature=151 151 110 105 104 151 155 113 104 123 105 86 159 39
split_gain=0.00281791 0.000736573 0.000563036 0.000432599 8.41827e-05 5.46218e-05 4.51726e-05 1.16796e-05 1.10963e-05 1.04967e-05 9.84799e-06 2.49841e-06 1.52133e-06 1.31165e-06
threshold=-0.28471619860728531 0.75809378226626956 -0.025549714904321143 0.028080651004694101 -0.018930698894040747 -0.51740859397765726 0.56250000000000011 -0.002856434428550712 -0.0033484445239683495 0.018759491412133251 0.0067779649689980008 0.79199735449735453 0.014255990339109551 0.6370043264754871
decision_type=2 2 2 2 2 2 2 2 2 2 2 2 2 2
left_child=2 6 4 10 -1 8 -2 -8 12 -9 -3 13 -4 -11
right_child=1 3 5 -5 -6 -7 7 9 -10 11 -12 -13 -14 -15
leaf_value=-0.00025928469680386871 0 0 -6.9416607929591054e-05 0.00040296873130716415 0 0 0 0 0 3.9357520602943292e-05 7.9842134792793842e-05 0 0 0
leaf_weight=70 299 23 333 21 21 130 20 143 35 156 309 20 20 20
leaf_count=70 299 23 333 21 21 130 20 143 35 156 309 20 20 20
internal_value=0 4.98548e-05 -8.62551e-05 0.000110233 -0.000222309 -5.26649e-05 9.85409e-06 2.2191e-05 -6.3675e-05 2.46494e-05 7.6545e-05 3.44162e-05 -6.73421e-05 3.68031e-05
internal_weight=1620 1011 609 353 91 518 658 359 388 339 332 196 353 176
internal_count=1620 1011 609 353 91 518 658 359 388 339 332 196 353 176
is_linear=0
shrinkage=0.05


Tree=42
num_leaves=14
num_cat=0
split_feature=151 151 116 153 105 151 129 36 51 10 104 42 113
split_gain=0.00260153 0.000677859 0.000512548 0.000135941 9.99889e-05 7.36793e-05 4.66453e-05 3.32991e-05 2.21195e-05 2.09433e-05 1.87838e-05 1.51205e-05 1.42085e-05
threshold=-0.28471619860728531 1.1775202905198732 -0.036010300761534796 0.09650579362745472 0.018112788594498105 -0.51740859397765726 0.017855279401326203 0.48578042328042309 3.6903893954965454 0.015376984126984102 -0.0037077164952463494 -1.2704474739108897 -0.0014774781425487187
decision_type=2 2 2 2 2 2 2 2 2 2 2 2 2
left_child=2 3 -1 -2 -3 10 -5 8 9 -8 -4 -11 -13
right_child=1 4 5 6 -6 -7 7 -9 -10 11 -12 12 -14
leaf_value=-0.00026935517795398107 0 5.7815004821469783e-05 -7.3528385590321111e-05 0 0.00025974180431600932 0 0 0 0 0 0 0 7.0019563620504741e-05
leaf_weight=50 293 136 381 135 51 135 30 61 28 32 43 24 221
leaf_count=50 293 136 381 135 51 135 30 61 28 32 43 24 221
internal_value=0 4.79127e-05 -8.28677e-05 2.09964e-05 0.000139719 -5.71991e-05 3.63863e-05 4.54929e-05 5.19111e-05 5.58617e-05 -6.89023e-05 6.03931e-05 6.54044e-05
internal_weight=1620 1011 609 824 187 559 531 396 335 307 424 277 245
internal_count=1620 1011 609 824 187 559 531 396 335 307 424 277 245
is_linear=0
shrinkage=0.05


Tree=43
num_leaves=15
num_cat=0
split_feature=151 152 110 111 151 113 155 152 123 92 42 52 51 36
split_gain=0.00239807 0.000627737 0.000461739 0.000313037 3.05695e-05 2.09366e-05 1.32798e-05 1.21453e-05 5.95189e-06 4.35123e-06 3.94609e-06 3.14132e-06 2.60373e-06 2.25175e-06
threshold=-0.28471619860728531 0.5866278582672243 -0.024577394991238947 0.029643901040782555 -0.44823860029803048 0.00028096296542992486 0.36250000000000004 -0.079372636718836667 0.0094868053930020017 0.013062169312169301 -1.1287994766782898 -0.44683430134085644 3.7354597590159555 0.48578042328042309
decision_type=2 2 2 2 2 2 2 2 2 2 2 2 2 2
left_child=2 5 10 8 6 -2 9 -7 -3 -4 -1 -9 13 -13
right_child=1 3 4 -5 -6 7 -8 11 -10 -11 -12 12 -14 -15
leaf_value=0 0 0 0 0.00028990479926625134 0 0 0 0 6.4921253881227602e-05 -5.7024251716725881e-05 -0.00021775242187300331 2.3735639468960073e-05 0 0
leaf_weight=20 195 20 21 35 93 81 26 67 370 366 83 193 22 28
leaf_count=20 195 20 21 35 93 81 26 67 370 366 83 193 22 28
internal_value=0 4.61036e-05 -7.94625e-05 9.34504e-05 -4.59799e-05 3.22402e-06 -5.26792e-05 1.22233e-05 6.29328e-05 -5.5202e-05 -0.000195249 1.69218e-05 1.99392e-05 2.16003e-05
internal_weight=1620 1011 609 425 506 586 413 391 390 387 103 310 243 221
internal_count=1620 1011 609 425 506 586 413 391 390 387 103 310 243 221
is_linear=0
shrinkage=0.05


Tree=44
num_leaves=15
num_cat=0
split_feature=152 136 82 153 152 152 91 116 136 126 68 110 156 29
split_gain=0.00218685 0.00058556 0.000386519 0.000171513 0.000106296 8.00122e-05 7.92447e-05 3.06602e-05 1.22778e-05 1.06264e-05 1.09519e-05 6.81582e-06 4.59249e-06 2.0678e-07
threshold=0.074014516375714545 -0.020366004807609247 1.9515583952116751 -0.54342214526960075 0.5866278582672243 -0.23315264357012824 1.5247294842623802 -0.020509186546977348 -0.003709764200549949 0.0012219269261715016 0.22916666666666705 -0.0041101896079333488 0.40833333333333338 0.97337962962962965
decision_type=2 2 2 2 2 2 2 2 2 2 2 2 2 2
left_child=1 3 4 7 -2 9 -4 -1 -6 10 11 12 -3 -10
right_child=2 5 6 -5 8 -7 -8 -9 13 -11 -12 -13 -14 -15
leaf_value=-0.00021361862177785886 0 -5.1787029398001791e-05 0 0 0 0 0.00024038809480340586 0 6.4691853964705056e-05 0 0 0 0 0
leaf_weight=86 278 334 20 22 20 279 51 24 335 77 24 22 20 28
leaf_count=86 278 334 20 22 20 279 51 24 335 77 24 22 20 28
internal_value=0 -5.38275e-05 6.28722e-05 -0.000160986 4.08918e-05 -2.84857e-05 0.000196838 -0.000187055 5.98265e-05 -4.12942e-05 -4.58233e-05 -4.80268e-05 -4.998e-05 6.2136e-05
internal_weight=1620 888 732 132 661 756 71 110 383 477 400 376 354 363
internal_count=1620 888 732 132 661 756 71 110 383 477 400 376 354 363
is_linear=0
shrinkage=0.05


Tree=45
num_leaves=14
num_cat=0
split_feature=151 151 116 155 105 151 128 104 119 128 119 77 88
split_gain=0.00199433 0.000569928 0.000435513 9.37985e-05 4.91645e-05 4.65635e-05 3.81158e-05 2.82736e-05 8.17151e-06 7.31414e-06 3.76254e-06 7.51655e-07 3.93943e-07
threshold=-0.28471619860728531 1.1775202905198732 -0.030567690996070897 0.56250000000000011 0.0097866488150926516 -0.68766191414832301 -0.033168287477222544 -0.015146361731740998 -0.00016371755166682267 -0.036010300761534796 -0.0013456387460479408 0.045800264550264556 0.024801587301587304
decision_type=2 2 2 2 2 2 2 2 2 2 2 2 2
left_child=2 3 7 -2 -3 -4 8 9 -5 -1 -8 -12 -13
right_child=1 4 5 6 -6 -7 10 -9 -10 -11 11 12 -14
leaf_value=-0.00026828577141410273 0 0 -5.7664188232399613e-05 0 0.0001479138375503814 0 0 0 7.4314617405186675e-05 0 0 0 8.3796564198727971e-06
leaf_weight=49 296 39 307 33 139 202 33 20 103 23 20 20 317
leaf_count=49 296 39 307 33 139 202 33 20 103 23 20 20 317
internal_value=0 4.15279e-05 -7.36559e-05 1.66961e-05 0.000128053 -4.21563e-05 2.96871e-05 -0.000193407 6.35097e-05 -0.000220823 5.06203e-06 7.3711e-06 7.9455e-06
internal_weight=1601 1000 601 822 178 509 526 92 136 72 390 357 337
internal_count=1601 1000 601 822 178 509 526 92 136 72 390 357 337
is_linear=0
shrinkage=0.05


Tree=46
num_leaves=13
num_cat=0
split_feature=151 151 116 117 151 119 104 153 36 69 131 51
split_gain=0.00185469 0.000517221 0.000395757 0.000187612 3.5987e-05 3.33343e-05 1.47385e-05 1.19789e-05 3.30725e-06 2.00257e-06 1.59899e-06 8.58267e-07
threshold=-0.28471619860728531 0.69072784081395178 -0.030567690996070897 0.024662219539742351 -0.68766191414832301 0.00063356121316235478 -0.019323398545088095 -0.018342407387937149 0.021990740740740752 3.3495042849976202 0.0011008852989844323 4.1574891086077761
decision_type=2 2 2 2 2 2 2 2 2 2 2 2
left_child=2 5 6 8 10 -2 -1 -7 -3 11 -4 -9
right_child=1 3 4 -5 -6 7 -8 9 -10 -11 -12 -13
leaf_value=-0.00022633293976696587 0 0 -5.8324723741273203e-05 0.00020487622327740245 0 0 0 2.2031658429058867e-05 5.0399227831988155e-05 0 0 0
leaf_weight=63 240 25 272 63 202 81 29 267 280 21 35 23
leaf_count=63 240 25 272 63 202 81 29 267 280 21 35 23
internal_value=0 3.99845e-05 -7.10898e-05 8.84955e-05 -4.04176e-05 3.81789e-06 -0.00018627 1.53634e-05 4.80088e-05 1.98432e-05 -5.47819e-05 2.09646e-05
internal_weight=1601 1000 601 368 509 632 92 392 305 311 307 290
internal_count=1601 1000 601 368 509 632 92 392 305 311 307 290
is_linear=0
shrinkage=0.05


Tree=47
num_leaves=14
num_cat=0
split_feature=151 151 109 153 156 128 128 119 111 77 119 29 77
split_gain=0.00171901 0.000485229 0.000355536 8.75046e-05 4.5844e-05 3.78806e-05 3.30397e-05 3.01666e-05 2.98884e-05 1.23802e-05 7.76556e-07 2.19815e-07 2.50798e-07
threshold=-0.28471619860728531 1.1775202905198732 0.013819091739986461 0.09650579362745472 0.27500000000000008 -0.032430840319146892 -0.036010300761534796 -0.00016371755166682267 0.0093799183171870519 0.93237433862433916 -0.0013456387460479408 0.98561507936507919 0.045800264550264556
decision_type=2 2 2 2 2 2 2 2 2 2 2 2 2
left_child=2 3 4 -2 9 7 -4 -5 -3 -1 -7 12 -12
right_child=1 8 6 5 -6 10 -8 -9 -10 -11 11 -13 -14
leaf_value=-5.3074214013182109e-05 0 0 -0.00021659384161444386 0 0 0 0 6.5238344096914632e-05 0.00013323294738247263 0 0 0 3.4742509927724365e-06
leaf_weight=316 288 33 65 40 166 28 30 134 145 24 20 26 286
leaf_count=316 288 33 65 40 166 28 30 134 145 24 20 26 286
internal_value=0 3.83396e-05 -6.85841e-05 1.48868e-05 -3.83634e-05 2.7399e-05 -0.000176763 5.33388e-05 0.000118501 -5.02702e-05 9.6513e-07 2.61836e-06 3.03866e-06
internal_weight=1601 1000 601 822 506 534 95 174 178 340 360 332 306
internal_count=1601 1000 601 822 506 534 95 174 178 340 360 332 306
is_linear=0
shrinkage=0.05


Tree=48
num_leaves=14
num_cat=0
split_feature=151 151 109 117 156 119 77 153 94 69 36 151 51
split_gain=0.00159224 0.000442271 0.000315945 0.000152536 3.81275e-05 2.82014e-05 1.05618e-05 9.98817e-06 8.18002e-06 1.53957e-06 1.0212e-06 8.14351e-07 7.31627e-07
threshold=-0.28471619860728531 0.69072784081395178 0.013819091739986461 0.024662219539742351 0.27500000000000008 0.00063356121316235478 0.93237433862433916 -0.018342407387937149 0.011730042107436901 3.3495042849976202 0.021990740740740752 -0.51740859397765726 3.6903893954965454
decision_type=2 2 2 2 2 2 2 2 2 2 2 2 2
left_child=2 5 4 8 6 -2 11 -7 10 12 -3 -1 -9
right_child=1 3 -4 -5 -6 7 -8 9 -10 -11 -12 -13 -14
leaf_value=-5.2250622607010967e-05 0 0 -0.00016936146029634513 0.00019007365375376425 0 0 0 2.0131396251506787e-05 0 0 4.7377077577754486e-05 0 0
leaf_weight=295 240 24 95 63 166 81 24 262 20 21 261 21 28
leaf_count=295 240 24 95 63 166 81 24 262 20 21 261 21 28
internal_value=0 3.6887e-05 -6.6018e-05 8.17726e-05 -3.67065e-05 2.83214e-06 -4.78045e-05 1.38831e-05 4.29592e-05 1.79775e-05 4.52403e-05 -5.04213e-05 1.89698e-05
internal_weight=1601 1000 601 368 506 632 340 392 305 311 285 316 290
internal_count=1601 1000 601 368 506 632 340 392 305 311 285 316 290
is_linear=0
shrinkage=0.05


Tree=49
num_leaves=20
num_cat=0
split_feature=152 104 136 153 152 136 42 77 128 113 154 156 90 34 32 123 104 77 25
split_gain=0.00146968 0.0003995 0.000264635 0.00018793 0.000100756 7.33599e-05 5.94281e-05 5.44989e-05 2.28666e-05 1.35212e-05 1.27525e-05 5.87616e-06 4.96245e-06 4.82102e-06 3.19211e-06 3.49877e-06 1.87392e-06 1.11745e-06 9.17342e-07
threshold=0.064914140869056308 -0.011270364036556848 0.014267854749697302 -0.48249837138961821 0.44449197699570336 -0.0032377553012546494 -1.3181250528945898 0.85416666666666707 -0.020823774608031694 -0.0033704185155982425 0.47500000000000003 0.40833333333333338 0.87797619047619058 0.98776455026455012 0.55142195767195756 0.0094097402043654011 -0.0010134437126992997 0.045800264550264556 0.004464285714285701
decision_type=2 2 2 2 2 2 2 2 2 2 2 2 2 2 2 2 2 2 2
left_child=1 3 9 5 -4 7 -6 8 -1 -2 11 16 13 14 15 -11 18 -17 -3
right_child=2 10 4 -5 6 -7 -8 -9 -10 12 -12 -13 -14 -15 -16 17 -18 -19 -20
leaf_value=-0.00014728690449281455 0 0 0 0 0 0 0.00014393582943900227 0 0 0 0 0 0 0 0 0 0 2.8590884675821219e-05 -1.5868163777657073e-05
leaf_weight=168 24 30 33 102 21 33 129 21 31 23 96 74 36 23 36 22 20 390 289
leaf_count=168 24 30 33 102 21 33 129 21 31 23 96 74 36 23 36 22 20 390 289
internal_value=0 -4.59003e-05 5.01481e-05 -8.87985e-05 0.000111447 -0.000113663 0.000129727 -0.000125258 -0.000134271 2.08595e-05 -6.14834e-06 -1.11249e-05 2.27725e-05 2.41139e-05 2.52082e-05 2.65777e-05 -1.39317e-05 2.76951e-05 -1.4864e-05
internal_weight=1601 864 737 355 183 253 150 220 199 554 509 413 530 494 471 435 339 412 319
internal_count=1601 864 737 355 183 253 150 220 199 554 509 413 530 494 471 435 339 412 319
is_linear=0
shrinkage=0.05


Tree=50
num_leaves=14
num_cat=0
split_feature=153 144 67 107 104 153 154 156 123 32 153 123 156
split_gain=0.00139712 0.000487333 0.000222567 9.60525e-05 5.53155e-05 4.59688e-05 1.72276e-05 1.16568e-05 3.70655e-06 4.26901e-06 3.08082e-06 1.2359e-05 7.23925e-07
threshold=0.09650579362745472 0.22557203435159792 0.99200162556858362 -0.00051457566244209974 -0.0084472398125201974 0.54678393595640695 0.27500000000000008 0.40833333333333338 0.011313546678265451 0.55439814814814803 0.35295111825774544 0.025762891141878606 0.25833333333333336
decision_type=2 2 2 2 2 2 2 2 2 2 2 2 2
left_child=1 3 10 6 7 -4 12 -3 -7 -10 -2 -12 -1
right_child=2 4 5 -5 -6 8 -8 -9 9 -11 11 -13 -14
leaf_value=-4.950163607287437e-05 0 -0.00017356012078887609 0 0 0 0 0 0 4.6581832946291144e-05 0 0 0.00022294628575964882 0
leaf_weight=235 23 91 254 384 22 33 121 20 313 23 27 38 21
leaf_count=235 23 91 254 384 22 33 121 20 313 23 27 38 21
internal_value=0 -4.29524e-05 5.09131e-05 -1.95563e-05 -0.000139139 2.95617e-05 -3.75324e-05 -0.000156327 4.22686e-05 4.46052e-05 0.000145112 0.000169161 -4.73541e-05
internal_weight=1605 894 711 761 133 623 377 111 369 336 88 65 256
internal_count=1605 894 711 761 133 623 377 111 369 336 88 65 256
is_linear=0
shrinkage=0.05


Tree=51
num_leaves=13
num_cat=0
split_feature=152 135 67 104 126 152 87 61 153 32 29 152
split_gain=0.00131703 0.000396795 0.000214635 0.000119009 5.25257e-05 5.04375e-05 1.65391e-05 8.30183e-06 3.64091e-06 1.40486e-06 7.64985e-07 1.60732e-07
threshold=0.074014516375714545 -0.016455220339983846 0.99200162556858362 -0.011699114765434447 0.00062606177937628911 0.50983921783375641 0.94146825396825407 -2.2614603386333596 0.064307563259983602 0.55439814814814803 0.97337962962962965 0.37904707532221654
decision_type=2 2 2 2 2 2 2 2 2 2 2 2
left_child=1 3 11 -1 6 -4 7 -3 -9 10 -7 -2
right_child=2 4 5 -5 -6 9 -8 8 -10 -11 -12 -13
leaf_value=-0.00014046919247016028 0 0 0 0 0 4.2829366222561831e-05 0 -3.4338055554979307e-05 0 0 0 0.0001621727871376762
leaf_weight=136 22 30 252 41 273 343 33 339 20 23 27 66
leaf_count=136 22 30 252 41 273 343 33 339 20 23 27 66
internal_value=0 -4.27427e-05 4.81451e-05 -0.000116119 -1.68483e-05 2.77802e-05 -2.79026e-05 -3.08359e-05 -3.29861e-05 3.98401e-05 4.11748e-05 0.000140456
internal_weight=1605 872 733 177 695 645 422 389 359 393 370 88
internal_count=1605 872 733 177 695 645 422 389 359 393 370 88
is_linear=0
shrinkage=0.05


Tree=52
num_leaves=15
num_cat=0
split_feature=152 144 157 151 148 152 153 123 94 126 86 52 31 153
split_gain=0.00121752 0.000417907 0.000183444 0.00010555 5.73165e-05 4.82531e-05 2.03161e-05 1.56782e-05 1.09619e-05 1.72724e-06 1.75466e-06 1.10344e-06 7.50359e-07 3.80034e-07
threshold=0.074014516375714545 0.23564595245927608 1.1248378811568911 -0.96474104738094413 0.032354201515764812 0.50983921783375641 -0.48249837138961821 0.021753256671083656 0.013935169366804502 0.00066113885776498233 0.9672619047619051 -0.63722402001518541 0.95767195767195756 0.054202156669870064
decision_type=2 2 2 2 2 2 2 2 2 2 2 2 2 2
left_child=1 3 7 -1 -3 -4 -6 -2 11 10 12 -7 13 -5
right_child=2 4 5 9 6 8 -8 -9 -10 -11 -12 -13 -14 -15
leaf_value=-5.288570062972754e-05 0 0 0 -6.6454541295821862e-06 -0.00021409365958972135 0 0 0.00016798576199592369 0 0 0 4.3412420010867662e-05 0 0
leaf_weight=207 23 27 256 261 52 28 26 56 28 228 25 342 26 20
leaf_count=207 23 27 256 261 52 28 26 56 28 228 25 342 26 20
internal_value=0 -4.098e-05 4.64132e-05 -2.02758e-05 -0.000144482 2.74799e-05 -0.000172993 0.000139708 3.92907e-05 0 -3.60588e-06 4.16486e-05 -5.324e-06 -6.13515e-06
internal_weight=1605 872 733 767 105 654 78 79 398 560 332 370 307 281
internal_count=1605 872 733 767 105 654 78 79 398 560 332 370 307 281
is_linear=0
shrinkage=0.05


Tree=53
num_leaves=13
num_cat=0
split_feature=152 115 67 151 151 152 94 148 126 52 131 107
split_gain=0.00113561 0.000356944 0.000163286 9.37116e-05 7.60876e-05 3.5512e-05 2.50837e-05 1.16857e-05 1.69938e-06 1.57899e-06 1.09669e-06 5.17522e-07
threshold=0.086233965516728781 0.01409276110566195 0.99200162556858362 -1.2074826240891443 -0.21675706385368573 0.77768780951280936 0.011730042107436901 0.032354201515764812 0.00066113885776498233 1.3436436796710554 0.0008899958491495574 -0.0072292226435484485
decision_type=2 2 2 2 2 2 2 2 2 2 2 2
left_child=1 3 -2 -1 7 -4 -7 -3 9 10 11 -5
right_child=2 4 5 8 -6 6 -8 -9 -10 -11 -12 -13
leaf_value=-5.5833987144765153e-05 0.00013064827854703448 0 0 0 0 4.6448703956770466e-05 0 -0.00017749980262660135 0 0 0 -6.527139363802498e-06
leaf_weight=145 86 32 339 20 36 270 25 71 250 20 24 287
leaf_count=145 86 32 339 20 36 270 25 71 250 20 24 287
internal_value=0 -3.90017e-05 4.55287e-05 -1.70958e-05 -0.000120527 2.60786e-05 4.19786e-05 -0.000146438 0 -3.47857e-06 -4.97531e-06 -5.96791e-06
internal_weight=1605 885 720 746 139 634 295 103 601 351 331 307
internal_count=1605 885 720 746 139 634 295 103 601 351 331 307
is_linear=0
shrinkage=0.05


Tree=54
num_leaves=16
num_cat=0
split_feature=151 116 136 153 104 113 82 123 151 151 94 126 35 35 156
split_gain=0.00105383 0.000294679 0.000242137 6.93544e-05 4.37569e-05 4.03755e-05 3.49302e-05 2.84352e-05 1.46676e-05 8.93544e-06 6.78855e-06 5.45632e-06 1.98008e-06 6.11669e-07 1.31607e-06
threshold=-0.2102498675080279 -0.028817334005087698 0.014267854749697302 0.35295111825774544 -0.018930698894040747 0.00017708456147683406 -0.083473136427360192 0.019366946088239651 -0.0078939085300517523 -0.29623869530234204 0.013935169366804502 0.0011393109904482581 0.087632275132275159 0.069444444444444461 0.39166666666666677
decision_type=2 2 2 2 2 2 2 2 2 2 2 2 2 2 2
left_child=1 4 5 -4 -1 -2 -5 -8 -7 11 12 13 -10 -3 -15
right_child=2 9 3 6 -6 8 7 -9 10 -11 -12 -13 -14 14 -16
leaf_value=-0.00017632969801078749 0 0 0 0 0 0 0 0.00013560858184940151 0 0 0 0 2.5800143799950616e-05 -3.0243555310737337e-05 0
leaf_weight=71 224 20 40 33 46 91 24 100 23 51 28 86 388 337 43
leaf_count=71 224 20 40 33 46 91 24 100 23 51 28 86 388 337 43
internal_value=0 -4.99518e-05 3.24656e-05 8.74989e-05 -0.000133956 1.14468e-05 0.000103485 0.000119417 1.94116e-05 -2.23185e-05 2.32037e-05 -2.44199e-05 2.48267e-05 -2.75427e-05 -2.83292e-05
internal_weight=1605 654 951 197 117 754 157 124 530 537 439 486 411 400 380
internal_count=1605 654 951 197 117 754 157 124 530 537 439 486 411 400 380
is_linear=0
shrinkage=0.05


Tree=55
num_leaves=15
num_cat=0
split_feature=151 154 104 114 52 136 46 153 151 129 75 82 57 31
split_gain=0.000950778 0.000242073 0.000186203 7.32563e-05 4.70724e-05 3.9322e-05 2.79854e-05 2.41197e-05 2.34989e-05 2.22872e-05 1.77961e-05 1.41307e-05 7.95185e-06 6.3345e-08
threshold=-0.32662578954148253 0.92500000000000016 -0.0094900034579570979 0.00054189709561630324 -0.55041781827636937 -0.0033367590581694991 0.44262566137566106 -0.53096809107909515 -0.079270514982109588 0.015106940789796252 0.05390211640211641 -0.58441050809238992 2.1745163080471355 0.98363095238095211
decision_type=2 2 2 2 2 2 2 2 2 2 2 2 2 2
left_child=2 3 5 -2 -3 6 7 10 -5 -10 -1 -11 -6 -4
right_child=1 4 13 8 12 -7 -8 -9 9 11 -12 -13 -14 -15
leaf_value=0 0 0 -3.6977381881380992e-06 0 0.00011572872862502841 0 0 0 0 0 -0.00011286042787435366 4.4942413853927993e-05 0 0
leaf_weight=20 393 20 266 104 106 39 26 20 86 77 183 215 23 23
leaf_count=20 393 20 266 104 106 39 26 20 86 77 183 215 23 23
internal_value=0 2.75944e-05 -5.26074e-05 1.07713e-05 9.27793e-05 -8.45425e-05 -9.3065e-05 -9.99202e-05 2.42998e-05 3.01376e-05 -0.000106133 3.69654e-05 0.000104178 -3.46954e-06
internal_weight=1601 1024 577 875 149 288 249 223 482 378 203 292 129 289
internal_count=1601 1024 577 875 149 288 249 223 482 378 203 292 129 289
is_linear=0
shrinkage=0.05


Tree=56
num_leaves=13
num_cat=0
split_feature=151 154 104 119 52 153 147 151 157 42 68 25
split_gain=0.000882323 0.000217236 0.000162696 5.62516e-05 4.16355e-05 3.42843e-05 2.90521e-05 2.24991e-05 1.25874e-05 1.34539e-05 5.49685e-06 8.08878e-08
threshold=-0.32662578954148253 0.92500000000000016 -0.011150034607449047 0.00059613893323818277 -0.55041781827636937 -0.48249837138961821 0.0083623059204414353 -0.086701847363265763 4.007243065264694 -1.0783521996833947 0.11061507936507901 0.0038029100529100007
decision_type=2 2 2 2 2 2 2 2 2 2 2 2
left_child=2 3 5 -2 -3 6 -1 -5 9 -9 -8 -4
right_child=1 4 11 7 -6 -7 10 8 -10 -11 -12 -13
leaf_value=0 0 0 0 0 9.9427043807481482e-05 0 -0.00010557345689531002 0 0 4.8042639433888385e-05 0 -6.6518361305764406e-06
leaf_weight=25 334 20 31 111 129 23 184 104 173 153 33 281
leaf_count=25 334 20 31 111 129 23 184 104 173 153 33 281
internal_value=0 2.65237e-05 -5.07328e-05 1.02193e-05 8.86655e-05 -8.42087e-05 -9.01044e-05 2.07073e-05 2.58888e-05 3.5265e-05 -9.6893e-05 -6.26132e-06
internal_weight=1601 1024 577 875 149 265 242 541 430 257 217 312
internal_count=1601 1024 577 875 149 265 242 541 430 257 217 312
is_linear=0
shrinkage=0.05


Tree=57
num_leaves=16
num_cat=0
split_feature=151 157 104 151 151 153 123 147 75 114 149 104 132 126 152
split_gain=0.000820065 0.000185293 0.000171324 6.9905e-05 4.52077e-05 3.28656e-05 4.93073e-05 2.8408e-05 8.00916e-06 6.72147e-06 3.38414e-06 8.66587e-07 5.16811e-07 2.7561e-07 2.38814e-07
threshold=-0.2102498675080279 1.0829241940192016 -0.011270364036556848 1.0565469085680979 -0.72678553396930667 0.28665981446226202 0.030129188153335703 0.0084268330588941707 0.084325396825396873 0.00052346560253973726 0.024995745961017203 -0.00090045389782914995 0.0030810396500615005 0.0013170661515504534 -0.13119317115972376
decision_type=2 2 2 2 2 2 2 2 2 2 2 2 2 2 2
left_child=2 5 4 9 7 -2 -7 -1 -9 -3 -10 13 -5 -4 -11
right_child=1 3 11 12 -6 6 -8 8 10 14 -12 -13 -14 -15 -16
leaf_value=0 0 0 -7.2990906622251781e-06 0 0 0 0.00018250576565421021 0 0 0 -0.00011863664197090941 0 4.6131751065658847e-05 0 7.2494301244762892e-06
leaf_weight=24 24 304 313 29 75 28 38 22 24 20 135 20 165 49 331
leaf_count=24 24 304 313 29 75 28 38 22 24 20 135 20 165 49 331
internal_value=0 2.874e-05 -4.38737e-05 1.43686e-05 -7.76522e-05 0.00010865 0.000131659 -9.3733e-05 -0.000101697 0 -0.000109079 -6.01521e-06 4.24679e-05 -6.64563e-06 6.9181e-06
internal_weight=1601 939 662 849 280 90 66 205 181 655 159 382 194 362 351
internal_count=1601 939 662 849 280 90 66 205 181 655 159 382 194 362 351
is_linear=0
shrinkage=0.05


Tree=58
num_leaves=17
num_cat=0
split_feature=153 157 133 154 74 29 17 153 52 62 71 129 49 135 57 61
split_gain=0.000763672 0.000187859 0.000145505 4.83601e-05 1.80638e-05 1.40563e-05 9.10736e-06 1.71989e-05 7.88911e-06 8.45194e-06 7.28825e-06 5.87348e-06 3.70987e-06 6.67771e-06 1.45718e-06 1.39723e-06
threshold=-0.12732777121914673 1.0829241940192016 -0.020215634933084096 0.72500000000000009 0.5272453329723622 0.95519179894179918 0.31152611501162503 0.28665981446226202 -0.5591693767134629 0.9522156084656086 0.13458994708994701 0.015476539413095203 1.6638709674861751 -0.004711666642989349 2.2512744081499352 -2.4744100921174996
decision_type=2 2 2 2 2 2 2 2 2 2 2 2 2 2 2 2
left_child=2 6 10 -3 11 8 7 -2 -5 12 -1 -4 13 -10 -15 -13
right_child=1 3 4 5 -6 -7 -8 -9 9 -11 -12 15 -14 14 -16 -17
leaf_value=0 0 0 0 0 0 0 0 0.00015407883188432188 0 0 -0.00011987073110515568 0 0 4.1778865989164491e-05 0 -3.326705584694948e-05
leaf_weight=20 20 423 67 43 231 41 21 47 24 21 93 20 41 221 20 248
leaf_count=20 20 423 67 43 231 41 21 47 24 21 93 20 41 221 20 248
internal_value=0 2.83703e-05 -4.14543e-05 1.38249e-05 -1.93169e-05 2.61127e-05 0.000109296 0.000126584 2.91953e-05 3.20111e-05 -0.000108014 -2.7661e-05 3.4118e-05 3.71356e-05 3.98192e-05 -3.17979e-05
internal_weight=1601 922 679 834 566 411 88 67 370 327 113 335 306 265 241 268
internal_count=1601 922 679 834 566 411 88 67 370 327 113 335 306 265 241 268
is_linear=0
shrinkage=0.05


Tree=59
num_leaves=14
num_cat=0
split_feature=153 38 153 104 136 21 84 153 107 17 82 35 153
split_gain=0.000713659 0.000178072 0.000153724 0.000133765 4.80898e-05 3.17936e-05 3.19486e-05 3.47159e-05 2.21206e-05 9.49303e-06 6.26045e-06 5.98344e-06 3.10181e-06
threshold=-0.12732777121914673 0.72722393243515915 0.42058923824735545 -0.0088034584213436979 -0.0050219296893495987 0.40417718892304555 0.76901455026455057 -0.48249837138961821 0.0012756277463352741 0.066073241280343073 -0.67334065957024136 0.087632275132275159 -0.018342407387937149
decision_type=2 2 2 2 2 2 2 2 2 2 2 2 2
left_child=3 8 -3 4 5 -1 7 10 -2 -4 -7 -10 -13
right_child=1 2 9 -5 -6 6 -8 -9 11 -11 -12 12 -14
leaf_value=0 0 0 0.00014589473100176708 0 0 0 0 0 0 0 -0.00010717154922667963 0 1.9410963070409058e-05
leaf_weight=36 266 37 68 315 96 20 25 30 27 20 157 32 472
leaf_count=36 266 37 68 315 96 20 25 30 27 20 157 32 472
internal_value=0 2.7477e-05 9.12426e-05 -4.00261e-05 -6.25027e-05 -7.58543e-05 -8.3599e-05 -9.06538e-05 1.11931e-05 0.000127216 -0.0001005 1.70928e-05 1.83707e-05
internal_weight=1601 922 125 679 364 268 232 207 797 88 177 531 504
internal_count=1601 922 125 679 364 268 232 207 797 88 177 531 504
is_linear=0
shrinkage=0.05


Tree=60
num_leaves=17
num_cat=0
split_feature=155 154 136 110 105 126 69 87 69 113 59 153 29 32 69 36
split_gain=0.000676073 0.000266811 0.00015175 0.000134958 4.72583e-05 3.51092e-05 2.69933e-05 1.44145e-05 7.24029e-06 4.54564e-06 3.66011e-06 2.89021e-06 1.78564e-06 1.9301e-06 1.37575e-06 1.38542e-06
threshold=0.5375000000000002 0.12500000000000003 0.012620863454583553 -0.030372236191419748 0.012712771458689551 6.1471464687303022e-05 1.4105338790694502 0.90707671957671965 1.8296365515575752 0.00034456655873535397 0.73135741668418952 -1.0000000180025095e-35 0.18237433862433902 0.55439814814814803 2.7593529816316003 0.014054232804232802
decision_type=2 2 2 2 2 2 2 2 2 2 2 2 2 2 2 2
left_child=1 3 10 -1 -4 7 -6 8 -3 -5 11 -2 -13 14 15 -14
right_child=2 5 4 9 6 -7 -8 -9 -10 -11 -12 12 13 -15 -16 -17
leaf_value=-0.00023280680848712047 0 -3.0363698424020153e-05 0 -3.104383625382081e-05 0.00010443408849843124 0 0 0 0 0 0 0 0 0 0 1.3735401110274396e-05
leaf_weight=32 20 209 69 128 122 397 24 23 20 21 91 20 30 24 44 306
leaf_count=32 20 209 69 128 122 397 24 23 20 21 91 20 30 24 44 306
internal_value=0 -3.28966e-05 3.24911e-05 -9.14477e-05 7.29931e-05 -8.85273e-06 9.30213e-05 -2.34511e-05 -2.76127e-05 -2.74184e-05 6.85994e-06 8.79236e-06 9.89891e-06 1.06717e-05 1.15659e-05 1.27089e-05
internal_weight=1580 830 750 181 215 649 146 252 229 149 535 444 424 404 380 336
internal_count=1580 830 750 181 215 649 146 252 229 149 535 444 424 404 380 336
is_linear=0
shrinkage=0.05


Tree=61
num_leaves=13
num_cat=0
split_feature=151 154 152 104 113 129 126 52 157 151 153 35
split_gain=0.000640386 0.000206318 0.000173681 7.55605e-05 1.96469e-05 1.77412e-05 1.21433e-05 6.58978e-06 1.17972e-05 5.22586e-06 4.45082e-06 2.24664e-06
threshold=-0.21675706385368573 0.12500000000000003 1.1795161783625308 -0.011270364036556848 0.00025850039741715647 0.018112788594498105 6.1471464687303022e-05 -0.18193190333308548 3.6755762073446356 -1.0000000180025095e-35 -1.3048738522981267 0.24107142857142852
decision_type=2 2 2 2 2 2 2 2 2 2 2 2
left_child=1 3 4 -1 -2 -4 10 -6 9 -9 -3 -11
right_child=2 6 5 -5 7 -7 -8 8 -10 11 -12 -13
leaf_value=-0.00012029633812057216 0 0 0 0 0 8.8342920686139946e-05 0 0 0 0 -2.4428037694470159e-05 3.5714736382085894e-05
leaf_weight=117 223 23 52 49 260 129 292 20 123 22 158 112
leaf_count=117 223 23 52 49 260 129 292 20 123 22 158 112
internal_value=0 -4.03928e-05 2.43549e-05 -9.52097e-05 6.20044e-06 7.2929e-05 -1.05701e-05 1.20771e-05 1.84977e-05 2.84018e-05 -2.1436e-05 3.20062e-05
internal_weight=1580 639 941 166 760 181 473 537 277 154 181 134
internal_count=1580 639 941 166 760 181 473 537 277 154 181 134
is_linear=0
shrinkage=0.05


Tree=62
num_leaves=18
num_cat=0
split_feature=151 156 136 151 117 74 110 58 69 113 110 151 94 117 35 57 35
split_gain=0.000597165 0.000197628 0.000156637 5.15233e-05 3.86071e-05 2.66138e-05 1.55596e-05 1.03693e-05 1.0279e-05 9.76302e-06 7.46792e-06 4.60002e-06 2.7843e-06 1.9893e-06 6.79922e-07 1.53234e-07 1.76963e-07
threshold=-0.21675706385368573 0.041666666666666678 0.012620863454583553 0.31615997192553508 0.019804888221666504 0.50651230543479309 -0.018658871101500048 2.3483245025087154 1.1403606342190702 -0.0014774781425487187 -0.0072068139962184492 1.0000000180025095e-35 0.013668921901411701 0.011346284329197051 0.087632275132275159 2.3119085326040305 0.80985449735449755
decision_type=2 2 2 2 2 2 2 2 2 2 2 2 2 2 2 2 2
left_child=1 6 9 -4 -5 7 -1 10 -6 -2 13 -11 14 -3 -13 16 -16
right_child=2 5 3 4 8 -7 -8 -9 -10 11 -12 12 -14 -15 15 -17 -18
leaf_value=-0.00017400562051523164 0 0 0 0 0.00012082740659220615 0 0 0 0 0 0 0 0 -3.5370453513874683e-05 1.2484209944882616e-05 0 0
leaf_weight=44 97 24 42 95 79 242 36 32 20 127 33 35 40 228 350 30 26
leaf_count=44 97 24 42 95 79 242 36 32 20 127 33 35 40 228 350 30 26
internal_value=0 -3.89897e-05 2.35369e-05 6.18704e-05 7.29374e-05 -1.73997e-05 -0.000127217 -2.72694e-05 0.000106741 3.60655e-06 -3.02987e-05 7.43098e-06 9.67987e-06 -3.33503e-05 1.08617e-05 1.15035e-05 1.1996e-05
internal_weight=1580 639 941 236 194 559 80 317 99 705 285 608 481 252 441 406 376
internal_count=1580 639 941 236 194 559 80 317 99 705 285 608 481 252 441 406 376
is_linear=0
shrinkage=0.05


Tree=63
num_leaves=23
num_cat=0
split_feature=151 154 136 110 153 117 126 69 82 113 159 153 29 111 94 29 36 151 32 58 77 89
split_gain=0.000560139 0.000168899 0.000145692 6.38203e-05 5.77692e-05 2.56177e-05 9.73757e-06 9.20507e-06 1.15872e-05 9.09891e-06 4.97743e-06 4.65939e-06 2.21705e-06 2.51719e-06 2.16255e-06 2.02767e-06 9.78067e-07 1.06802e-06 7.83941e-07 6.62207e-07 4.23431e-07 2.528e-07
threshold=-0.21675706385368573 0.12500000000000003 0.012620863454583553 -0.030372236191419748 0.35295111825774544 0.014055330883867151 0.00085900793958651261 1.4105338790694502 -0.083473136427360192 -0.0014774781425487187 0.012568016709852218 -0.032337881931314011 0.18237433862433902 0.006222381709164301 0.013668921901411701 0.12500000000000003 0.014054232804232802 -0.096889692542418207 0.56299603174603219 2.5300905939841001 0.056051587301587304 1.8404789821276752
decision_type=2 2 2 2 2 2 2 2 2 2 2 2 2 2 2 2 2 2 2 2 2 2
left_child=1 3 9 -1 -4 -6 10 8 -7 -2 15 -11 -13 -14 16 -3 -15 -18 20 21 -19 -17
right_child=2 6 4 -5 5 7 -8 -9 -10 11 -12 12 13 14 -16 19 17 18 -20 -21 -22 -23
leaf_value=-0.0002076682790506753 0 0 0 -2.2197930851388176e-05 0 0 0 0 0.00010115581983854529 0 0 0 0 0 0 -1.8404243376639848e-05 0 0 0 0 1.3978764903132445e-05 0
leaf_weight=32 97 25 53 134 29 23 127 23 108 78 20 28 26 33 36 256 20 21 21 20 345 25
leaf_count=32 97 25 53 134 29 23 127 23 108 78 20 28 26 33 36 256 20 21 21 20 345 25
internal_value=0 -3.77598e-05 2.27976e-05 -8.81571e-05 5.98489e-05 7.35355e-05 -9.48928e-06 8.27086e-05 9.06442e-05 3.2967e-06 -1.39078e-05 7.0717e-06 8.90739e-06 9.73678e-06 1.06395e-05 -1.56028e-05 1.16079e-05 1.23156e-05 1.28999e-05 -1.6748e-05 1.3465e-05 -1.75027e-05
internal_weight=1580 639 941 166 236 183 473 154 131 705 346 608 530 502 476 326 440 407 387 301 366 281
internal_count=1580 639 941 166 236 183 473 154 131 705 346 608 530 502 476 326 440 407 387 301 366 281
is_linear=0
shrinkage=0.05


Tree=64
num_leaves=19
num_cat=0
split_feature=155 126 136 111 154 16 69 37 107 59 82 107 155 29 92 69 10 92
split_gain=0.000523382 0.000190817 0.000106446 3.53789e-05 1.68739e-05 1.60256e-05 8.90927e-06 3.56133e-06 2.91904e-06 3.21548e-06 2.46335e-06 6.48036e-06 1.44375e-06 1.63738e-06 8.54536e-07 5.64441e-07 6.4721e-07 5.5425e-07
threshold=0.5375000000000002 -0.00031781262554684696 0.012620863454583553 0.014124792929745852 0.27500000000000008 0.93537036471220258 1.3639361395135403 2.8051860800395105 -0.003073634980810635 0.73135741668418952 1.2163104037487003 0.0010511400389000335 0.56250000000000011 0.18237433862433902 0.015376984126984102 3.1229200514140056 0.015376984126984102 0.014384920634920601
decision_type=2 2 2 2 2 2 2 2 2 2 2 2 2 2 2 2 2 2
left_child=1 5 8 -4 10 7 -5 -1 -2 12 11 14 -10 -14 -3 16 -15 -18
right_child=2 4 3 6 -6 -7 -8 -9 9 -11 -12 -13 13 15 -16 -17 17 -19
leaf_value=-8.3895498683759782e-05 0 0 0 9.0287869892216634e-05 0 0 0 0 0 0 0 0 0 0 -1.9119543503335298e-05 0 0 1.1822994387513618e-05
leaf_weight=172 26 21 72 119 303 22 24 29 30 82 33 27 20 24 223 34 21 298
leaf_count=172 26 21 72 119 303 22 24 29 30 82 33 27 20 24 223 34 21 298
internal_value=0 -2.9043e-05 2.84766e-05 6.32371e-05 -4.95e-06 -7.21803e-05 8.1419e-05 -7.73252e-05 5.15422e-06 6.50055e-06 -1.3698e-05 -1.52706e-05 8.31816e-06 9.13829e-06 -1.80376e-05 9.93944e-06 1.06158e-05 1.12357e-05
internal_weight=1580 830 750 215 607 223 143 201 535 509 304 271 427 397 244 377 343 319
internal_count=1580 830 750 215 607 223 143 201 535 509 304 271 427 397 244 377 343 319
is_linear=0
shrinkage=0.05


Tree=65
num_leaves=11
num_cat=0
split_feature=151 157 116 151 29 104 129 151 9 110
split_gain=0.000553312 0.000168845 0.000116397 5.74529e-05 2.87451e-05 2.66247e-05 9.73076e-06 5.76997e-06 1.35933e-06 9.11617e-10
