tree
version=v4
num_class=1
num_tree_per_iteration=1
label_index=0
max_feature_idx=50
objective=regression
feature_names=E1 E10 E15 E16 E17 E20 E7 I1 I3 I4 I6 I7 I8 I9 M1 M10 M13 M14 M17 M3 M4 M5 M6 P1 P10 P11 P12 P13 P2 P3 P8 S1 S11 S2 S3 S4 S5 S6 S7 S8 V1 V12 V2 V3 V5 V6 V8 roc_10 zscore_60 rank_60 P10_x_P8
feature_infos=[0.52857032787126701:4.2039951265603097] [0.00066137566137559997:0.87599206349206304] [0.00066137566137559997:0.98677248677248697] [-5.1305188673472601:2.9157857107485001] [-3.34491952963196:2.9153490309557899] [-0.90339130517572697:3.4098119799511899] [-19.9189721504777:3.5099937207434202] [0.0026455026455025998:1] [0.037037037037037:1] [0.00066137566137559997:0.58101851851851805] [0.31283068783068801:1] [0.0033068783068783002:0.96164021164021196] [0.00066137566137559997:0.607473544973545] [-1.22442851377693:3.5695580454597602] [-2.52287010851511:5.1258988383677] [-3.2971290683184802:2.39671825335838] [-1.8940247639665899:1.02631191231548] [-1.3259499241288799:-0.59429818788212896] [0.00066137566137559997:0.62632275132275095] [-1.46131526780206:10.719109713161201] [-7.7337383330637604:13.1199669445514] [-3.2872132785116399:5.9619055655384603] [-2.2030693261185599:12.8334305393723] [0.00066137566137559997:1] [-0.45889676183045103:2.4875052323844402] [-0.59498868755971901:3.0170059739331401] [-0.84619424609638205:9.9755731960005303] [0.0072751322751322001:1] [-3.1408886710536401:5.6521146114738796] [0.043981481481481503:0.96164021164021196] [-1.7708822320261199:2.8645083409994698] [-1.5432359987100199:5.4448519667550697] [0.00066137566137559997:1] [-2.9991968437466299:2.3140043192262598] [-3.47220227007961:2.4027811579544802] [0.00066137566137559997:1] [-6.9019232941307704:7.3112248689365904] [0.00066137566137559997:0.99933862433862397] [0.00066137566137559997:0.990079365079365] [-3.8768464742350299:2.3115378201753498] [0.00066137566137559997:1] [0.00066137566137559997:0.99669312169312196] [0.00066137566137559997:0.99603174603174605] [0.00066137566137559997:0.99933862433862397] [-2.20552213105992:4.2901596659564802] [0.00066137566137559997:0.99669312169312196] [0.00066137566137559997:1] [-1570.6389450919235:2722.1667894547959] [-5.3961231350486329:3.5264015661400032] [0:1] [-0.43580089271334232:7.116792975212987]
tree_sizes=1263 957 1272 1200 1178 1022 1029 1233 1093 1366 1098 1240 1222 1083 1335 1378 1475 1202 1454 1434 1422 1654 1598 1486 1727 1968 1820 1702 1793 1983 1602 1559 1423 2011 1849 1833 1421 1491 1604 1869 1849 2016 1560 1989 1845 1848 1607 1728 1653 1836 1467 1452 1837 1373 1442 2126 1444 1661 1593 1747 1237 1441 1444 1296 1298 1132 1443 1509 1135 1132 1166 1238 1209 1208 1206 1350 1277 1390 1271 1267 1513 1367 1059 1501 1270 1253 895 1057 979 1210 918 1148 1406 1289 1152 992 1056 1202 1059 987 913 1199 973 981 903 769 981 916 1062 914 821 708 1064 908 500 402 403 402 761 618 1115 1041 1190 1040 1060 762 685 685 686 548 718 615 761 751 617 619 689 550 545 550 688 908 623 688 689 407 478 464 467 396 613 542 544 402 473 402 403 403 402 476 551 551 622 551 696 548 407 407 539 333 623 479 622 406 402 975 831 904 902 903 383 457 455 457 383 542 541 542 542 380 311 536 311 467 382 691 691 758 688 676 456 466 537 464 676 331 405 405 330 406 481 383 481 481 478 331 331 330 331 331 309 308 309 308 309 476 474 473 465 464 330 331 331 330 330 475 403 403 478 477 729 452 456 525 309 533 461

Tree=0
num_leaves=12
num_cat=0
split_feature=48 48 48 48 48 48 39 48 39 48 40
split_gain=0.0942749 0.0252012 0.0224016 0.00364924 0.00284972 0.00189732 0.000319594 0.000110308 3.98265e-05 6.92185e-06 3.34811e-07
threshold=-0.11860351815812251 -1.3048738522981267 0.71665354308384377 1.4690325206361974 -0.59341657136671955 0.28665981446226202 0.27193682097596505 -0.0089374727242463332 0.17242737983876102 -0.16800610989961526 0.044642857142857158
decision_type=2 2 2 2 2 2 2 2 2 2 2
left_child=1 -1 5 -4 6 7 -3 -2 -6 -10 -9
right_child=2 4 3 -5 8 -7 -8 10 9 -11 -12
leaf_value=-0.00082597494350747369 0.00020425835733024099 -0.00033912948318295353 0.0007071964508980975 0.0011826431029688346 -3.1167520160982126e-06 0.0004510949465022632 -5.3238129366121488e-05 0.00020425835733024099 0.00013206123814639241 0.00020425835733024099 0.00025869093616512958
leaf_weight=151 83 116 236 98 136 216 123 25 148 20 237
leaf_count=151 83 116 236 98 136 216 123 25 148 20 237
internal_value=0.000198121 -0.000242277 0.000534041 0.000861915 -7.05934e-05 0.000329842 -0.000213078 0.000239389 5.79681e-05 0.000137256 0.000255999
internal_weight=1589 694 895 334 543 561 239 345 304 168 262
internal_count=1589 694 895 334 543 561 239 345 304 168 262
is_linear=0
shrinkage=1


Tree=1
num_leaves=9
num_cat=0
split_feature=48 48 48 48 48 48 48 48
split_gain=0.0856413 0.0220846 0.0208575 0.0035413 0.0031693 0.00188668 0.000138057 3.58234e-05
threshold=-0.138186792138831 -1.5129881681795851 0.71665354308384377 -0.81053267665775597 1.4690325206361974 0.17951040489766976 -0.26966843628753528 -0.018342407387937149
decision_type=2 2 2 2 2 2 2 2
left_child=1 -1 5 -3 -4 7 -5 -2
right_child=2 3 4 6 -6 -7 -8 -9
leaf_value=-0.0010624590863163785 0 -0.00048613043218428178 0.00047780185506341062 -0.00020892392381728143 0.0009295153548365704 0.00020811505206987297 -4.0110128953070085e-05 2.2664225701319645e-05
leaf_weight=121 89 184 236 275 98 284 98 204
leaf_count=121 89 184 236 275 98 284 98 204
internal_value=-5.8737e-06 -0.000434405 0.00030758 -0.000288829 0.000625545 0.000114784 -0.000177995 7.22049e-06
internal_weight=1589 678 911 557 334 577 373 293
internal_count=1589 678 911 557 334 577 373 293
is_linear=0
shrinkage=0.05


Tree=2
num_leaves=13
num_cat=0
split_feature=48 48 48 48 48 48 39 39 48 49 42 48
split_gain=0.0776924 0.0203401 0.0181935 0.00274217 0.00263542 0.00155281 0.000172803 0.000119276 9.05967e-05 5.14836e-05 7.81163e-06 2.00052e-06
threshold=-0.11860351815812251 -1.394239763823556 0.71665354308384377 1.4690325206361974 -0.7468301470837847 0.28665981446226202 0.099192213688104561 0.23089085372249454 -0.0089374727242463332 0.40833333333333338 0.13723544973545002 -0.17298911216001422
decision_type=2 2 2 2 2 2 2 2 2 2 2 2
left_child=1 -1 5 -4 7 8 11 -3 -2 -8 -10 -6
right_child=2 4 3 -5 6 -7 9 -9 10 -11 -12 -13
leaf_value=-0.00096002619266295764 0 -0.00056788739117437685 0.00045392188013399914 0.00088308698304992439 -0.0002464168503853386 0.00022409952904280038 -9.3977293523203286e-05 -0.00025538244792073204 0 0 4.8433132788401736e-05 0
leaf_weight=139 83 87 236 98 136 216 180 97 20 34 242 21
leaf_count=139 83 87 236 98 136 216 180 97 20 34 242 21
internal_value=-5.50215e-06 -0.00040558 0.00029915 0.000595037 -0.000257563 0.000114004 -0.000158212 -0.00043053 3.05408e-05 -8.2632e-05 4.57412e-05 -0.000229287
internal_weight=1589 694 895 334 555 561 371 184 345 214 262 157
internal_count=1589 694 895 334 555 561 371 184 345 214 262 157
is_linear=0
shrinkage=0.05


Tree=3
num_leaves=12
num_cat=0
split_feature=48 48 48 48 39 48 48 39 48 14 42
split_gain=0.0706379 0.0183141 0.0164228 0.00292602 0.00269627 0.00172283 0.000161844 0.0001206 8.35963e-05 2.65688e-05 6.59288e-06
threshold=-0.11860351815812251 -1.5129881681795851 0.79790169485848728 -0.81053267665775597 -1.6321851641865297 0.28665981446226202 -0.2749406843685378 0.23089085372249454 -0.0089374727242463332 -1.8090239841282698 0.13723544973545002
decision_type=2 2 2 2 2 2 2 2 2 2 2
left_child=1 -1 5 7 -4 8 9 -3 -2 -5 -10
right_child=2 3 4 6 -6 -7 -8 -9 10 -11 -12
leaf_value=-0.00096141834132693255 0 -0.0005686887928227066 0.00095647345332803635 0 0.00046333002064858432 0.00022515296986769058 -3.9837032825705057e-05 -0.00025371750754766355 0 -0.00020017696378667722 4.6012475748747315e-05
leaf_weight=121 83 92 65 20 246 239 120 92 20 249 242
leaf_count=121 83 92 65 20 246 239 120 92 20 249 242
internal_value=-5.36824e-06 -0.000386991 0.000284973 -0.000256818 0.000582745 0.000117767 -0.0001579 -0.000438586 2.88427e-05 -0.000191953 4.35053e-05
internal_weight=1589 694 895 573 311 584 389 184 345 269 262
internal_count=1589 694 895 573 311 584 389 184 345 269 262
is_linear=0
shrinkage=0.05


Tree=4
num_leaves=12
num_cat=0
split_feature=48 48 48 48 14 48 48 25 42 15 14
split_gain=0.0642259 0.0164099 0.0148204 0.00209172 0.002055 0.00183851 7.72792e-05 1.61771e-05 7.66137e-06 7.04156e-06 3.02245e-06
threshold=-0.11860351815812251 -1.3048738522981267 0.89829263267704729 0.28665981446226202 0.54664599446056161 -0.54342214526960075 -0.015528586883921969 2.7180489016618954 0.13128306878306903 1.8392282238620952 -0.15661793499166696
decision_type=2 2 2 2 2 2 2 2 2 2 2
left_child=1 -1 3 6 -4 10 -2 9 -8 -7 -3
right_child=2 5 4 -5 -6 7 8 -9 -10 -11 -12
leaf_value=-0.00084302033618842041 0 -0.00024505729937932479 0.00045157382791468655 0.00023199581921511524 0.00091642485806599108 -0.00012140753745726362 0 0 4.3618427240180363e-05 0 -0.0004928652543423279
leaf_weight=151 79 185 205 278 67 242 20 21 246 20 75
leaf_count=151 79 185 205 278 67 242 20 21 246 20 75
internal_value=-5.19453e-06 -0.000369225 0.000271506 0.000126649 0.000584748 -0.000228133 2.72294e-05 -0.000111356 4.10803e-05 -0.000116395 -0.000335926
internal_weight=1589 694 895 623 272 543 345 283 266 262 260
internal_count=1589 694 895 623 272 543 345 283 266 262 260
is_linear=0
shrinkage=0.05


Tree=5
num_leaves=10
num_cat=0
split_feature=48 48 48 48 48 48 14 39 39
split_gain=0.054705 0.014165 0.0131123 0.00153654 0.00115083 0.00111424 0.00028571 7.31541e-05 1.25167e-05
threshold=-0.138186792138831 -1.3048738522981267 0.66063768326036831 1.7014321762517646 -0.47733559643090889 0.14572622206295555 -1.6307684085306098 0.27193682097596505 1.0840052692359803
decision_type=2 2 2 2 2 2 2 2 2
left_child=1 6 5 -4 7 -2 -1 -3 -6
right_child=2 4 3 -5 8 -7 -8 -9 -10
leaf_value=-0.00017208076806041582 0 -0.00038175261820921002 0.00040035919180553888 0.00081680538715848267 -9.5396303522849438e-05 0.00014887287148361426 -0.00086045903242344581 -0.00017738025153337991 0
leaf_weight=21 261 132 309 59 194 293 126 156 25
leaf_count=21 261 132 309 59 194 293 126 156 25
internal_value=0 -0.000351248 0.000246575 0.000480913 -0.000212219 8.18308e-05 -0.000796294 -0.000288506 -8.89901e-05
internal_weight=1576 654 922 368 507 554 147 288 219
internal_count=1576 654 922 368 507 554 147 288 219
is_linear=0
shrinkage=0.05


Tree=6
num_leaves=10
num_cat=0
split_feature=48 48 48 48 48 39 49 16 48
split_gain=0.0497875 0.0143475 0.0105699 0.00182135 0.000843081 0.000449861 0.00010906 3.88578e-05 2.935e-05
threshold=-0.26966843628753528 0.53300917144870741 -1.3048738522981267 1.7014321762517646 0.10241505365854695 0.27193682097596505 0.32500000000000001 -1.0009152085731696 -0.057912188802278032
decision_type=2 2 2 2 2 2 2 2 2
left_child=2 4 -1 7 8 -4 -7 -3 -2
right_child=1 3 5 -5 -6 6 -8 -9 -10
leaf_value=-0.0007582135207366697 -2.2240434759077962e-05 0.00025070659833444135 -0.00031821544582576839 0.00077603421065256689 0.00010518069010163197 -0.00015489697149299986 0 0.00044952522979496001 0
leaf_weight=147 154 191 190 59 264 191 37 178 165
leaf_count=147 154 191 190 59 264 191 37 178 165
internal_value=0 0.000208346 -0.000377614 0.000429419 3.74289e-05 -0.000231658 -0.000137499 0.000360256 -2.98782e-06
internal_weight=1576 1011 565 428 583 418 228 369 319
internal_count=1576 1011 565 428 583 418 228 369 319
is_linear=0
shrinkage=0.05


Tree=7
num_leaves=13
num_cat=0
split_feature=48 48 48 14 48 48 14 15 15 34 40 15
split_gain=0.045287 0.012709 0.0092213 0.00149959 0.00149456 0.000576341 0.000336421 7.17762e-05 5.47178e-06 3.2402e-06 6.81443e-06 2.3019e-06
threshold=-0.057912188802278032 -1.3048738522981267 0.66063768326036831 0.42397724239940954 -0.40704219040211581 0.16993427203361097 -1.1962677025672497 1.8082123757197703 1.7443272125488101 -0.5956790662197784 0.98412698412698407 1.8082123757197703
decision_type=2 2 2 2 2 2 2 2 2 2 2 2
left_child=1 6 5 11 7 9 -1 -3 -6 -2 -11 -4
right_child=2 4 3 -5 8 -7 -8 -9 -10 10 -12 -13
leaf_value=-0.00028624433821388534 0 -0.0002628529855359855 0.00034928613373315544 0.00067559681297354123 -5.7603025476189698e-05 0.00013813658378592576 -0.00082053294324241658 0 0 1.3092275371395434e-05 0 0
leaf_weight=37 36 302 254 94 226 276 110 24 20 147 30 20
leaf_count=37 36 302 254 94 226 276 110 24 20 147 30 20
internal_value=0 -0.000294215 0.000243861 0.00043669 -0.000175861 8.84646e-05 -0.000720329 -0.000251906 -5.47071e-05 6.0308e-07 6.79539e-06 0.000336271
internal_weight=1576 719 857 368 572 489 147 326 246 213 177 274
internal_count=1576 719 857 368 572 489 147 326 246 213 177 274
is_linear=0
shrinkage=0.05


Tree=8
num_leaves=11
num_cat=0
split_feature=48 48 48 48 48 39 48 14 39 40
split_gain=0.0412408 0.0103428 0.00962653 0.00157964 0.000918234 0.000501781 0.00041529 0.00018933 6.09105e-06 5.17152e-06
threshold=-0.13543663052575614 -1.3048738522981267 0.53300917144870741 1.2189395376463785 -0.54342214526960075 -0.71836706666492145 0.10241505365854695 -1.4141764249424449 1.0784993138199752 0.86937830687830708
decision_type=2 2 2 2 2 2 2 2 2 2
left_child=1 7 6 -4 -3 -5 -2 -1 -6 -8
right_child=2 4 3 5 8 -7 9 -9 -10 -11
leaf_value=-0.00020587512510396614 0 -0.00026584066062626896 0.0002752999336603906 0.00076563681134849835 -9.4543723089827645e-05 0.0003491532960279676 9.823027410653814e-05 -0.00076144700816873007 0 0
leaf_weight=29 225 248 270 66 226 92 244 118 38 20
leaf_count=29 225 248 270 66 226 92 244 118 38 20
internal_value=0 -0.000303275 0.000215223 0.000390386 -0.000183501 0.000555127 5.16387e-05 -0.000686049 -8.71478e-05 9.41781e-05
internal_weight=1576 659 917 428 512 158 489 147 264 264
internal_count=1576 659 917 428 512 158 489 147 264 264
is_linear=0
shrinkage=0.05


Tree=9
num_leaves=14
num_cat=0
split_feature=48 48 49 48 39 48 39 17 39 40 39 48 48
split_gain=0.0375766 0.0103583 0.00780005 0.00166031 0.00128768 0.000825267 0.000277347 4.29855e-05 3.05985e-05 2.08848e-05 1.34882e-05 4.35476e-06 1.42825e-06
threshold=-0.057912188802278032 -1.5129881681795851 0.80833333333333346 -0.54342214526960075 -1.0979538769522799 0.28665981446226202 0.23089085372249454 -1.0298441789533248 0.15731635028891702 0.98412698412698407 -0.89523189099195388 -0.15473342018857555 -1.0000000180025095e-35
decision_type=2 2 2 2 2 2 2 2 2 2 2 2 2
left_child=1 7 5 6 -4 9 -3 -1 -5 10 -2 -10 -12
right_child=2 3 4 8 -6 -7 -8 -9 11 -11 12 -13 -14
leaf_value=-0.0001471428587917962 0 -0.00037108795982652071 0.00067267257114480086 -0.00011358414311349037 0.00031873763459293103 0.0001700389099021046 -0.00015222625747692372 -0.00078784558491401383 -2.1176641577860207e-05 0 0 0 3.5509087811856468e-05
leaf_weight=21 39 129 83 139 214 261 150 95 145 31 35 40 194
leaf_count=21 39 129 83 139 214 261 150 95 145 31 35 40 194
internal_value=0 -0.000268046 0.000222088 -0.000173641 0.000434671 0.000100359 -0.000271432 -0.000715149 -7.39477e-05 2.27818e-05 2.78168e-05 -1.71092e-05 3.2445e-05
internal_weight=1576 719 857 603 297 560 279 116 324 299 268 185 229
internal_count=1576 719 857 603 297 560 279 116 324 299 268 185 229
is_linear=0
shrinkage=0.05


Tree=10
num_leaves=11
num_cat=0
split_feature=48 48 48 14 48 14 48 15 48 0
split_gain=0.0359316 0.00797878 0.00766367 0.00211132 0.00144802 0.000991348 0.000218248 6.05725e-05 5.7946e-05 4.30158e-05
threshold=-0.11078095028697399 0.98129035818313937 -0.95097422071100779 0.25504964242906208 0.35295111825774544 0.54664599446056161 -0.2749406843685378 1.5095496994401503 0.09650579362745472 2.6124712778490005
decision_type=2 2 2 2 2 2 2 2 2 2
left_child=2 4 3 -1 8 -3 7 9 -2 -4
right_child=1 5 6 -5 -6 -7 -8 -9 -10 -11
leaf_value=-0.00036748702783996097 0 0.00034054024611720172 -0.00018209298831286611 -0.00084638940261862856 0.00019520252418106564 0.0007314106254147039 -1.8948772525373192e-05 0 4.6835604051996947e-05 0
leaf_weight=172 193 177 272 61 290 62 120 32 169 20
leaf_count=172 193 177 272 61 290 62 120 32 169 20
internal_value=0 0.000209187 -0.000274004 -0.000514624 0.000108382 0.000463113 -0.000136386 -0.000164435 2.49865e-05 -0.000174698
internal_weight=1568 891 677 233 652 239 444 324 362 292
internal_count=1568 891 677 233 652 239 444 324 362 292
is_linear=0
shrinkage=0.05


Tree=11
num_leaves=13
num_cat=0
split_feature=48 48 48 14 48 14 39 48 49 48 3 11
split_gain=0.0327674 0.00748798 0.00667632 0.00148827 0.00106572 0.000807178 0.00049549 0.000193989 0.00016206 2.11776e-05 1.57619e-05 8.06597e-06
threshold=-0.072083197512529437 -1.0382761315472917 0.98129035818313937 0.25504964242906208 0.35295111825774544 0.54664599446056161 -0.27957541457845242 -0.16800610989961526 0.35833333333333334 -0.018342407387937149 1.700701114785345 0.13773148148148154
decision_type=2 2 2 2 2 2 2 2 2 2 2 2
left_child=1 3 4 -1 9 -4 7 -3 -8 -2 11 -11
right_child=2 6 5 -5 -6 -7 8 -9 -10 10 -12 -13
leaf_value=-0.0003641624381760933 0 -0.00025163603484001896 0.00032352284897872908 -0.00082853898252216852 0.0001854457619025907 0.0006948989774017999 -9.544040323820267e-05 0 0 0 0 4.1468133958808418e-05
leaf_weight=153 35 139 177 55 290 62 235 31 100 22 39 230
leaf_count=153 35 139 177 55 290 62 235 31 100 22 39 230
internal_value=0 -0.00024983 0.000209164 -0.00051132 0.000111033 0.000441025 -0.000132148 -0.000221201 -7.19831e-05 2.94677e-05 3.39798e-05 3.85947e-05
internal_weight=1568 713 855 208 616 239 505 170 335 326 291 252
internal_count=1568 713 855 208 616 239 505 170 335 326 291 252
is_linear=0
shrinkage=0.05


Tree=12
num_leaves=13
num_cat=0
split_feature=48 48 48 49 48 15 48 15 15 48 0 15
split_gain=0.0298788 0.00675586 0.00601149 0.00124459 0.000949928 0.000420044 0.000282972 0.000190447 4.51298e-05 3.71067e-05 3.14308e-05 2.14464e-05
threshold=-0.072083197512529437 -0.95097422071100779 0.98129035818313937 0.041666666666666678 0.39466657827659046 1.2619483816510102 -0.2749406843685378 1.0626760830884703 1.4905574407771351 0.09650579362745472 2.6124712778490005 1.7624921738396602
decision_type=2 2 2 2 2 2 2 2 2 2 2 2
left_child=1 3 4 -1 9 -4 8 -5 10 -2 -3 -6
right_child=2 6 5 7 11 -7 -8 -9 -10 -11 -12 -13
leaf_value=-0.00073773940607044176 0 -0.00016661661631810993 0.00044937835426545243 -0.00036266164162406347 0.00019055413566230117 0 -1.7841934861659609e-05 0 0 4.905554690575351e-05 0 0
leaf_weight=65 157 268 214 145 247 25 156 23 36 190 20 22
leaf_count=65 157 268 214 145 247 25 156 23 36 190 20 22
internal_value=0 -0.000238703 0.000199594 -0.000467419 0.000105894 0.000420041 -0.000117191 -0.00033271 -0.000149579 3.24145e-05 -0.000159879 0.000182052
internal_weight=1568 713 855 233 616 239 480 168 324 347 288 269
internal_count=1568 713 855 233 616 239 480 168 324 347 288 269
is_linear=0
shrinkage=0.05


Tree=13
num_leaves=11
num_cat=0
split_feature=48 48 48 14 39 39 48 48 49 15
split_gain=0.0273059 0.00608397 0.0054136 0.00169616 0.00159242 0.000302669 0.000193454 9.94234e-05 9.88707e-05 3.86727e-05
threshold=-0.072083197512529437 -0.95097422071100779 0.57864571182238589 0.52683871013769512 -1.0777577628637198 -0.29129802569452345 0.13768120823168087 -0.14369844008529783 0.35833333333333334 1.8082123757197703
decision_type=2 2 2 2 2 2 2 2 2 2
left_child=1 4 6 9 -1 7 -2 -3 -7 -4
right_child=2 5 3 -5 -6 8 -8 -9 -10 -11
leaf_value=-0.00075653578846302742 0 -0.00021003913932483712 0.00024631431558860795 0.00055229945048247448 -0.00031646886660534573 -7.7898896666739074e-05 8.4848257336179653e-05 0 0 0
leaf_weight=57 186 135 291 98 176 221 258 24 100 22
leaf_count=57 186 135 291 98 176 221 258 24 100 22
internal_value=0 -0.000228327 0.000190674 0.000324347 -0.000445853 -0.000112251 5.56326e-05 -0.000189471 -5.83835e-05 0.000236852
internal_weight=1568 713 855 411 233 480 444 159 321 313
internal_count=1568 713 855 411 233 480 444 159 321 313
is_linear=0
shrinkage=0.05


Tree=14
num_leaves=14
num_cat=0
split_feature=48 48 48 39 48 14 48 48 15 16 21 45 48
split_gain=0.0249166 0.00584251 0.00483341 0.00116153 0.000647205 0.000557077 0.000466811 0.000178957 5.62725e-05 2.47396e-05 2.79807e-06 3.541e-06 2.25751e-08
threshold=-0.051089449159965626 -1.5830564539553378 0.98129035818313937 -1.5025318322367247 0.23357324724840253 0.54664599446056161 -0.40704219040211581 -0.30024696619331487 1.6550450162432953 -0.13239773597796997 3.4438424921337805 0.85714285714285754 -0.076170089613081096
decision_type=2 2 2 2 2 2 2 2 2 2 2 2 2
left_child=1 -1 4 7 10 -4 8 -3 -5 -6 11 -2 -8
right_child=2 3 5 6 9 -7 12 -9 -10 -11 -12 -13 -14
leaf_value=-0.0005735250201901271 1.361155364112208e-05 -0.00039831667385650761 0.00027615839429041936 -0.0001557949751909107 8.901376446914895e-05 0.00061056855501721039 -1.8052627779548729e-05 0 0 0.00022660766099623527 0 0 0
leaf_weight=106 186 68 177 279 258 62 201 23 33 106 29 20 20
leaf_count=106 186 68 177 279 258 62 201 23 33 106 29 20 20
internal_value=0 -0.000213497 0.000186057 -0.000144245 9.86654e-05 0.00038404 -0.000101869 -0.000337178 -0.000145791 0.000142866 8.9023e-06 1.11509e-05 -1.72094e-05
internal_weight=1568 730 838 624 599 239 533 91 312 364 235 206 221
internal_count=1568 730 838 624 599 239 533 91 312 364 235 206 221
is_linear=0
shrinkage=0.05


Tree=15
num_leaves=15
num_cat=0
split_feature=49 49 49 39 2 49 49 39 15 14 15 11 34 39
split_gain=0.0205153 0.00424233 0.00324769 0.00296333 0.00104762 0.00040778 0.000287316 0.000124361 5.68343e-05 4.64263e-05 1.01456e-05 1.12696e-06 4.63461e-07 1.35827e-06
threshold=0.55833333333333346 0.20833333333333337 0.92500000000000016 -0.86854484534747589 0.013392857142857153 0.70833333333333337 0.40833333333333338 -0.14229088013598798 1.4905574407771351 -1.7081834218487197 1.6895357993185103 0.13773148148148154 0.13465095946869701 0.21442467109196003
decision_type=2 2 2 2 2 2 2 2 2 2 2 2 2 2
left_child=1 3 5 -1 -5 11 7 -3 -6 -7 -11 -2 13 -8
right_child=2 6 -4 4 8 9 12 -9 -10 10 -12 -13 -14 -15
leaf_value=-0.00061134525947712686 0 -0.00016060229034483049 0.00046247818641261527 0 -0.00025100500398526156 0 -7.540431361394096e-06 -3.0537682577346298e-05 0 0.00020786393860028172 0 6.0551863910306733e-05 0 0
leaf_weight=74 21 95 121 52 210 30 80 209 20 280 22 216 126 21
leaf_count=74 21 95 121 52 210 30 80 209 20 280 22 216 126 21
internal_value=0 -0.000156672 0.000206802 -0.000293914 -0.000192705 0.000143573 -5.52075e-05 -8.76643e-05 -0.000238558 0.000189779 0.000199942 5.77053e-05 0 -3.38533e-06
internal_weight=1577 887 690 356 282 569 531 304 230 332 302 237 227 101
internal_count=1577 887 690 356 282 569 531 304 230 332 302 237 227 101
is_linear=0
shrinkage=0.05


Tree=16
num_leaves=16
num_cat=0
split_feature=48 49 48 48 48 39 14 15 39 25 45 39 25 49 11
split_gain=0.0192641 0.0048992 0.00441035 0.00114427 0.00113023 0.000183076 0.000133266 6.4011e-05 4.77476e-05 2.56583e-05 2.0114e-05 2.48122e-05 1.67115e-05 5.6625e-06 5.42858e-06
threshold=-0.051089449159965626 0.058333333333333341 1.2956031648370667 -0.65007920002652542 0.39466657827659046 0.20624720807780952 -1.334811325987505 1.7624921738396602 0.35565946242118457 2.2540009914441206 0.85251322751322756 -1.7010830772987497 2.0912269339216154 0.4250000000000001 0.10929232804232801
decision_type=2 2 2 2 2 2 2 2 2 2 2 2 2 2 2
left_child=1 9 4 5 10 -3 -4 -6 12 -1 11 -2 -5 -10 -13
right_child=2 3 6 8 7 -7 -8 -9 13 -11 -12 14 -14 -15 -16
leaf_value=-0.0006691341930543358 0 -0.00030962925841324313 0 -9.8354033732404986e-05 0.0001785871169395182 -0.00010589429981382343 0.00049541979825671776 0 -1.4260372048213957e-05 -6.0316619142688409e-05 0 0 0 0 3.4674457456613531e-05
leaf_weight=59 24 121 20 162 348 130 105 29 167 20 25 23 21 46 277
leaf_count=59 24 121 20 162 348 130 105 29 167 20 25 23 21 46 277
internal_value=0 -0.000187032 0.000163531 -0.000131426 0.000107068 -0.000224106 0.000451152 0.000170342 -6.00167e-05 -0.000578485 2.43668e-05 2.81903e-05 -9.1301e-05 -9.64526e-06 3.26335e-05
internal_weight=1577 726 851 647 726 251 125 377 396 79 349 324 183 213 300
internal_count=1577 726 851 647 726 251 125 377 396 79 349 324 183 213 300
is_linear=0
shrinkage=0.05


Tree=17
num_leaves=13
num_cat=0
split_feature=49 49 49 14 14 49 15 49 25 16 11 15
split_gain=0.0172112 0.00348403 0.00256501 0.00235116 0.000871036 0.000300826 0.000124868 0.000124431 3.45894e-05 2.55229e-05 2.14048e-05 1.81683e-05
threshold=0.55833333333333346 0.25833333333333336 0.92500000000000016 0.36406085627797807 -1.9979410887364446 0.77500000000000013 1.7220344909512901 0.47500000000000003 2.1244561704616856 -1.2367057363897447 0.080687830687830711 1.7443272125488101
decision_type=2 2 2 2 2 2 2 2 2 2 2 2
left_child=1 3 5 4 -1 10 -6 8 9 -3 -2 -7
right_child=2 7 -4 -5 6 11 -8 -9 -10 -11 -12 -13
leaf_value=0 0 0 0.00041898257106013482 -0.00055253029033374291 -0.00021934834141385472 0.00020695916981268862 0 0 0 -8.4633232765279423e-05 7.8392000188695296e-05 0
leaf_weight=52 23 67 121 70 280 202 24 126 122 146 324 20
leaf_count=52 23 67 121 70 280 202 24 126 122 146 324 20
internal_value=0 -0.000143961 0.00018897 -0.000249429 -0.000175651 0.000131206 -0.000208062 -3.56227e-05 -5.17149e-05 -6.79068e-05 7.47257e-05 0.000196902
internal_weight=1577 887 690 426 356 569 304 461 335 213 347 222
internal_count=1577 887 690 426 356 569 304 461 335 213 347 222
is_linear=0
shrinkage=0.05


Tree=18
num_leaves=16
num_cat=0
split_feature=48 48 48 39 48 48 14 39 11 42 45 45 39 11 15
split_gain=0.0161819 0.00415201 0.00360962 0.00101992 0.000913191 0.000159774 9.10557e-05 6.79278e-05 5.31972e-05 2.942e-05 3.89567e-05 1.7477e-05 2.19637e-05 3.88743e-06 1.96135e-07
threshold=-0.051089449159965626 -1.0382761315472917 1.2956031648370667 -1.0777577628637198 0.39466657827659046 -0.2749406843685378 -1.334811325987505 0.061817849818188657 0.10929232804232801 0.82175925925925908 0.85714285714285754 0.85251322751322756 -1.7010830772987497 0.10929232804232801 1.5391090705676753
decision_type=2 2 2 2 2 2 2 2 2 2 2 2 2 2 2
left_child=1 3 4 -1 11 7 -4 -3 -6 10 -10 12 -2 -14 -7
right_child=2 5 6 -5 8 14 -8 -9 9 -11 -12 -13 13 -15 -16
leaf_value=-0.00065489129818664855 0 -0.00016988170153617454 0 -0.00024879176374655439 0 -8.366201025999367e-06 0.0004508503145396712 -4.8968143984863382e-05 0.00017719741449981707 0 0 0 0 3.105432578182377e-05 0
leaf_weight=49 24 130 20 155 32 155 105 216 297 23 25 25 23 277 21
leaf_count=49 24 130 20 155 32 155 105 216 297 23 25 25 23 277 21
internal_value=0 -0.000171846 0.00014946 -0.000371106 9.74868e-05 -8.43415e-05 0.000411035 -0.000108881 0.000154699 0.0001629 0.000169291 2.13352e-05 2.50023e-05 2.92929e-05 -7.67217e-06
internal_weight=1577 726 851 204 726 522 125 346 377 345 322 349 324 300 176
internal_count=1577 726 851 204 726 522 125 346 377 345 322 349 324 300 176
is_linear=0
shrinkage=0.05


Tree=19
num_leaves=16
num_cat=0
split_feature=49 49 49 39 2 39 39 49 32 31 49 11 15 0 49
split_gain=0.0144265 0.00286448 0.00208329 0.00204567 0.00077028 0.000555954 0.000206608 8.49568e-05 5.92024e-05 1.53784e-05 1.77143e-05 2.07493e-05 1.52864e-05 1.4905e-05 1.32851e-05
threshold=0.55833333333333346 0.20833333333333337 0.80833333333333346 -1.0777577628637198 0.013392857142857153 -1.4363991020801898 -0.89523189099195388 0.40833333333333338 0.040013227513227508 3.1229200514140056 0.57500000000000007 0.073743386243386264 1.5095496994401503 2.6750304277948103 0.49166666666666675
decision_type=2 2 2 2 2 2 2 2 2 2 2 2 2 2 2
left_child=1 3 9 -1 -5 -4 14 -8 -6 10 -2 -12 -7 -13 -3
right_child=2 6 5 4 8 12 7 -9 -10 -11 11 13 -14 -15 -16
leaf_value=-0.00054424242464280888 0 -0.00013859170276689942 0.00050961625658916784 0 0 0.00021774552862462355 -3.6246342683956127e-05 0 -0.0002142250000879161 0 0 9.7689685629268725e-05 0 0 0
leaf_weight=63 24 82 57 52 24 203 249 179 217 25 24 311 21 25 21
leaf_count=63 24 82 57 52 24 203 249 179 217 25 24 311 21 25 21
internal_value=0 -0.000131956 0.000172856 -0.000245519 -0.000164066 0.000286236 -4.63727e-05 -1.6381e-05 -0.000201768 8.26866e-05 8.59195e-05 8.94268e-05 0.000206881 9.33946e-05 -0.000122365
internal_weight=1577 887 690 356 293 281 531 428 241 409 384 360 224 336 103
internal_count=1577 887 690 356 293 281 531 428 241 409 384 360 224 336 103
is_linear=0
shrinkage=0.05


Tree=20
num_leaves=16
num_cat=0
split_feature=48 49 48 39 39 48 48 49 14 15 14 7 7 34 34
split_gain=0.0139203 0.00357863 0.00291023 0.000875187 0.000840436 0.000440328 0.000217334 0.000189111 3.12882e-05 1.08807e-05 9.769e-06 4.15202e-06 6.65062e-06 3.06331e-07 4.81946e-07
threshold=-0.051089449159965626 0.041666666666666678 0.82579089657530957 -1.0979538769522799 -0.35266413899964194 -0.2749406843685378 0.1972318861475135 0.3083333333333334 0.42397724239940954 1.5391090705676753 -1.7251757902589748 0.27628968253968256 0.9872685185185186 -0.49413009247503542 1.3520835732645853
decision_type=2 2 2 2 2 2 2 2 2 2 2 2 2 2 2
left_child=1 -1 6 8 5 -3 13 11 -4 -8 -5 -6 -13 -2 -15
right_child=2 4 3 10 7 -7 9 -9 -10 -11 -12 12 -14 14 -16
leaf_value=-0.00054262806303645157 0 -0.0002567898826940576 0 0 0 0 8.9098356223173077e-05 0 0.00051456746618805632 0 0.00017726279697192996 -9.7826301207578947e-05 0 3.5877472348336316e-06 0
leaf_weight=64 43 163 21 20 21 52 287 174 65 35 196 238 20 153 43
leaf_count=64 43 163 21 20 21 52 287 174 65 35 196 238 20 153 43
internal_value=0 -0.000162194 0.000134189 0.000264334 -0.000118186 -0.000211854 5.51825e-05 -6.26571e-05 0.00044642 8.36149e-05 0.000168526 -8.98186e-05 -9.36162e-05 0 1.97618e-06
internal_weight=1595 732 863 302 668 215 561 453 86 322 216 279 258 239 196
internal_count=1595 732 863 302 668 215 561 453 86 322 216 279 258 239 196
is_linear=0
shrinkage=0.05


Tree=21
num_leaves=19
num_cat=0
split_feature=48 48 48 39 39 48 48 48 22 11 45 14 15 27 39 37 7 42
split_gain=0.0127901 0.00321466 0.0026476 0.000639447 0.000600562 0.000334449 0.000278225 9.90144e-05 5.52918e-05 1.06741e-05 1.29937e-05 1.71281e-05 7.77883e-06 1.64214e-06 2.62088e-06 2.84982e-06 1.01614e-06 9.2423e-07
threshold=-0.051089449159965626 -1.7682454923824455 0.98129035818313937 -0.24014948482378898 -1.0777577628637198 0.22755074704048797 -0.2749406843685378 -0.32249487745501954 -0.51392992134726045 0.10052910052910045 0.87003968253968267 -1.334811325987505 1.5095496994401503 0.14335317460317501 -1.2361679272620647 0.14434523809523803 0.33349867724867704 0.10416666666666652
decision_type=2 2 2 2 2 2 2 2 2 2 2 2 2 2 2 2 2 2
left_child=1 -1 5 6 -4 13 8 16 -3 -7 11 -11 -6 -2 -15 -16 -5 -17
right_child=2 3 4 7 12 9 -8 -9 -10 10 -12 -13 -14 14 15 17 -18 -19
leaf_value=-0.00045745852620217471 0 0 0.0004658334224436678 0 0.00018309570146443234 0 0 0 -0.00024185864122351077 0 0 0.00011890899339814766 0 0 0 0 -7.5690726829078696e-05 1.1247019280019297e-05
leaf_weight=88 30 21 69 40 142 24 54 137 146 68 22 256 20 27 26 20 246 159
leaf_count=88 30 21 69 40 142 24 54 137 146 68 22 256 20 27 26 20 246 159
internal_value=0 -0.000155373 0.000128725 -0.000106267 0.000280921 6.51506e-05 -0.000186767 -5.23576e-05 -0.000224315 9.75116e-05 0.000101217 0.000105074 0.000171078 3.53456e-07 4.22243e-06 7.21959e-06 -7.01371e-05 9.9734e-06
internal_weight=1595 732 863 644 231 632 221 423 167 370 346 324 162 262 232 205 286 179
internal_count=1595 732 863 644 231 632 221 423 167 370 346 324 162 262 232 205 286 179
is_linear=0
shrinkage=0.05


Tree=22
num_leaves=18
num_cat=0
split_feature=48 49 48 14 39 48 49 25 22 48 14 15 45 34 31 42 2
split_gain=0.011761 0.00287722 0.00241897 0.00104731 0.000667619 0.000319732 0.000145272 0.00012362 0.000113375 3.67471e-05 1.53438e-05 1.19191e-05 1.70408e-05 5.49942e-06 1.54451e-06 1.04357e-06 1.03786e-06
threshold=-0.051089449159965626 0.041666666666666678 0.54678393595640695 0.54664599446056161 -0.35266413899964194 -0.35124923386853207 0.3083333333333334 1.6954063390473901 -0.32938701960808342 0.09650579362745472 -1.8090239841282698 1.8082123757197703 0.87235449735449755 -1.1457345248950499 2.4465113092920503 0.11342592592592601 0.018022486772486804
decision_type=2 2 2 2 2 2 2 2 2 2 2 2 2 2 2 2 2
left_child=1 8 9 10 5 -3 16 -5 -1 -2 -4 12 -12 -11 15 -15 -6
right_child=2 4 3 7 6 -7 -8 -9 -10 13 11 -13 -14 14 -16 -17 -18
leaf_value=-7.6221847595109353e-06 0 -0.00024685076810303225 0 0.00044950523395736162 0 -1.1379248983792889e-05 0 0 -0.00059972932917483541 0 0.00016242006625346293 0 0 0 0 4.6906639645189308e-05 -8.4211210707247695e-05
leaf_weight=20 159 145 24 75 20 70 174 20 44 21 254 20 25 25 21 219 259
leaf_count=20 159 145 24 75 20 70 174 20 44 21 254 20 25 25 21 219 259
internal_value=0 -0.000148941 0.00012349 0.000212273 -0.000108424 -0.000193472 -5.69907e-05 0.000395363 -0.000493 2.88312e-05 0.000142842 0.000148893 0.000154482 4.01784e-05 4.23561e-05 4.43193e-05 -8.10806e-05
internal_weight=1595 732 863 418 668 215 453 95 64 445 323 299 279 286 265 244 279
internal_count=1595 732 863 418 668 215 453 95 64 445 323 299 279 286 265 244 279
is_linear=0
shrinkage=0.05


Tree=23
num_leaves=17
num_cat=0
split_feature=48 48 48 39 39 17 48 48 49 31 31 15 40 14 26 46
split_gain=0.0108522 0.00264422 0.0022477 0.000557881 0.000442866 0.000285688 0.000146055 0.000143806 0.000118739 1.86267e-05 1.0997e-05 1.45564e-05 1.36119e-05 8.31647e-06 6.13406e-06 6.04458e-06
threshold=-0.051089449159965626 -1.5830564539553378 0.82579089657530957 -1.0979538769522799 -0.85627071667212984 -1.0424191259960949 0.13768120823168087 -0.24132194415397581 0.34166666666666673 3.1229200514140056 3.1919077955730502 1.5391090705676753 0.031084656084656055 0.42397724239940954 1.4462306784549901 0.013062169312169301
decision_type=2 2 2 2 2 2 2 2 2 2 2 2 2 2 2 2
left_child=1 5 6 13 7 -1 -2 -3 15 -5 11 12 -8 -4 -14 -6
right_child=2 4 3 9 8 -7 10 -9 -10 -11 -12 -13 14 -15 -16 -17
leaf_value=0 0 -0.00022555962689275877 0 0.00015559685350582437 0 -0.00043560372009864614 0 0 0 0 0 0 8.3807748546378411e-05 0.00045005286483669205 0 -7.3633271719828798e-05
leaf_weight=22 195 105 21 196 20 90 26 36 153 20 22 42 250 65 26 306
leaf_count=22 195 105 21 196 20 90 26 36 153 20 22 42 250 65 26 306
internal_value=0 -0.000143139 0.000118552 0.000233502 -9.18215e-05 -0.000382283 4.77296e-05 -0.000188012 -5.3037e-05 0.000147493 6.69993e-05 6.96836e-05 7.51754e-05 0.00039103 7.94152e-05 -7.1014e-05
internal_weight=1595 732 863 302 620 112 561 141 479 216 366 344 302 86 276 326
internal_count=1595 732 863 302 620 112 561 141 479 216 366 344 302 86 276 326
is_linear=0
shrinkage=0.05


Tree=24
num_leaves=20
num_cat=0
split_feature=48 48 48 15 15 49 48 39 42 48 46 15 26 25 16 31 7 42 42
split_gain=0.00999789 0.00241096 0.00207165 0.000430795 0.000371264 0.000293166 0.000237399 6.7786e-05 7.16818e-05 5.97151e-05 4.07415e-05 3.26887e-05 2.57627e-05 2.30779e-05 1.77397e-05 1.55056e-05 8.09906e-06 1.30286e-05 2.3609e-06
threshold=-0.051089449159965626 -1.0598116400499131 0.98129035818313937 1.5891936088343552 -0.49220810694048495 0.041666666666666678 0.1972318861475135 0.76130357433836215 0.8482142857142857 -0.2749406843685378 0.013062169312169301 0.75580992352657217 1.4462306784549901 2.1746856252645101 -1.6990116033483098 3.1919077955730502 0.26901455026455007 0.10615079365079351 0.81812169312169314
decision_type=2 2 2 2 2 2 2 2 2 2 2 2 2 2 2 2 2 2 2
left_child=1 3 6 5 -4 -1 -2 8 -7 10 -3 14 15 -6 -12 16 -8 -18 -19
right_child=2 9 4 -5 13 7 12 -9 -10 -11 11 -13 -14 -15 -16 -17 17 18 -20
leaf_value=-0.00049530359877337658 0 0 0.00035758883938294053 0 0.00013319685164609108 -0.00025650832114232396 0 0 0 -2.1153965595740846e-06 0 0 0 0 -0.00010886649336572436 0 0 0.00010440965757727418 0
leaf_weight=59 239 21 106 20 100 78 20 32 20 170 21 81 33 25 230 21 38 254 27
leaf_count=59 239 21 106 20 100 78 20 32 20 170 21 81 33 25 230 21 38 254 27
internal_value=0 -0.000137306 0.000113877 -0.000289121 0.000249248 -0.000313253 5.64556e-05 -0.000191881 -0.000224846 -6.70353e-05 -8.41302e-05 -8.84994e-05 8.14544e-05 0.000117195 -0.000103364 8.61493e-05 8.94183e-05 9.25215e-05 9.91629e-05
internal_weight=1595 732 863 209 231 189 632 130 98 523 353 332 393 125 251 360 339 319 281
internal_count=1595 732 863 209 231 189 632 130 98 523 353 332 393 125 251 360 339 319 281
is_linear=0
shrinkage=0.05


Tree=25
num_leaves=23
num_cat=0
split_feature=48 48 48 14 25 48 49 31 34 15 22 14 34 40 31 11 42 22 30 10 48 46
split_gain=0.0092321 0.00237928 0.00183467 0.000645669 0.000563258 0.000551557 0.000125515 0.000122845 6.32067e-05 5.59052e-05 4.4186e-05 5.28117e-05 3.59933e-05 3.99175e-05 3.50594e-05 2.32306e-05 2.12098e-05 1.71299e-05 8.57872e-06 1.2875e-06 2.5005e-07 2.73267e-07
threshold=-0.032337881931314011 -0.92825165476720717 0.57864571182238589 -0.85391273076716334 2.2343322799487502 1.8078359568985811 0.041666666666666678 3.3858760614928856 0.43713658270068007 0.52879674406043709 -0.59727905553422489 -1.7151148769417548 -1.0552733783834898 0.98908730158730152 2.4143772184181507 0.15261243386243403 0.8134920634920636 -0.55041781827636937 1.9618954427253603 0.49834656084656109 -0.089747724715264751 0.014384920634920601
decision_type=2 2 2 2 2 2 2 2 2 2 2 2 2 2 2 2 2 2 2 2 2 2
left_child=1 3 12 9 6 7 -5 10 14 -1 -4 -12 -2 18 15 -3 -13 -17 19 -14 21 -10
right_child=2 8 5 4 -6 -7 -8 -9 20 -11 11 16 13 -15 -16 17 -18 -19 -20 -21 -22 -23
leaf_value=-8.8313348267117259e-05 0 0 0 -0.00067990019072800185 0 0.00044426598325220486 -0.00024950457497436538 0 0 0 0 0.00018679062827417546 0 0 0 0 0 -9.2191503336502007e-05 0 5.7236108858183026e-05 0 -4.8585838119785392e-06
leaf_weight=65 43 21 31 30 36 43 87 23 24 21 22 255 20 32 28 30 27 205 150 194 24 183
leaf_count=65 43 21 31 30 36 43 87 23 24 21 22 255 20 32 28 30 27 205 150 194 24 183
internal_value=0 -0.000125195 0.000115775 -0.000261644 -0.000339193 0.000196109 -0.000403047 0.000152224 -5.21271e-05 -6.53738e-05 0.000160247 0.000169293 3.09797e-05 3.5932e-05 -7.39743e-05 -8.00795e-05 0.000177097 -8.50445e-05 4.09715e-05 5.43591e-05 -3.61133e-06 -4.19184e-06
internal_weight=1594 754 840 239 153 401 117 358 515 86 335 304 439 396 284 256 282 235 364 214 231 207
internal_count=1594 754 840 239 153 401 117 358 515 86 335 304 439 396 284 256 282 235 364 214 231 207
is_linear=0
shrinkage=0.05


Tree=26
num_leaves=21
num_cat=0
split_feature=48 48 48 39 48 25 16 15 34 34 40 31 42 11 37 50 17 31 8 46
split_gain=0.00854621 0.00218025 0.00166206 0.000586997 0.000452689 0.000282481 0.000152106 7.20571e-05 4.89168e-05 3.38242e-05 3.77065e-05 3.05815e-05 2.31092e-05 1.96018e-05 1.07229e-05 9.1738e-06 5.84222e-06 3.17614e-06 1.17938e-06 3.98734e-07
threshold=-0.032337881931314011 -0.92825165476720717 0.57864571182238589 0.51903392705850815 1.8662803723893886 2.0555579586607453 -0.094625714445470688 0.44089730467689009 0.43713658270068007 -1.0552733783834898 0.98908730158730152 2.4143772184181507 0.14715608465608451 0.15261243386243403 0.106646825396825 4.9463343008278828 -1.2757210391910647 3.3858760614928856 0.97255291005291011 0.014384920634920601
decision_type=2 2 2 2 2 2 2 2 2 2 2 2 2 2 2 2 2 2 2 2
left_child=1 3 9 5 6 12 17 -5 11 -2 14 13 -1 -3 -11 16 -16 -4 19 -10
right_child=2 8 4 7 -6 -7 -8 -9 18 10 -12 -13 -14 -15 15 -17 -18 -19 -20 -21
leaf_value=0 0 0 8.9429873619492625e-05 -9.1279718200334956e-05 0.00043624668488446983 0 0.00023608725564210452 0 0 0 0 0 -0.00041252281313557858 -8.1025086094743765e-05 0 0 4.7976211259555859e-05 0 0 -6.0250125551950707e-06
leaf_weight=20 43 21 226 62 39 32 115 25 24 31 32 28 100 235 20 39 274 21 24 183
leaf_count=20 43 21 226 62 39 32 115 25 24 31 32 28 100 235 20 39 274 21 24 183
internal_value=0 -0.000120711 0.000111142 -0.000251639 0.00018779 -0.000327067 0.000147101 -6.22275e-05 -5.02063e-05 2.97154e-05 3.45303e-05 -7.06481e-05 -0.000375972 -7.63897e-05 3.94466e-05 4.22058e-05 4.57769e-05 8.53573e-05 -3.41896e-06 -5.2231e-06
internal_weight=1594 754 840 239 401 152 362 87 515 439 396 284 120 256 364 333 294 247 231 207
internal_count=1594 754 840 239 401 152 362 87 515 439 396 284 120 256 364 333 294 247 231 207
is_linear=0
shrinkage=0.05


Tree=27
num_leaves=19
num_cat=0
split_feature=48 48 49 14 25 24 49 14 48 39 22 25 1 22 42 16 49 7
split_gain=0.00789093 0.00199677 0.00154555 0.000503981 0.00043359 0.000282218 0.000175262 0.000110988 0.000106671 4.15745e-05 4.62568e-05 2.43319e-05 1.35787e-05 1.39958e-05 1.50976e-05 1.43323e-05 6.97891e-06 2.36814e-06
threshold=-0.032337881931314011 -0.91445657914753187 0.80833333333333346 -1.1465198159845997 2.2343322799487502 1.9275484495153101 0.041666666666666678 -0.60693337648813839 0.16993427203361097 0.099192213688104561 -0.40012173180251243 1.9928093397445001 0.020667989417989405 -0.56562900268050431 0.81812169312169314 -1.574406727890185 0.40833333333333338 0.96643518518518512
decision_type=2 2 2 2 2 2 2 2 2 2 2 2 2 2 2 2 2 2
left_child=1 3 8 -1 6 7 -5 -4 -2 10 -3 -12 -10 -14 15 -15 17 -11
right_child=2 9 5 4 -6 -7 -8 -9 12 16 11 -13 13 14 -16 -17 -18 -19
leaf_value=-3.1976515074675823e-05 0 0 0 -0.00061426674773063612 -9.879794722405002e-06 8.5844673427228099e-05 -0.00021793151738738718 0.00030246028408552621 0 -1.5757416866251064e-05 -9.6928905402795872e-05 0 0 0 0 8.0043638361461381e-05 0 0
leaf_weight=72 193 50 21 32 44 136 98 134 28 199 146 20 24 37 30 237 69 24
leaf_count=72 193 50 21 32 44 136 98 134 28 199 146 20 24 37 30 237 69 24
internal_value=0 -0.000116265 0.000106529 -0.000239083 -0.000295995 0.000205454 -0.00035432 0.000278041 4.49591e-05 -4.69142e-05 -7.43993e-05 -8.88691e-05 6.2175e-05 6.55675e-05 6.89452e-05 7.35622e-05 -9.4469e-06 -1.3966e-05
internal_weight=1594 754 840 246 174 291 130 155 549 508 216 166 356 328 304 274 292 223
internal_count=1594 754 840 246 174 291 130 155 549 508 216 166 356 328 304 274 292 223
is_linear=0
shrinkage=0.05


Tree=28
num_leaves=21
num_cat=0
split_feature=49 14 49 49 49 14 24 7 14 28 46 7 49 31 1 14 31 8 49 8
split_gain=0.0070831 0.00131339 0.00110346 0.000658422 0.000454681 0.000356247 0.000222627 7.72013e-05 7.30582e-05 3.0905e-05 2.85091e-05 1.7618e-05 1.05252e-05 1.57407e-05 1.13333e-05 5.46252e-06 1.91428e-06 1.68181e-06 1.37001e-06 1.65739e-07
threshold=0.52500000000000013 0.27691698513091456 0.80833333333333346 0.32500000000000001 0.25833333333333336 -1.7559722713188448 1.9275484495153101 0.93204365079365104 -0.60693337648813839 -1.5295298907307298 0.017691798941798956 0.25099206349206354 0.57500000000000007 2.7593529816316003 0.020667989417989405 -1.8090239841282698 3.1229200514140056 0.97255291005291011 0.47500000000000003 0.17294973544973555
decision_type=2 2 2 2 2 2 2 2 2 2 2 2 2 2 2 2 2 2 2 2
left_child=1 4 11 9 5 -1 8 10 -4 -3 -7 -2 -13 14 -14 -16 -8 18 19 -6
right_child=2 3 6 -5 17 7 16 -9 -10 -11 -12 12 13 -15 15 -17 -18 -19 -20 -21
leaf_value=0 0 0 0 -4.8552117600123777e-06 0 0 8.9306886194287266e-05 0 0.00028734854690990337 -0.00037187300978435496 -0.00014782288404824014 0 0 0 0 6.6807198199807138e-05 0 0 0 -5.9611318540368164e-06
leaf_weight=80 25 21 21 59 20 23 114 37 134 78 212 77 23 28 23 278 22 37 51 231
leaf_count=80 25 21 21 59 20 23 114 37 134 78 212 77 23 28 23 278 22 37 51 231
internal_value=0 -9.79012e-05 0.000113328 -0.00023963 -5.82295e-05 -9.94137e-05 0.000196487 -0.000126736 0.000264975 -0.000328946 -0.000139322 4.89825e-05 5.13977e-05 5.73948e-05 6.08291e-05 6.38508e-05 8.15556e-05 -7.04459e-07 -3.80456e-06 -5.57267e-06
internal_weight=1594 849 745 158 691 352 291 272 155 99 235 454 429 352 324 301 136 339 302 251
internal_count=1594 849 745 158 691 352 291 272 155 99 235 454 429 352 324 301 136 339 302 251
is_linear=0
shrinkage=0.05


Tree=29
num_leaves=23
num_cat=0
split_feature=48 48 48 14 25 48 49 25 14 30 22 8 14 43 48 46 17 16 40 36 11 40
split_gain=0.00677361 0.00173322 0.00130396 0.000411992 0.000330908 0.000213912 0.000118701 0.000100106 7.81009e-05 6.61799e-05 4.57201e-05 3.26817e-05 2.70418e-05 1.7331e-05 9.89966e-06 1.44464e-05 1.04052e-05 8.25486e-06 4.37386e-06 3.0503e-06 1.3193e-06 1.11447e-06
threshold=-0.032337881931314011 -0.91445657914753187 1.1579892870706987 -1.1465198159845997 2.2343322799487502 0.3395535928580739 0.041666666666666678 2.1619807582561106 -1.334811325987505 1.8868687665623651 -0.47485885669007993 0.99619708994709011 -1.5856970380434499 0.85879629629629617 -0.138186792138831 0.019345238095238103 -1.2386164965603597 -1.1815537610824598 0.98908730158730152 1.5289389420638153 0.27347883597883604 0.031084656084656055
decision_type=2 2 2 2 2 2 2 2 2 2 2 2 2 2 2 2 2 2 2 2 2 2
left_child=1 3 5 -1 6 18 -5 8 -4 10 -7 12 -3 14 15 -14 -17 -12 19 20 -2 -22
right_child=2 11 7 4 -6 9 -8 -9 -10 -11 17 -13 13 -15 -16 16 -18 -19 -20 -21 21 -23
leaf_value=-2.6381922231253475e-05 0 0 0 -0.00057208590257355827 -5.0293353411037408e-06 0 -0.00019732788938527719 0 0.00028808665890380061 9.162138300124233e-06 0 0 0 0 0 0 -6.8603929632210113e-05 0.00013655379604058599 0 0 0 1.3404894321697675e-05
leaf_weight=72 40 82 22 32 44 33 98 40 118 145 20 23 23 32 58 34 256 152 32 25 26 187
leaf_count=72 40 82 22 32 44 33 98 40 118 145 20 23 23 32 58 34 256 152 32 25 26 187
internal_value=0 -0.000108122 9.83034e-05 -0.00022286 -0.00027538 5.53485e-05 -0.000328377 0.000227924 0.000261854 8.53106e-05 0.000114763 -4.26863e-05 -4.55735e-05 -5.16445e-05 -5.48989e-05 -6.04255e-05 -6.37591e-05 0.000127906 5.37993e-06 8.46127e-06 1.04304e-05 1.20288e-05
internal_weight=1594 754 840 246 174 660 130 180 140 350 205 508 485 403 371 313 290 172 310 278 253 213
internal_count=1594 754 840 246 174 660 130 180 140 350 205 508 485 403 371 313 290 172 310 278 253 213
is_linear=0
shrinkage=0.05


Tree=30
num_leaves=18
num_cat=0
split_feature=48 48 48 48 16 14 45 31 15 39 26 45 42 17 9 48 48
split_gain=0.00705015 0.00170491 0.00168635 0.000662852 0.000272482 0.000272349 3.30582e-05 4.86052e-05 4.29881e-05 2.88338e-05 9.65647e-06 4.44429e-06 3.61391e-06 4.32446e-06 2.12669e-06 1.22405e-06 1.01664e-06
threshold=-0.072083197512529437 -0.91445657914753187 1.8662803723893886 0.42058923824735545 -0.094625714445470688 0.55747391711320859 0.93022486772486812 2.0275835299273601 1.4905574407771351 0.88941837477994312 0.29048877975918957 0.87003968253968267 0.85879629629629617 -1.2857702448061898 0.53356481481481521 -0.018342407387937149 -0.16800610989961526
decision_type=2 2 2 2 2 2 2 2 2 2 2 2 2 2 2 2 2
left_child=1 5 3 10 11 6 7 8 -1 12 14 -5 13 -3 15 -2 -15
right_child=2 9 -4 4 -6 -7 -8 -9 -10 -11 -12 -13 -14 16 -16 -17 -18
leaf_value=-0.00019255569796211068 0 0 0.00043029485217980579 6.7544610432188252e-05 0.00019940116781622431 -0.00044813485504906079 0 0 0 0 0 0 0 -6.0742739039032224e-05 0 1.657579789945978e-05 0
leaf_weight=150 22 27 43 301 142 40 20 20 20 117 102 24 20 241 20 223 46
leaf_count=150 22 27 43 301 142 40 20 20 20 117 102 24 20 241 20 223 46
internal_value=6.62538e-07 -0.000114295 9.82534e-05 7.50898e-05 0.000116425 -0.000224685 -0.000158132 -0.000167545 -0.000179127 -4.19834e-05 8.85432e-06 6.47402e-05 -5.09472e-05 -5.28171e-05 1.4129e-05 1.54146e-05 -5.55847e-05
internal_weight=1578 701 877 834 467 250 210 190 170 451 367 325 334 314 265 245 287
internal_count=1578 701 877 834 467 250 210 190 170 451 367 325 334 314 265 245 287
is_linear=0
shrinkage=0.05


Tree=31
num_leaves=18
num_cat=0
split_feature=49 30 49 42 49 49 49 15 22 25 18 15 31 22 49 34 31
split_gain=0.0063402 0.00143377 0.00101423 0.000744377 0.000397574 0.000376392 0.000180665 0.000135334 8.26089e-05 7.50921e-05 4.79097e-05 4.28071e-05 4.93449e-05 3.17074e-05 1.37752e-05 1.17358e-05 1.87776e-06
threshold=0.52500000000000013 1.0705504100120302 0.19166666666666668 0.87632275132275161 0.041666666666666678 0.84166666666666679 0.62500000000000011 0.44089730467689009 -0.21907261361767896 2.0912269339216154 0.430059523809524 1.2619483816510102 2.4143772184181507 -0.36010313535231991 0.59166666666666679 0.56351373171771868 3.1229200514140056
decision_type=2 2 2 2 2 2 2 2 2 2 2 2 2 2 2 2 2
left_child=2 6 3 4 8 14 -2 -6 -1 13 -8 12 -7 -4 -3 -15 -16
right_child=1 5 9 -5 7 11 10 -9 -10 -11 -12 -13 -14 15 16 -17 -18
leaf_value=0 0 0 0 0 -0.0001475477720161339 0.00015442561636758065 0.00043135109069737502 0 -0.00045914347274900874 0 0 0 0 -7.2638595556758171e-05 3.458350959702877e-05 0 0
leaf_weight=22 24 92 121 67 163 174 52 45 42 179 23 25 23 152 313 35 26
leaf_count=22 24 92 121 67 163 174 52 45 42 179 23 25 23 152 313 35 26
internal_value=3.648e-07 0.0001085 -9.20312e-05 -0.000163151 -0.000200029 7.12531e-05 0.000303403 -0.000124245 -0.000367746 -3.22367e-05 0.000357051 0.000132876 0.000142964 -4.74582e-05 2.78904e-05 -6.42847e-05 3.30223e-05
internal_weight=1578 752 826 339 272 653 99 208 64 487 75 222 197 308 431 187 339
internal_count=1578 752 826 339 272 653 99 208 64 487 75 222 197 308 431 187 339
is_linear=0
shrinkage=0.05


Tree=32
num_leaves=16
num_cat=0
split_feature=49 30 49 42 49 49 49 15 39 7 31 34 49 16 7
split_gain=0.00588754 0.0013175 0.00091957 0.000681817 0.000342788 0.000336491 0.000134154 0.000113683 7.15614e-05 4.00006e-05 2.47052e-05 1.78342e-05 3.12391e-06 2.54198e-06 5.00502e-07
threshold=0.52500000000000013 1.0705504100120302 0.19166666666666668 0.87632275132275161 0.041666666666666678 0.79166666666666685 0.62500000000000011 0.44089730467689009 0.016215655425367053 0.96643518518518512 2.4143772184181507 0.63991501554412311 0.55833333333333346 -1.6109380083541147 0.27628968253968256
decision_type=2 2 2 2 2 2 2 2 2 2 2 2 2 2 2
left_child=2 6 3 4 -1 12 -2 13 11 10 -7 -4 -3 -6 -14
right_child=1 5 8 -5 7 9 -8 -9 -10 -11 -12 -13 14 -15 -16
leaf_value=-0.00035270373394250535 0 0 -6.2108022117376394e-05 0 0 0.00012762520018106793 0.00034211727269068266 0 0 0 0 0 0 -0.00015032471615652687 2.0415281260922684e-05
leaf_weight=64 24 47 180 67 21 242 75 45 285 26 25 22 22 142 291
leaf_count=64 24 47 180 67 21 242 75 45 285 26 25 22 22 142 291
internal_value=1.82632e-07 0.000104503 -8.87401e-05 -0.000156761 -0.000192066 6.83673e-05 0.000292086 -0.000118467 -3.11034e-05 0.000113587 0.00012055 -5.67176e-05 1.76567e-05 -0.000140175 1.95832e-05
internal_weight=1578 752 826 339 272 653 99 208 487 293 267 202 360 163 313
internal_count=1578 752 826 339 272 653 99 208 487 293 267 202 360 163 313
is_linear=0
shrinkage=0.05


Tree=33
num_leaves=24
num_cat=0
split_feature=48 48 48 48 14 24 15 31 45 2 2 15 31 34 46 15 7 45 11 26 25 42 17
split_gain=0.00562337 0.00135558 0.00130522 0.000463702 0.000284534 9.55314e-05 8.39449e-05 6.78255e-05 6.39167e-05 5.45602e-05 7.46329e-05 3.81682e-05 1.54325e-05 1.04853e-05 1.04784e-05 1.15918e-05 1.04373e-05 1.20812e-05 1.30736e-05 8.34393e-06 6.94402e-06 3.74069e-06 5.66614e-06
threshold=-0.072083197512529437 1.8662803723893886 -0.77461651470715942 0.42058923824735545 0.55747391711320859 1.5630726486524054 1.6550450162432953 3.1229200514140056 0.90046296296296313 0.061342592592592608 0.94031084656084662 -0.49220810694048495 3.6493679201475255 -0.49413009247503542 0.014384920634920601 0.6370043264754871 0.98462301587301615 0.87003968253968267 0.12929894179894205 0.30958377467958459 2.7180489016618954 0.79398148148148162 -1.2164736718260796
decision_type=2 2 2 2 2 2 2 2 2 2 2 2 2 2 2 2 2 2 2 2 2 2 2
left_child=2 3 4 13 6 11 7 8 9 -1 -11 -5 16 -2 -4 20 17 18 -7 -15 21 22 -16
right_child=1 -3 14 5 -6 12 -8 -9 -10 10 -12 -13 -14 19 15 -17 -18 -19 -20 -21 -22 -23 -24
leaf_value=0 0 0.00038743335051637999 0 0.00022603005500793769 -0.00038258867424664268 0 0 0 0 -0.00018714115603098679 0 0 0 1.7730222004445268e-05 0 0 0 0 7.9704141337231979e-05 0 0 0 -4.7416264668857714e-05
leaf_weight=22 68 43 25 68 46 34 20 20 24 146 20 22 21 219 41 83 22 25 275 80 33 35 186
leaf_count=22 68 43 25 68 46 34 20 20 24 146 20 22 21 219 41 83 22 25 275 80 33 35 186
internal_value=0 8.74534e-05 -0.000102391 6.59477e-05 -0.000185801 0.000101002 -0.000129908 -0.000138689 -0.00014781 -0.00015964 -0.000172283 0.000193793 6.55451e-05 7.70674e-06 -2.82789e-05 -3.0362e-05 6.82485e-05 7.10117e-05 7.44864e-05 1.26703e-05 -3.57678e-05 -3.88155e-05 -4.21903e-05
internal_weight=1578 877 701 834 298 467 252 232 212 188 166 90 377 367 403 378 356 334 309 299 295 262 227
internal_count=1578 877 701 834 298 467 252 232 212 188 166 90 377 367 403 378 356 334 309 299 295 262 227
is_linear=0
shrinkage=0.05


Tree=34
num_leaves=22
num_cat=0
split_feature=48 48 48 48 31 22 39 42 16 11 50 39 13 46 34 45 17 42 1 0 1
split_gain=0.0052089 0.0012268 0.00119249 0.000192352 0.000185375 0.000237941 0.00010557 9.21153e-05 5.22961e-05 3.75872e-05 4.3446e-05 1.99843e-05 8.19622e-06 7.74682e-06 7.42581e-06 5.94742e-06 3.3262e-06 3.30278e-06 1.0722e-06 2.32071e-07 2.93598e-07
threshold=-0.072083197512529437 1.2956031648370667 -0.91445657914753187 0.37329259607775561 2.0275835299273601 -0.21907261361767896 0.85620150563620612 0.76884920634920617 -1.1778009254236848 0.12070105820105802 4.2966555374328648 0.91842037105252505 -1.0224836811752198 0.025628306878306903 -0.25434674434432542 0.85251322751322756 -1.2857702448061898 0.83763227513227512 0.098379629629629609 2.5571527001850654 0.64037698412698407
decision_type=2 2 2 2 2 2 2 2 2 2 2 2 2 2 2 2 2 2 2 2 2
left_child=2 3 4 14 5 -1 7 -3 -5 -10 -11 12 -4 -14 -2 18 -15 -18 -16 20 -20
right_child=1 6 11 8 -6 -7 -8 -9 9 10 -12 -13 13 16 15 -17 17 -19 19 -21 -22
leaf_value=-7.1157010565814401e-05 0 0.00027864008926706089 0 0 0 -0.0002823509639734956 0 0 0 0.00011613498873246748 0 0 0 0 0 0 -5.2454828459891275e-05 0 1.5826698353270585e-05 0 0
leaf_weight=107 87 103 24 131 21 122 20 20 21 191 50 112 23 23 23 21 247 22 170 20 20
leaf_count=107 87 103 24 131 21 122 20 20 21 191 50 112 23 23 23 21 247 22 170 20 20
internal_value=0 8.41566e-05 -9.85585e-05 4.9081e-05 -0.000191983 -0.000205569 0.000229094 0.000251307 7.55562e-05 9.51885e-05 0.000101192 -3.5656e-05 -4.28789e-05 -4.52069e-05 3.89682e-06 9.66666e-06 -4.76538e-05 -4.99588e-05 1.28705e-05 1.40193e-05 1.48415e-05
internal_weight=1578 877 701 734 250 229 143 123 393 262 241 451 339 315 341 254 292 269 233 210 190
internal_count=1578 877 701 734 250 229 143 123 393 262 241 451 339 315 341 254 292 269 233 210 190
is_linear=0
shrinkage=0.05


Tree=35
num_leaves=22
num_cat=0
split_feature=48 48 48 24 48 48 19 15 15 14 14 1 31 22 44 7 26 1 42 7 8
split_gain=0.0045858 0.00138106 0.000977571 0.000328002 0.000144078 0.000128324 0.000103417 8.56643e-05 5.81701e-05 8.96537e-05 4.04301e-05 2.7031e-05 5.23573e-05 3.82593e-05 1.79223e-05 5.94585e-06 4.72489e-06 1.42433e-06 1.67341e-06 6.45924e-07 4.38535e-09
threshold=-0.0089374727242463332 -1.5830564539553378 1.3802161593082138 2.1797537985725106 -0.32249487745501954 0.37329259607775561 -0.51930395522612482 -0.20955017640865597 0.31617347952067154 -1.1250960940595347 -1.334811325987505 0.020667989417989405 2.2730582944763706 -0.51015922073632136 1.8404789821276752 0.30985449735449755 0.29048877975918957 0.68435846560846614 0.15575396825396801 0.34540343915343902 0.97255291005291011
decision_type=2 2 2 2 2 2 2 2 2 2 2 2 2 2 2 2 2 2 2 2 2
left_child=1 3 5 -1 8 16 -4 -8 9 -3 -7 -12 13 -13 -11 -15 17 18 -2 -20 -6
right_child=2 4 6 -5 20 10 7 -9 -10 14 11 12 -14 15 -16 -17 -18 -19 19 -21 -22
leaf_value=-0.000338255146916115 0 0 0 0 -2.2167778925243769e-07 0 0.00031572197922133486 0 0 -0.00011822325307888494 0 0 0 0 0 0.00010808340835871359 0 0 0 1.2648587252395736e-05 0
leaf_weight=75 25 103 22 31 223 90 65 25 100 189 33 21 33 20 24 208 79 20 21 153 20
leaf_count=75 25 103 22 31 223 90 65 25 100 189 33 21 33 20 24 208 79 20 21 153 20
internal_value=0 -8.99357e-05 8.04542e-05 -0.000270662 -5.32432e-05 4.92221e-05 0.000231669 0.000263904 -7.31848e-05 -8.6663e-05 7.06316e-05 8.20641e-05 8.81015e-05 9.65174e-05 -0.000110419 0.00010292 3.33856e-06 8.31128e-06 9.69024e-06 1.14636e-05 0
internal_weight=1580 765 815 106 659 703 112 90 416 316 405 315 282 249 213 228 298 219 199 174 243
internal_count=1580 765 815 106 659 703 112 90 416 316 405 315 282 249 213 228 298 219 199 174 243
is_linear=0
shrinkage=0.05


Tree=36
num_leaves=16
num_cat=0
split_feature=48 48 48 17 24 39 39 16 48 48 15 48 7 46 34
split_gain=0.00427482 0.00123438 0.000889622 0.000319107 0.000170456 0.000136586 0.000136038 0.000128815 5.31698e-05 4.32744e-05 3.82298e-05 1.55665e-05 6.25603e-06 6.7908e-06 5.91373e-06
threshold=-0.0089374727242463332 -1.5830564539553378 1.4222113383944364 -1.0032976186626847 2.0594006711858905 -0.29129802569452345 -0.85627071667212984 -0.10027910888145619 0.13768120823168087 -0.32249487745501954 -0.38138761174495495 0.47087578925006274 0.34540343915343902 0.013062169312169301 -1.3258479499289149
decision_type=2 2 2 2 2 2 2 2 2 2 2 2 2 2 2
left_child=1 3 7 -1 -5 -4 10 11 -9 12 -3 -2 -8 -14 -13
right_child=2 6 5 4 -6 -7 9 8 -10 -11 -12 14 13 -15 -16
leaf_value=0 0 -0.00011957919575088993 0.00030180387409802937 -0.00038870400491847424 0 0 0 0 0.00010870718049751133 0 0 0 0 -4.1306074870350392e-05 3.6739894858171228e-05
leaf_weight=24 279 132 64 55 27 42 38 27 157 187 24 24 21 257 222
leaf_count=24 279 132 64 55 27 42 38 27 157 187 24 24 21 257 222
internal_value=0 -8.68144e-05 7.76976e-05 -0.000258707 -0.00031018 0.00022762 -5.15444e-05 4.82031e-05 9.6758e-05 -2.4332e-05 -0.000107184 2.16486e-05 -3.58406e-05 -3.89398e-05 3.4031e-05
internal_weight=1580 765 815 106 82 106 659 709 184 503 156 525 316 278 246
internal_count=1580 765 815 106 82 106 659 709 184 503 156 525 316 278 246
is_linear=0
shrinkage=0.05


Tree=37
num_leaves=17
num_cat=0
split_feature=48 49 48 17 16 48 48 39 7 31 22 14 48 8 7 14
split_gain=0.0039759 0.00116483 0.000808691 0.00026979 0.000211264 0.000164071 7.09671e-05 6.47079e-05 3.12164e-05 2.77894e-05 5.10895e-05 4.80122e-05 2.61468e-05 2.28655e-06 7.45002e-07 4.77713e-07
threshold=-0.0089374727242463332 0.058333333333333341 1.7014321762517646 -1.0032976186626847 -0.094625714445470688 -0.41555636445309752 0.13768120823168087 0.88941837477994312 0.16220238095238101 2.0275835299273601 -0.51392992134726045 -1.1250960940595347 0.47087578925006274 0.97255291005291011 0.9796626984126986 -1.5982115596652497
decision_type=2 2 2 2 2 2 2 2 2 2 2 2 2 2 2 2
left_child=1 3 4 -1 12 7 -6 8 -3 10 -10 -12 -2 14 15 -7
right_child=2 5 -4 -5 6 13 -8 -9 9 -11 11 -13 -14 -15 -16 -17
leaf_value=0 0 0 0.00027815001227538482 -0.00033640767317925148 0 0 0.00011906722320575863 0 0 0 0 -0.00013450376550827288 3.7252610115241547e-05 0 0 -8.5804004609687215e-06
leaf_weight=20 279 22 58 62 27 48 176 98 34 21 48 159 275 24 20 209
leaf_count=20 279 22 58 62 27 48 176 98 34 21 48 159 275 24 20 209
internal_value=0 -8.3692e-05 7.49655e-05 -0.000278183 5.2759e-05 -5.29848e-05 0.000106859 -7.79427e-05 -9.34883e-05 -9.88506e-05 -0.000104454 -0.000115406 2.38961e-05 -4.68945e-06 -6.6727e-06 -7.43187e-06
internal_weight=1580 765 815 82 757 683 203 382 284 262 241 207 554 301 277 257
internal_count=1580 765 815 82 757 683 203 382 284 262 241 207 554 301 277 257
is_linear=0
shrinkage=0.05


Tree=38
num_leaves=19
num_cat=0
split_feature=49 30 49 23 49 49 22 4 15 16 31 15 1 25 0 37 17 34
split_gain=0.00350387 0.000661924 0.000522387 0.000437097 0.00054207 0.00021093 6.69374e-05 5.22399e-05 4.2714e-05 4.12072e-05 3.49567e-05 2.66219e-05 3.12184e-05 2.43862e-05 1.21508e-05 1.13961e-05 4.97456e-06 4.05295e-06
threshold=0.52500000000000013 1.0705504100120302 0.25833333333333336 0.036706349206349208 0.041666666666666678 0.72500000000000009 -0.21907261361767896 0.071359723679110518 0.44089730467689009 -1.7154928774920797 3.7461383182162407 1.5095496994401503 0.020667989417989405 2.0254019301078103 2.2603885904472203 0.17807539682539703 -1.243793928877895 0.59364314982271116
decision_type=2 2 2 2 2 2 2 2 2 2 2 2 2 2 2 2 2 2
left_child=2 7 3 -1 6 -3 -5 -2 9 -6 11 12 -7 14 16 -11 -4 -18
right_child=1 5 13 4 8 10 -8 -9 -10 15 -12 -13 -14 -15 -16 -17 17 -19
leaf_value=0 0.00027176851076199268 0 0 0 0 0 -0.00039729973285593733 0 0 0 0 0 8.8362213931089659e-05 0 0 -0.00011087003427115745 -4.0853322853762832e-05 0
leaf_weight=67 64 271 45 22 20 21 38 34 61 34 21 34 290 174 40 191 129 24
leaf_count=67 64 271 45 22 20 21 38 34 61 34 21 34 290 174 40 191 129 24
internal_value=0 7.78455e-05 -7.13731e-05 -0.000112787 -0.00013429 4.86152e-05 -0.0003119 0.00021663 -8.30397e-05 -9.5118e-05 7.45207e-05 7.83868e-05 8.38448e-05 -1.56982e-05 -2.61261e-05 -0.000101533 -3.12048e-05 -3.66221e-05
internal_weight=1580 735 845 433 366 637 60 98 306 245 366 345 311 412 238 225 198 153
internal_count=1580 735 845 433 366 637 60 98 306 245 366 345 311 412 238 225 198 153
is_linear=0
shrinkage=0.05


Tree=39
num_leaves=22
num_cat=0
split_feature=48 48 48 17 28 48 39 48 39 16 7 31 15 34 2 50 17 14 2 25 14
split_gain=0.00344192 0.000934776 0.00070209 0.00021612 0.000244682 0.000101465 9.89271e-05 8.26819e-05 4.57017e-05 4.05947e-05 2.20271e-05 2.102e-05 1.90067e-05 1.37748e-05 9.56455e-06 1.65898e-06 1.53687e-06 1.37232e-06 4.08995e-07 2.27699e-07 2.30483e-08
threshold=-0.0089374727242463332 -1.5830564539553378 1.4222113383944364 -1.0032976186626847 -1.7760416307072897 -0.3674815089995993 -0.71166035755844592 0.50005135420460534 0.88941837477994312 -1.1778009254236848 0.23792989417989405 3.3858760614928856 1.5391090705676753 -0.48126522327840898 0.0054563492063491505 5.036668463752755 -1.1883332745886448 -1.1250960940595347 0.062334656084656111 2.3774718169372404 -1.6375459281711298
decision_type=2 2 2 2 2 2 2 2 2 2 2 2 2 2 2 2 2 2 2 2 2
left_child=1 3 7 -1 -5 8 -4 13 10 -9 -3 12 -11 -2 -15 16 -16 -12 -7 20 -20
right_child=2 5 6 4 -6 18 -8 9 -10 11 17 -13 -14 14 15 -17 -18 -19 19 -21 -22
leaf_value=0 0 0 0.00029087769709965739 0 -0.00034107776219866813 0 1.2415709192880537e-05 0 0 9.441732926427653e-05 0 0 0 0 0 0 2.1330451233407058e-05 -9.6065225978969623e-05 0 0 -3.2592000248765674e-06
leaf_weight=24 77 23 55 24 58 46 51 108 106 185 61 20 20 47 27 27 198 198 26 43 156
leaf_count=24 77 23 55 24 58 46 51 108 106 185 61 20 20 47 27 27 198 198 26 43 156
internal_value=0 -7.8142e-05 6.94632e-05 -0.000229883 -0.000273634 -4.61171e-05 0.000204164 4.22475e-05 -6.53104e-05 6.59445e-05 -7.92036e-05 8.29817e-05 8.83949e-05 7.95415e-06 1.39532e-05 1.8051e-05 1.95792e-05 -8.39203e-05 -1.80147e-07 -2.14043e-06 -2.96468e-06
internal_weight=1580 765 815 106 82 659 106 709 388 333 282 225 205 376 299 252 225 259 271 225 182
internal_count=1580 765 815 106 82 659 106 709 388 333 282 225 205 376 299 252 225 259 271 225 182
is_linear=0
shrinkage=0.05


Tree=40
num_leaves=22
num_cat=0
split_feature=48 49 48 39 48 24 19 34 16 34 34 8 46 27 24 37 17 30 0 39 34
split_gain=0.00306768 0.000787606 0.000684191 0.000312984 0.00012877 6.6572e-05 4.73927e-05 3.73832e-05 2.96634e-05 2.29756e-05 1.55781e-05 1.2881e-05 1.1539e-05 1.14678e-05 8.55944e-06 6.53908e-06 5.2633e-06 5.2282e-06 2.57019e-06 2.47239e-06 8.13902e-07
threshold=-0.072083197512529437 0.95833333333333337 -0.77461651470715942 -1.7010830772987497 0.48902904485187221 1.9680826608073352 -0.84211940092346738 -1.1065840101840749 -1.1778009254236848 -1.4235204542205049 -0.49413009247503542 0.99619708994709011 0.97073412698412709 0.14335317460317501 2.0893418535361508 0.14434523809523803 -1.2164736718260796 1.9556761451738252 1.0000330814733207 0.97222925380809155 -0.24583611798024049
decision_type=2 2 2 2 2 2 2 2 2 2 2 2 2 2 2 2 2 2 2 2 2
left_child=2 4 3 -1 10 -3 -5 -8 -6 -10 -2 14 -11 -12 16 -15 -4 20 -18 -20 -17
right_child=1 5 11 6 8 -7 7 -9 9 12 13 -13 -14 15 -16 17 18 -19 19 -21 -22
leaf_value=-0.00032376827924807285 0 0.00029083215382652735 0 0 0 0 0 -0.00010063584657613941 0 9.1918174983265762e-05 0 0 0 0 0 0 0 0 -3.6727936129323455e-05 0 2.8690371843553979e-05
leaf_weight=43 89 51 34 24 127 31 20 221 21 205 42 21 20 34 143 20 21 110 178 22 143
leaf_count=43 89 51 34 24 127 31 20 221 21 205 42 21 20 34 143 20 21 110 178 22 143
internal_value=0 6.22066e-05 -7.61218e-05 -0.000136764 3.95579e-05 0.000224986 -8.74481e-05 -9.43389e-05 6.49193e-05 8.1797e-05 6.53739e-06 -1.95927e-05 8.70064e-05 1.28527e-05 -2.2023e-05 1.67672e-05 -2.89961e-05 1.93907e-05 -3.20871e-05 -3.42015e-05 2.66407e-05
internal_weight=1620 893 727 308 811 82 265 241 373 246 438 419 225 349 398 307 255 273 221 200 163
internal_count=1620 893 727 308 811 82 265 241 373 246 438 419 225 349 398 307 255 273 221 200 163
is_linear=0
shrinkage=0.05


Tree=41
num_leaves=24
num_cat=0
split_feature=48 49 48 39 48 50 31 19 42 16 2 39 37 39 2 27 17 30 17 31 0 0 2
split_gain=0.00284777 0.000713548 0.000613093 0.000254835 0.000115415 6.38294e-05 4.71839e-05 5.15131e-05 2.76744e-05 3.06859e-05 1.19265e-05 6.39029e-06 7.14651e-06 6.30098e-06 6.22032e-06 4.94211e-06 4.65533e-06 5.77057e-06 3.93632e-06 3.81142e-06 3.77497e-06 3.81594e-06 5.59453e-07
threshold=-0.072083197512529437 0.95833333333333337 -0.77461651470715942 -1.7010830772987497 0.48902904485187221 2.7703319570483687 3.1229200514140056 -0.84211940092346738 0.82175925925925908 -1.1778009254236848 0.036044973544973553 -1.7432534025193447 0.14434523809523803 0.91842037105252505 0.93535052910052918 0.14335317460317501 -0.8044658649472799 1.9556761451738252 -1.2785862985491399 2.4143772184181507 1.0819983164460101 2.2603885904472203 0.94097222222222221
decision_type=2 2 2 2 2 2 2 2 2 2 2 2 2 2 2 2 2 2 2 2 2 2 2
left_child=2 4 3 -1 11 -3 7 -5 9 -6 -9 -2 -13 14 18 -14 -17 -18 -4 20 -20 -22 -12
right_child=1 5 13 6 8 -7 -8 10 -10 -11 22 12 15 -15 -16 16 17 -19 19 -21 21 -23 -24
leaf_value=-0.0003076174307377953 0 0.00031536613407247516 0 0 0 1.9836154089042644e-06 0 0 0 8.4079570541605408e-05 -0.00011022924073815516 0 0 0 0 0 2.9140633535695529e-05 0 0 0 -3.4984293316958079e-05 0 0
leaf_weight=43 31 40 25 24 112 42 23 22 35 226 174 62 23 109 23 182 104 36 34 23 178 27 22
leaf_count=43 31 40 25 24 112 42 23 22 35 226 174 62 23 109 23 182 104 36 34 23 178 27 22
internal_value=0 6.00916e-05 -7.31855e-05 -0.000130895 3.81434e-05 0.000215952 -8.32534e-05 -8.98712e-05 6.2394e-05 6.70869e-05 -9.77553e-05 6.06915e-06 8.88157e-06 -1.88127e-05 -2.30026e-05 1.20343e-05 1.39113e-05 2.29783e-05 -2.50134e-05 -2.68867e-05 -2.88494e-05 -3.1879e-05 -0.000103828
internal_weight=1620 893 727 308 811 82 265 242 373 338 218 438 407 419 310 345 322 140 287 262 239 205 196
internal_count=1620 893 727 308 811 82 265 242 373 338 218 438 407 419 310 345 322 140 287 262 239 205 196
is_linear=0
shrinkage=0.05


Tree=42
num_leaves=18
num_cat=0
split_feature=48 49 48 39 48 50 42 31 19 22 44 8 24 46 48 0 42
split_gain=0.00265459 0.000655981 0.000557738 0.000263173 0.000128331 0.00011312 3.2976e-05 3.08436e-05 2.92632e-05 1.69159e-05 1.25515e-05 8.37544e-06 8.4822e-06 6.33743e-06 1.45301e-06 1.51971e-06 2.77017e-07
threshold=-0.072083197512529437 0.97500000000000009 -0.68716663074726581 -1.1286683590794497 0.50005135420460534 2.7004876173621972 0.82175925925925908 3.1229200514140056 -0.84211940092346738 -0.47485885669007993 2.0151062844076955 0.99503968253968267 2.0893418535361508 0.56630291005291011 0.028509810440202361 2.5756759721343756 0.11342592592592601
decision_type=2 2 2 2 2 2 2 2 2 2 2 2 2 2 2 2 2
left_child=2 4 3 -1 13 -3 9 8 -5 -6 -11 12 -4 14 -2 16 -16
right_child=1 5 11 7 6 -7 -8 -9 -10 10 -12 -13 -14 -15 15 -17 -18
leaf_value=-0.00025294728240838119 0 0.00036270147329527764 -2.2873250501609689e-05 0 0 0 0 0 -8.1115826567456067e-05 8.4671523994566571e-05 0 0 0 0 0 0 1.5365910513906926e-05
leaf_weight=67 51 28 242 23 84 36 37 24 219 238 28 20 132 170 33 20 168
leaf_count=67 51 28 242 23 84 36 37 24 219 238 28 20 132 170 33 20 168
internal_value=0 5.81472e-05 -7.05288e-05 -0.000121615 3.87631e-05 0.000230776 6.32965e-05 -6.96629e-05 -7.51831e-05 6.83033e-05 7.93535e-05 -1.46445e-05 -1.67898e-05 5.96347e-06 1.07707e-05 1.26173e-05 1.39256e-05
internal_weight=1620 893 727 333 829 64 387 266 242 350 266 394 374 442 272 221 201
internal_count=1620 893 727 333 829 64 387 266 242 350 266 394 374 442 272 221 201
is_linear=0
shrinkage=0.05


Tree=43
num_leaves=24
num_cat=0
split_feature=48 48 48 39 48 34 2 8 22 37 26 39 46 44 34 26 8 24 17 37 34 50 39
split_gain=0.00246799 0.000601378 0.000500647 0.000212908 0.000152818 4.04737e-05 2.38624e-05 1.99026e-05 1.81724e-05 2.26863e-05 1.67423e-05 1.91189e-05 2.39287e-05 2.66301e-05 1.38381e-05 1.19108e-05 7.9046e-06 7.1799e-06 4.07028e-06 2.05608e-06 9.64811e-07 1.05312e-06 7.93532e-07
threshold=-0.072083197512529437 1.8662803723893886 -0.68716663074726581 -1.1286683590794497 0.50005135420460534 -1.711784178686685 0.036044973544973553 0.22519841269841304 -0.60418045459265091 0.16749338624338603 1.4462306784549901 1.1614404014330402 0.029596560846560854 1.9235619846191152 -0.49413009247503542 0.30958377467958459 0.99503968253968267 2.0893418535361508 -1.2164736718260796 0.14434523809523803 -0.24583611798024049 5.036668463752755 0.97222925380809155
decision_type=2 2 2 2 2 2 2 2 2 2 2 2 2 2 2 2 2 2 2 2 2 2 2
left_child=2 4 3 -1 14 -6 -5 -8 -7 -10 11 12 -11 -14 -2 19 17 18 -4 -16 -21 -22 -20
right_child=1 -3 16 6 5 8 7 -9 9 10 -12 -13 13 -15 15 -17 -18 -19 22 20 21 -23 -24
leaf_value=-0.00024031876622291143 0 0.00026823923191726391 0 0 0 0 0 -8.0382339984377122e-05 0 0 0 0 0.00010349793343029646 0 0 0 0 0 -2.5726295771368637e-05 0 2.1553724283023505e-05 0 0
leaf_weight=67 89 41 30 27 20 36 41 198 42 31 26 31 202 22 28 87 20 132 191 24 191 23 21
leaf_count=67 89 41 30 27 20 36 41 198 42 31 26 31 202 22 28 87 20 132 191 24 191 23 21
internal_value=0 5.63059e-05 -6.77611e-05 -0.000116405 4.02091e-05 6.52398e-05 -6.6325e-05 -7.17305e-05 6.88027e-05 7.30985e-05 7.90201e-05 8.34142e-05 8.93915e-05 9.67634e-05 5.67151e-06 1.1758e-05 -1.39422e-05 -1.605e-05 -2.17301e-05 1.71858e-05 1.87529e-05 2.00589e-05 -2.42273e-05
internal_weight=1620 893 727 333 852 410 266 239 390 354 312 286 255 224 442 353 394 374 242 266 238 214 212
internal_count=1620 893 727 333 852 410 266 239 390 354 312 286 255 224 442 353 394 374 242 266 238 214 212
is_linear=0
shrinkage=0.05


Tree=44
num_leaves=22
num_cat=0
split_feature=48 49 49 16 24 48 39 31 50 16 34 30 1 22 26 17 49 34 42 24 17
split_gain=0.00229009 0.00054699 0.000466459 0.000101448 0.000164165 9.32816e-05 7.02445e-05 6.09569e-05 5.27714e-05 3.3784e-05 3.21146e-05 2.96338e-05 2.75885e-05 2.98512e-05 2.89828e-05 2.24776e-05 2.12623e-05 9.23815e-06 5.36447e-06 3.45511e-06 1.70953e-06
threshold=-0.072083197512529437 0.95833333333333337 0.058333333333333341 -1.1903309691852597 2.0145450124945703 0.14572622206295555 -0.82285503769183344 1.0359443693397201 2.7004876173621972 -1.0919650684237947 -1.3456247545320397 1.8868687665623651 0.020667989417989405 -0.44285798855007097 0.91923663970166358 -1.2025237772108748 0.34166666666666673 -0.78926575706309998 0.83763227513227512 2.0636715244009802 -0.7047579994236034
decision_type=2 2 2 2 2 2 2 2 2 2 2 2 2 2 2 2 2 2 2 2 2
left_child=2 5 3 -1 -5 -2 9 8 -3 -4 -7 12 -12 -14 19 -11 17 -8 -19 -15 -13
right_child=1 7 6 4 -6 10 16 -9 -10 15 11 20 13 14 -16 -17 -18 18 -20 -21 -22
leaf_value=0 0 0.00034486867124513057 0 -0.00035830645860084623 0 0 0 0 0 0 0 6.1427240847094284e-06 0 8.8243829064788747e-05 0 -0.00010577079351061403 0 -2.7892698827251773e-05 0 0 0
leaf_weight=28 221 28 23 30 25 46 20 20 34 21 40 216 26 199 21 111 144 285 40 21 21
leaf_count=28 221 28 23 30 25 46 20 20 34 21 40 216 26 199 21 111 144 285 40 21 21
internal_value=0 5.42893e-05 -6.52215e-05 -0.000196244 -0.000250369 3.40791e-05 -4.05445e-05 0.000192987 0.000227361 -8.43022e-05 4.46266e-05 4.8036e-05 6.57024e-05 7.226e-05 7.80648e-05 -9.47818e-05 -1.64372e-05 -2.31722e-05 -2.53185e-05 8.36945e-05 4.04545e-06
internal_weight=1620 893 727 83 55 811 644 82 62 155 590 544 307 267 241 132 489 345 325 220 237
internal_count=1620 893 727 83 55 811 644 82 62 155 590 544 307 267 241 132 489 345 325 220 237
is_linear=0
shrinkage=0.05


Tree=45
num_leaves=22
num_cat=0
split_feature=48 48 48 28 30 8 48 7 29 2 46 48 45 34 7 7 40 31 1 17 42
split_gain=0.0020781 0.000529288 0.000513405 0.000177759 0.000105465 5.27728e-05 4.40164e-05 3.38901e-05 2.60139e-05 2.15315e-05 1.96017e-05 1.35433e-05 1.46648e-05 1.26478e-05 9.37329e-06 5.24281e-06 5.24492e-06 5.59082e-06 6.99222e-06 2.47275e-06 2.72574e-06
threshold=-0.138186792138831 -2.1695981142629788 0.98129035818313937 0.20101591292005003 1.2312406687624053 0.92080026455026465 0.09650579362745472 0.8973214285714286 0.82457010582010615 0.083167989417989405 0.0087632275132275023 -0.35124923386853207 0.87797619047619058 -1.4235204542205049 0.41650132275132307 0.26901455026455007 0.044642857142857158 2.371938279207725 0.020667989417989405 -0.70547619946216489 0.81812169312169314
decision_type=2 2 2 2 2 2 2 2 2 2 2 2 2 2 2 2 2 2 2 2 2
left_child=1 -1 6 5 -4 7 -2 9 -6 -3 -11 12 14 -8 -12 -15 -17 18 -18 20 -20
right_child=2 3 4 -5 8 -7 13 -9 -10 10 11 -13 -14 15 -16 16 17 -19 19 -21 -22
leaf_value=-0.00025426078019890117 0 0 0.00026337710808238486 -0.00021541284341936026 6.8973929311403159e-05 0 0 0 0 0 0 0 0 0 -6.3972331560122975e-05 0 0 0 4.0179879071326897e-05 0 0
leaf_weight=49 234 26 39 26 156 87 29 75 30 20 20 101 29 26 227 49 20 35 267 31 25
leaf_count=49 234 26 39 26 156 87 29 75 30 20 20 101 29 26 227 49 20 35 267 31 25
internal_value=0 -6.89006e-05 4.68038e-05 -4.58143e-05 0.000117848 -2.96955e-05 1.7483e-05 -3.60654e-05 6.0341e-05 -4.16117e-05 -4.45023e-05 -4.70685e-05 -5.61115e-05 2.61202e-05 -6.05507e-05 2.82084e-05 2.95778e-05 3.19828e-05 3.41758e-05 3.59776e-05 3.81172e-05
internal_weight=1601 660 941 611 225 585 716 498 186 423 397 377 276 482 247 453 427 378 343 323 292
internal_count=1601 660 941 611 225 585 716 498 186 423 397 377 276 482 247 453 427 378 343 323 292
is_linear=0
shrinkage=0.05


Tree=46
num_leaves=19
num_cat=0
split_feature=49 30 44 49 42 49 49 28 8 49 45 31 42 7 11 7 7 49
split_gain=0.00187933 0.000396643 0.000191425 0.000121954 0.000125303 0.000142418 0.000117268 7.36128e-05 6.30602e-05 6.18423e-05 2.73795e-05 2.97354e-05 2.17719e-05 1.39832e-05 2.05796e-05 1.18568e-05 8.49144e-06 7.19778e-06
threshold=0.47500000000000003 0.99200162556858362 0.8013542205627916 0.32500000000000001 0.82837301587301615 0.041666666666666678 0.69166666666666676 -1.1060015524833948 0.97652116402116407 0.64166666666666672 0.93022486772486812 3.4979939668574853 0.12731481481481502 0.93964947089947104 0.3497023809523811 0.97519841269841312 0.12500000000000003 0.40833333333333338
decision_type=2 2 2 2 2 2 2 2 2 2 2 2 2 2 2 2 2 2
left_child=2 7 3 4 5 -1 -3 -2 12 -9 11 15 -7 14 -4 16 -8 -16
right_child=1 6 13 -5 -6 8 10 9 -10 -11 -12 -13 -14 -15 17 -17 -18 -19
leaf_value=-0.00026819671663073029 0 0 0 0 0 0 0 0 0 0.00027252808281983152 0 0 -8.1968984038356752e-05 0 -2.5887782169715377e-05 0 5.9470748353480745e-05 0
leaf_weight=40 33 321 61 121 45 25 20 20 26 38 20 25 189 52 187 21 332 25
leaf_count=40 33 321 61 121 45 25 20 20 26 38 20 25 189 52 187 21 332 25
internal_value=0 5.13313e-05 -5.70656e-05 -8.15762e-05 -0.000100346 -0.000113161 3.05041e-05 0.000165363 -6.63961e-05 0.000214578 4.84365e-05 5.1341e-05 -7.53667e-05 -8.03497e-06 -1.43129e-05 5.48796e-05 5.72327e-05 -2.25021e-05
internal_weight=1601 830 771 446 325 280 739 91 240 58 418 398 214 325 273 373 352 212
internal_count=1601 830 771 446 325 280 739 91 240 58 418 398 214 325 273 373 352 212
is_linear=0
shrinkage=0.05


Tree=47
num_leaves=21
num_cat=0
split_feature=48 48 48 34 31 31 17 45 46 48 42 48 34 29 19 31 24 42 45 45
split_gain=0.00179955 0.000445449 0.000425227 0.000160182 0.000101992 8.67478e-05 6.53972e-05 6.3607e-05 6.29949e-05 5.84378e-05 3.93255e-05 3.50118e-05 1.20292e-05 8.85928e-06 3.21364e-06 2.68879e-06 3.034e-06 2.33412e-06 4.85529e-06 2.06016e-07
threshold=-0.138186792138831 0.98129035818313937 -2.1695981142629788 0.49815597271456152 1.1885981207055953 2.4143772184181507 -1.2025237772108748 0.83498677248677267 0.9322089947089951 -0.35998085585674494 0.84160052910052907 0.09650579362745472 -1.4235204542205049 0.82457010582010615 -0.95800646376123688 3.1229200514140056 2.3301324453938754 0.81812169312169314 0.85714285714285754 0.084986772486772513
decision_type=2 2 2 2 2 2 2 2 2 2 2 2 2 2 2 2 2 2 2 2
left_child=2 11 -1 4 7 6 -3 9 13 10 -4 -2 -13 -8 -14 16 17 18 19 -16
right_child=1 5 3 -5 -6 -7 8 -9 -10 -11 -12 12 14 -15 15 -17 -18 -19 -20 -21
leaf_value=-0.00023380049256334752 0 0 -0.00011817811890784019 0 0 0 0.00015944939284313526 0 0 0 0 0 0 0 0 0 0 0 0 3.4014491803192466e-05
leaf_weight=49 234 28 154 249 78 22 129 36 22 66 28 29 21 24 28 23 22 40 30 289
leaf_count=49 234 28 154 249 78 22 129 36 22 66 28 29 21 24 28 23 22 40 30 289
internal_value=0 4.35475e-05 -6.41231e-05 -4.22976e-05 -6.42284e-05 0.000109971 0.000120297 -7.84563e-05 0.000133113 -8.76897e-05 -0.000106201 1.56796e-05 2.33824e-05 0.000145924 2.54578e-05 2.64233e-05 2.74568e-05 2.85712e-05 3.045e-05 3.2453e-05
internal_weight=1601 941 660 611 362 225 203 284 175 248 182 716 482 153 453 432 409 387 347 317
internal_count=1601 941 660 611 362 225 203 284 175 248 182 716 482 153 453 432 409 387 347 317
is_linear=0
shrinkage=0.05


Tree=48
num_leaves=20
num_cat=0
split_feature=48 48 48 34 31 31 45 17 46 48 42 48 34 7 1 31 17 37 0
split_gain=0.00167284 0.000402789 0.000365243 0.000144589 9.18857e-05 7.84554e-05 5.70545e-05 5.51855e-05 5.28015e-05 4.5644e-05 3.30078e-05 3.20485e-05 1.12769e-05 4.36178e-06 3.60491e-06 4.15375e-06 2.00032e-06 2.32165e-06 4.37186e-06
threshold=-0.138186792138831 0.98129035818313937 -2.1695981142629788 0.49815597271456152 1.1885981207055953 2.4143772184181507 0.83498677248677267 -1.2025237772108748 0.9322089947089951 -0.3674815089995993 0.84160052910052907 0.09650579362745472 -1.2721659919352797 0.26901455026455007 0.020667989417989405 2.4143772184181507 -0.70547619946216489 0.27000661375661406 2.6750304277948103
decision_type=2 2 2 2 2 2 2 2 2 2 2 2 2 2 2 2 2 2 2
left_child=2 11 -1 4 6 7 9 -3 -9 10 -4 -2 -13 -14 -15 16 17 -16 -19
right_child=1 5 3 -5 -6 -7 -8 8 -10 -11 -12 12 13 14 15 -17 -18 18 -20
leaf_value=-0.00022213427327874886 0 0 -0.0001139251642410095 0 0 0 0 0.00013920698457261583 0 0 0 0 0 0 0 0 0 3.5701473333872622e-05 0
leaf_weight=49 234 28 150 249 78 22 36 153 22 70 28 45 26 27 54 28 30 252 20
leaf_count=49 234 28 150 249 78 22 36 153 22 70 28 45 26 27 54 28 30 252 20
internal_value=0 4.19324e-05 -6.18768e-05 -4.08085e-05 -6.17153e-05 0.000105402 -7.52533e-05 0.000115233 0.00012724 -8.4022e-05 -0.000102348 1.49932e-05 2.23629e-05 2.4821e-05 2.61069e-05 2.74399e-05 2.90054e-05 3.05621e-05 3.37749e-05
internal_weight=1601 941 660 611 362 225 284 203 175 248 178 716 482 437 411 384 356 326 272
internal_count=1601 941 660 611 362 225 284 203 175 248 178 716 482 437 411 384 356 326 272
is_linear=0
shrinkage=0.05


Tree=49
num_leaves=22
num_cat=0
split_feature=48 30 48 28 48 48 28 8 45 7 7 31 46 45 17 7 17 17 48 24 24
split_gain=0.00155495 0.00039407 0.000311576 0.000133685 0.000133107 0.000111634 0.000159698 4.35405e-05 2.95704e-05 2.60434e-05 1.56671e-05 1.98659e-05 1.37632e-05 6.93899e-06 6.93395e-06 7.94511e-06 5.17274e-06 1.60768e-07 1.01259e-06 9.08434e-07 9.35261e-08
threshold=-0.138186792138831 0.99200162556858362 -2.1695981142629788 0.20101591292005003 0.79790169485848728 0.26662225879549434 -0.97864883073589282 0.92080026455026465 0.87003968253968267 0.8973214285714286 0.95949074074074103 2.4143772184181507 0.0087632275132275023 0.92261904761904756 -0.6960378186818158 0.35400132275132251 -1.2954303788125747 -0.60632988354364781 -1.0000000180025095e-35 1.5582906174799052 2.3361896127019057
decision_type=2 2 2 2 2 2 2 2 2 2 2 2 2 2 2 2 2 2 2 2 2
left_child=2 5 -1 7 17 -2 -7 9 10 12 11 -6 -4 14 15 -14 -17 18 -3 -20 -21
right_child=1 4 3 -5 8 6 -8 -9 -10 -11 -12 -13 13 -15 -16 16 -18 -19 19 20 -22
leaf_value=-0.00021105018042358941 0 0 0 -0.00019001967150546694 6.6297795647405036e-05 0 0.00025432213873555448 0 0 0 0 0 0 0 0 0 -4.4815812771181789e-05 0 0 3.6960277563135468e-06 0
leaf_weight=49 26 103 20 26 205 30 43 87 26 75 20 20 35 21 20 20 307 24 22 398 24
leaf_count=49 26 103 20 26 205 30 43 87 26 75 20 20 35 21 20 20 307 24 22 398 24
internal_value=0 4.03228e-05 -5.97579e-05 -3.94103e-05 2.19566e-05 0.000145895 0.000180759 -2.41397e-05 5.22012e-05 -3.00506e-05 5.75816e-05 6.15161e-05 -3.48855e-05 -3.69153e-05 -3.85102e-05 -4.01599e-05 -4.29665e-05 0 8.57111e-07 2.57007e-06 3.5114e-06
internal_weight=1601 941 660 611 842 99 73 585 271 498 245 225 423 403 382 362 327 571 547 444 422
internal_count=1601 941 660 611 842 99 73 585 271 498 245 225 423 403 382 362 327 571 547 444 422
is_linear=0
shrinkage=0.05


Tree=50
num_leaves=17
num_cat=0
split_feature=49 39 50 37 49 49 2 33 33 43 2 22 49 40 23 26
split_gain=0.00151357 0.000500718 0.000297922 7.08358e-05 6.58322e-05 6.3569e-05 5.90508e-05 3.35041e-05 2.59347e-05 1.92057e-05 1.73268e-05 1.72853e-05 1.62646e-05 1.13223e-05 4.9224e-06 1.71573e-07
threshold=0.52500000000000013 -1.0979538769522799 1.4171448831066171 0.17328042328042353 0.25833333333333336 0.80833333333333346 0.013392857142857153 -0.9838470069887183 1.6015722394505603 0.054563492063492057 0.93766534391534406 -0.57295718366353043 0.4250000000000001 0.79794973544973569 0.19990079365079402 1.7831313626669953
decision_type=2 2 2 2 2 2 2 2 2 2 2 2 2 2 2 2
left_child=1 3 -2 -1 6 15 -3 -8 9 -9 11 -11 14 -7 -5 -4
right_child=2 4 5 12 -6 13 7 8 -10 10 -12 -13 -14 -15 -16 -17
leaf_value=0 0.00015465085906541233 0 2.6724428189417466e-06 0 0 6.0175872864700399e-05 0 0 0 0 0 -7.2440104962422913e-05 0 0 -0.00019460754087635178 0
leaf_weight=20 88 60 392 26 348 212 34 22 22 21 26 168 21 44 80 21
leaf_count=20 88 60 392 26 348 212 34 22 22 21 26 168 21 44 80 21
internal_value=0 -4.65591e-05 5.06914e-05 -0.000138052 -2.02244e-05 2.95228e-05 -3.57525e-05 -4.5206e-05 -5.13325e-05 -5.61514e-05 -6.08168e-05 -6.66055e-05 -0.000153136 5.37445e-05 -0.000168747 2.39595e-06
internal_weight=1605 848 757 147 701 669 353 293 259 237 215 189 127 256 106 413
internal_count=1605 848 757 147 701 669 353 293 259 237 215 189 127 256 106 413
is_linear=0
shrinkage=0.05


Tree=51
num_leaves=17
num_cat=0
split_feature=48 48 30 22 30 48 48 18 34 34 46 37 34 22 22 46
split_gain=0.00144864 0.000355112 0.000287857 0.000158726 0.0002605 8.60776e-05 7.77085e-05 6.22357e-05 1.99525e-05 1.18781e-05 1.02481e-05 9.91298e-06 8.11278e-06 4.58698e-06 1.55891e-06 1.4201e-06
threshold=-0.0089374727242463332 -1.0598116400499131 0.99200162556858362 -0.37452441883690096 1.9311503802742653 0.54678393595640695 0.26662225879549434 0.42212301587301609 0.5272453329723622 1.3046723499352202 0.64914021164021152 0.22734788359788402 -1.711784178686685 -0.58552718124796244 1.2649046483755602 0.69328703703703709
decision_type=2 2 2 2 2 2 2 2 2 2 2 2 2 2 2 2
left_child=1 3 6 -1 -5 -4 -2 -8 10 12 11 -3 -7 -13 -15 -6
right_child=2 8 5 4 15 9 7 -9 -10 -11 -12 13 -14 14 -16 -17
leaf_value=0 0 0 0 -0.00021114677197119747 -8.8724064156841511e-06 0 0.00021656188854537813 0 0 0 0 0 4.7992181806795635e-05 -4.0967129930137351e-05 0 0
leaf_weight=51 24 27 378 83 45 22 48 24 227 23 73 24 324 179 25 28
leaf_count=51 24 27 378 83 45 22 48 24 227 23 73 24 324 179 25 28
internal_value=0 -5.06348e-05 4.44747e-05 -0.000113263 -0.000139863 2.53819e-05 0.000140831 0.000170674 -1.82526e-05 4.34401e-05 -2.67523e-05 -3.19519e-05 4.58066e-05 -3.53612e-05 -3.81266e-05 0
internal_weight=1605 762 843 207 156 747 96 72 555 369 328 255 346 228 204 73
internal_count=1605 762 843 207 156 747 96 72 555 369 328 255 346 228 204 73
is_linear=0
shrinkage=0.05


Tree=52
num_leaves=22
num_cat=0
split_feature=48 39 48 48 39 44 26 22 34 26 34 8 2 46 42 48 43 43 8 22 27
split_gain=0.00135296 0.000353279 0.000208786 0.000168994 4.93419e-05 2.95027e-05 3.60455e-05 5.02592e-05 2.07709e-05 1.73573e-05 1.54694e-05 1.16149e-05 1.16197e-05 1.25098e-05 1.07447e-05 1.04403e-05 7.14622e-06 8.01789e-06 4.98918e-06 3.80598e-06 2.17712e-06
threshold=-0.0089374727242463332 -1.5945504044199799 0.91695513366619108 -2.4466541390000862 1.0709645001848402 1.4271266017645201 1.1569878583988602 -0.47485885669007993 -1.0552733783834898 0.30958377467958459 -0.86781848817616036 0.99619708994709011 0.017030423280423302 0.013062169312169301 0.83763227513227512 -0.20369255700192726 0.86144179894179918 0.042989417989417959 0.096891534391534404 -0.56562900268050431 0.12615740740740702
decision_type=2 2 2 2 2 2 2 2 2 2 2 2 2 2 2 2 2 2 2 2 2
left_child=1 18 8 -3 5 6 7 -4 -2 19 -5 12 -12 -14 15 16 17 -15 -1 -10 -21
right_child=2 3 4 10 -6 -7 -8 -9 9 -11 11 -13 13 14 -16 -17 -18 -19 -20 20 -22
leaf_value=0 0 -0.00016622979254606309 0 0 0 0 0 0.00013149665430543372 0 0 0 0 0 0 0 0 0 -3.3577547034552856e-05 -0.00017212359979037177 0 2.7887990110272852e-05
leaf_weight=26 67 28 34 57 25 37 36 137 50 129 43 25 32 28 59 96 21 270 77 34 294
leaf_count=26 67 28 34 57 25 37 36 137 50 129 43 25 32 28 59 96 21 270 77 34 294
internal_value=0 -4.89777e-05 4.29361e-05 -2.58258e-05 8.52952e-05 9.23348e-05 0.000102005 0.000114547 1.43642e-05 1.83301e-05 -1.16475e-05 -1.47138e-05 -1.67103e-05 -1.89831e-05 -2.12285e-05 -2.4071e-05 -2.89054e-05 -3.08919e-05 -0.000148439 2.3778e-05 2.60875e-05
internal_weight=1605 762 843 659 269 244 207 171 574 507 631 574 549 506 474 415 319 298 103 378 328
internal_count=1605 762 843 659 269 244 207 171 574 507 631 574 549 506 474 415 319 298 103 378 328
is_linear=0
shrinkage=0.05


Tree=53
num_leaves=16
num_cat=0
split_feature=48 39 30 48 48 48 37 18 34 48 33 8 34 34 42
split_gain=0.00125686 0.000320898 0.000256331 7.11542e-05 7.02785e-05 6.30387e-05 5.50758e-05 4.97035e-05 3.69951e-05 3.49531e-05 3.06129e-05 2.27701e-05 1.12527e-05 6.72443e-06 4.41915e-06
threshold=-0.0089374727242463332 -1.0979538769522799 0.99200162556858362 -0.77461651470715942 0.47087578925006274 0.26662225879549434 0.17328042328042353 0.42212301587301609 -0.87731486953158144 -0.48249837138961821 1.5530030596738402 0.24586640211640201 1.3589381403505751 -1.711784178686685 0.86541005291005313
decision_type=2 2 2 2 2 2 2 2 2 2 2 2 2 2 2
left_child=1 6 5 8 -4 -2 -1 -7 -3 -8 11 -10 13 -6 -15
right_child=2 3 4 -5 12 7 9 -9 10 -11 -12 -13 -14 14 -16
leaf_value=0 0 0 0 0 0 0.00020254213815402986 -0.00017614948403261847 0 0 0 0 -6.5350351055503002e-05 0 4.2739273694714453e-05 0
leaf_weight=20 24 22 341 381 22 48 79 24 34 47 21 158 21 342 21
leaf_count=20 24 22 341 381 22 48 79 24 34 47 21 158 21 342 21
internal_value=0 -4.7208e-05 4.13815e-05 -2.09869e-05 2.29415e-05 0.000132665 -0.000123526 0.000160139 -4.37136e-05 -0.000137006 -5.04199e-05 -5.67315e-05 3.74286e-05 3.93744e-05 4.11166e-05
internal_weight=1605 762 843 616 747 96 146 72 235 126 213 192 406 385 363
internal_count=1605 762 843 616 747 96 146 72 235 126 213 192 406 385 363
is_linear=0
shrinkage=0.05


Tree=54
num_leaves=17
num_cat=0
split_feature=48 39 30 48 15 48 46 13 48 34 18 42 34 34 15 1
split_gain=0.00117227 0.000290807 0.000232181 6.50876e-05 6.83573e-05 6.24697e-05 5.32123e-05 8.71224e-05 5.26821e-05 4.89308e-05 3.43634e-05 1.83926e-05 1.02797e-05 6.27795e-06 5.1167e-06 8.98625e-06
threshold=-0.0089374727242463332 -1.1286683590794497 0.99200162556858362 -0.77461651470715942 1.0977879509530102 0.50005135420460534 0.65277777777777757 0.81426548908533813 0.26662225879549434 -0.87731486953158144 0.41038359788359752 0.87632275132275161 1.3589381403505751 -1.711784178686685 1.6895357993185103 0.020667989417989405
decision_type=2 2 2 2 2 2 2 2 2 2 2 2 2 2 2 2
left_child=1 6 8 4 9 -4 7 -1 -2 -3 -10 -11 13 -7 15 -15
right_child=2 3 5 -5 -6 12 -8 -9 10 11 -12 -13 -14 14 -16 -17
leaf_value=-0.0002150408062601551 0 0 0 0 0 0 0 0 0.00019453583587249721 -7.0290889819723377e-05 0 0 0 0 0 4.4988182668537526e-05
leaf_weight=52 24 21 361 382 40 22 28 64 47 153 25 22 20 22 29 293
leaf_count=52 24 21 361 382 40 22 28 64 47 153 25 22 20 22 29 293
internal_value=0 -4.56176e-05 3.99381e-05 -2.02922e-05 -4.20381e-05 2.19633e-05 -0.000119518 -0.000137388 0.000127607 -5.47643e-05 0.000153397 -6.3698e-05 3.65774e-05 3.84862e-05 4.02679e-05 4.25597e-05
internal_weight=1605 762 843 618 236 747 144 116 96 196 72 175 386 366 344 315
internal_count=1605 762 843 618 236 747 144 116 96 196 72 175 386 366 344 315
is_linear=0
shrinkage=0.05


Tree=55
num_leaves=26
num_cat=0
split_feature=48 49 50 48 8 50 18 12 45 7 18 28 48 45 48 46 7 19 28 48 34 45 7 24 7
split_gain=0.00110879 0.000231874 0.000228246 6.55824e-05 4.41846e-05 6.3934e-05 3.35194e-05 2.23097e-05 2.25401e-05 1.50644e-05 1.48777e-05 1.42635e-05 1.39082e-05 1.15692e-05 5.28688e-06 3.87543e-06 4.80484e-06 3.24787e-06 3.10421e-06 1.78664e-06 9.33864e-07 2.74654e-06 9.21647e-07 4.97131e-07 4.84017e-07
threshold=-0.099275225515160895 0.025000000000000005 1.0829241940192016 0.79790169485848728 0.99503968253968267 3.0793154016470381 0.430059523809524 0.021990740740740752 0.84027777777777812 0.87681878306878314 0.21908068783068804 -2.7924123078448195 0.42058923824735545 0.051917989417989405 -0.27778071359632545 0.009755291005290951 0.33349867724867704 -0.7985796875818324 -0.45033778875594793 -0.16800610989961526 -1.0552733783834898 0.84027777777777812 0.18237433862433902 2.3429097112738955 0.99222883597883615
decision_type=2 2 2 2 2 2 2 2 2 2 2 2 2 2 2 2 2 2 2 2 2 2 2 2 2
left_child=1 -1 6 20 5 11 12 -5 10 15 -9 -3 -2 -13 -15 -7 -17 -18 19 -19 -4 22 -22 24 -24
right_child=2 4 3 7 -6 9 -8 8 -10 -11 -12 13 -14 14 -16 16 17 18 -20 -21 21 -23 23 -25 -26
leaf_value=-0.00021755629607664954 0 0 0 0 0 0 0 6.2762832372495074e-05 0 0 0 0 0.00020637082045967499 -8.1573394020959279e-05 0 0 0 -2.2122966031273664e-05 0 0 0 0 6.269547624882465e-06 0 0
leaf_weight=31 22 22 67 24 29 23 30 163 27 63 68 20 36 155 44 41 28 200 27 21 21 34 355 26 24
leaf_count=31 22 22 67 24 29 23 30 163 27 63 68 20 36 155 44 41 28 200 27 21 21 34 355 26 24
internal_value=0 -4.75877e-05 3.6229e-05 2.01712e-05 -3.22991e-05 -3.55204e-05 0.000126907 4.18112e-05 4.61176e-05 -6.72411e-06 5.11776e-05 -6.29125e-05 0.000160822 -6.72173e-05 -7.15352e-05 -1.28189e-05 -1.43804e-05 -1.67634e-05 -1.85864e-05 -2.05606e-05 0 2.25261e-06 4.64689e-06 5.32923e-06 5.79887e-06
internal_weight=1601 704 897 809 673 644 88 282 258 403 231 241 58 219 199 340 317 276 248 221 527 460 426 405 379
internal_count=1601 704 897 809 673 644 88 282 258 403 231 241 58 219 199 340 317 276 248 221 527 460 426 405 379
is_linear=0
shrinkage=0.05


Tree=56
num_leaves=17
num_cat=0
split_feature=48 48 48 16 28 16 23 2 48 26 8 28 12 7 30 5
split_gain=0.00103589 0.000211589 0.000198562 0.000113313 0.000145323 0.000111099 8.07944e-05 6.44942e-05 3.82206e-05 2.47748e-05 2.11622e-05 2.04762e-05 1.64159e-05 1.93173e-05 1.34852e-05 9.16657e-06
threshold=-0.099275225515160895 1.1579892870706987 -2.2278780005863399 -1.0808728704497998 -1.5950031827066797 -1.0783521996833947 0.11888227513227502 0.64467592592592615 -0.50329701086248357 0.11261440145875752 0.32159391534391507 -2.0991674401924745 0.020006613756613754 0.27628968253968256 1.9701373397581252 -0.65822292539206639
decision_type=2 2 2 2 2 2 2 2 2 2 2 2 2 2 2 2
left_child=2 9 -1 -4 -5 -3 -7 8 -6 10 -2 -8 -12 -14 15 -15
right_child=1 5 3 4 7 6 11 -9 -10 -11 12 -13 13 14 -16 -17
leaf_value=-0.00018213106470150461 0 0 0 0 -0.00013708382170385706 0 0 0 0 0 0 0.00018327459916439505 0 0 0 4.518310325878211e-05
leaf_weight=42 132 75 316 161 79 20 21 46 60 227 35 60 20 24 83 200
leaf_count=42 132 75 316 161 79 20 21 46 60 227 35 60 20 24 83 200
internal_value=0 3.51207e-05 -4.58967e-05 -2.96755e-05 -5.00318e-05 9.19166e-05 0.000132149 -8.15059e-05 -9.99962e-05 1.43118e-05 2.05982e-05 0.000155758 2.69269e-05 3.04649e-05 3.38498e-05 4.14803e-05
internal_weight=1601 897 704 662 346 176 101 185 139 721 494 81 362 327 307 224
internal_count=1601 897 704 662 346 176 101 185 139 721 494 81 362 327 307 224
is_linear=0
shrinkage=0.05


Tree=57
num_leaves=20
num_cat=0
split_feature=49 50 42 49 8 49 5 12 37 7 45 49 42 7 7 45 42 37 28
split_gain=0.000870451 0.000179991 9.868e-05 0.000172897 5.62391e-05 4.79516e-05 3.33416e-05 2.45723e-05 1.59149e-05 1.60322e-05 1.43245e-05 1.45744e-05 1.88765e-05 1.42557e-05 1.31936e-05 1.37534e-05 1.09929e-05 7.72743e-06 7.37308e-06
threshold=0.47500000000000003 1.0829241940192016 0.88392857142857162 0.025000000000000005 0.99503968253968267 0.69166666666666676 1.0000000180025095e-35 0.018022486772486804 0.93766534391534406 0.12500000000000003 0.92261904761904756 0.34166666666666673 0.82837301587301615 0.27628968253968256 0.95783730158730163 0.84027777777777812 0.83763227513227512 0.14153439153439154 -2.5445877593374595
decision_type=2 2 2 2 2 2 2 2 2 2 2 2 2 2 2 2 2 2 2
left_child=2 6 3 -1 8 -3 -2 -7 9 -5 11 12 17 -9 15 16 -15 -11 -19
right_child=1 5 -4 4 -6 7 -8 13 -10 10 -12 -13 -14 14 -16 -17 -18 18 -20
leaf_value=-0.00019916956263543422 0 0 0 0 0 0 0.00016018284519366593 0 0 0 0 0 0 4.5542171206793655e-05 0 0 0 0 -5.8683913384761631e-05
leaf_weight=31 29 304 97 34 33 36 50 31 20 23 25 161 25 283 29 32 27 49 282
leaf_count=31 29 304 97 34 33 36 50 31 20 23 25 161 25 283 29 32 27 49 282
internal_value=0 3.53754e-05 -3.83714e-05 -4.5195e-05 -3.01771e-05 1.92634e-05 0.000123279 3.00367e-05 -3.44427e-05 -3.59488e-05 -3.79604e-05 -3.96737e-05 -4.83588e-05 3.37009e-05 3.64234e-05 3.9186e-05 4.24838e-05 -5.13513e-05 -5.36514e-05
internal_weight=1601 821 780 683 652 742 79 438 619 599 565 540 379 402 371 342 310 354 331
internal_count=1601 821 780 683 652 742 79 438 619 599 565 540 379 402 371 342 310 354 331
is_linear=0
shrinkage=0.05


Tree=58
num_leaves=19
num_cat=0
split_feature=48 48 48 16 24 28 22 35 17 34 26 50 16 5 8 24 17 22
split_gain=0.00090703 0.000190962 0.000165635 9.11673e-05 9.09927e-05 5.7563e-05 7.67565e-05 5.14722e-05 4.85655e-05 2.87432e-05 2.42551e-05 9.64828e-06 2.14499e-05 1.08016e-05 1.506e-06 2.39232e-06 1.59482e-06 9.1276e-07
threshold=-0.099275225515160895 1.1579892870706987 -0.68716663074726581 -1.0783521996833947 2.1210081247949906 -2.4744100921174996 -0.37452441883690096 0.11673280423280401 -1.0649794190435498 -1.1919908562252948 0.30958377467958459 4.007243065264694 -1.0783521996833947 -0.65822292539206639 0.99239417989418011 2.0719960600559353 -1.2164736718260796 -0.77269900352043241
decision_type=2 2 2 2 2 2 2 2 2 2 2 2 2 2 2 2 2 2
left_child=2 9 5 -3 -5 -1 -7 -8 -9 -2 11 12 -11 -14 15 16 -4 -18
right_child=1 3 14 4 -6 6 7 8 -10 10 -12 -13 13 -15 -16 -17 17 -19
leaf_value=0 0 0 0 0.00015210412283311447 0 0 0 0 -0.00012617248251468188 0 0 0 0 4.6010627477536823e-05 0 0 0 -1.114257833423253e-05
leaf_weight=40 74 75 27 77 24 89 31 26 144 121 176 153 30 167 20 128 21 178
leaf_count=40 74 75 27 77 24 89 31 26 144 121 176 153 30 167 20 128 21 178
internal_value=0 3.28394e-05 -4.29709e-05 8.68517e-05 0.00012407 -7.19341e-05 -7.99003e-05 -0.000100815 -0.000113015 1.27107e-05 1.70612e-05 2.29901e-05 2.93018e-05 4.07155e-05 -4.03726e-06 -5.27756e-06 -8.37094e-06 -9.98001e-06
internal_weight=1601 897 704 176 101 330 290 201 170 721 647 471 318 197 374 354 226 199
internal_count=1601 897 704 176 101 330 290 201 170 721 647 471 318 197 374 354 226 199
is_linear=0
shrinkage=0.05


Tree=59
num_leaves=21
num_cat=0
split_feature=48 48 48 30 22 7 22 24 7 34 26 30 48 22 7 8 24 17 22 7
split_gain=0.000847909 0.000172286 0.000148277 7.58107e-05 0.000141466 6.59937e-05 6.58554e-05 5.3084e-05 6.85366e-05 2.74155e-05 2.24669e-05 1.41001e-05 8.69203e-06 6.35521e-06 3.72054e-06 3.32279e-06 2.736e-06 2.65117e-06 1.5627e-06 1.71935e-06
threshold=-0.099275225515160895 1.1579892870706987 -0.77461651470715942 1.9311503802742653 -0.37452441883690096 0.34540343915343902 -0.51015922073632136 2.1552642918182205 0.42212301587301604 -1.1919908562252948 0.30958377467958459 1.9701373397581252 -0.032337881931314011 0.61585843434820708 0.34540343915343902 0.99702380952380965 2.0719960600559353 -1.2164736718260796 -0.77269900352043241 0.28373015873015855
decision_type=2 2 2 2 2 2 2 2 2 2 2 2 2 2 2 2 2 2 2 2
left_child=2 9 3 4 -1 -6 -3 8 -8 -2 11 12 -11 -5 -14 16 17 -4 -19 -20
right_child=1 6 15 13 5 -7 7 -9 -10 10 -12 -13 14 -15 -16 -17 -18 18 19 -21
leaf_value=0 0 0 0 -1.1800275642276618e-05 0 -0.00014727393400977234 0 0 0.00013359371199310279 0 0 0 0 0 3.3586992119011748e-05 0 0 0 0 -1.6418091639491742e-05
leaf_weight=37 74 27 30 114 26 105 21 33 95 21 176 162 24 22 264 20 139 21 26 164
leaf_count=37 74 27 30 114 26 105 21 33 95 21 176 162 24 22 264 20 139 21 26 164
internal_value=0 3.17584e-05 -4.15398e-05 -7.18845e-05 -0.00010235 -0.000127002 8.35263e-05 9.66656e-05 0.000114644 1.21779e-05 1.64674e-05 2.21746e-05 2.93847e-05 0 3.16516e-05 -5.9687e-06 -7.7042e-06 -1.10428e-05 -1.30641e-05 -1.4494e-05
internal_weight=1601 897 704 304 168 131 176 149 116 721 647 471 309 136 288 400 380 241 211 190
internal_count=1601 897 704 304 168 131 176 149 116 721 647 471 309 136 288 400 380 241 211 190
is_linear=0
shrinkage=0.05


Tree=60
num_leaves=14
num_cat=0
split_feature=48 49 48 33 26 34 8 50 22 24 44 45 45
split_gain=0.000777679 0.000264261 0.000221925 0.000147101 3.54932e-05 3.00433e-05 2.81912e-05 2.52002e-05 5.03011e-05 2.11024e-05 9.13374e-06 1.02853e-05 6.82012e-06
threshold=-0.018342407387937149 0.041666666666666678 1.8078359568985811 0.41159389536404456 -0.096309707370241984 -1.3456247545320397 0.99619708994709011 3.8384854848992735 -0.42823667441198948 2.0719960600559353 0.77956147746926463 0.72453703703703709 0.051917989417989405
decision_type=2 2 2 2 2 2 2 2 2 2 2 2 2
left_child=1 3 4 -1 5 -2 9 8 -7 10 11 12 -3
right_child=2 6 -4 -5 -6 7 -8 -9 -10 -11 -12 -13 -14
leaf_value=-0.0002074269718383039 0 0 0.00015361402484793081 0 0 0 0 0 5.2526382238986229e-05 0 0 0 -4.6798149934860332e-05
leaf_weight=43 35 23 48 20 302 62 30 181 218 257 110 33 218
leaf_count=43 35 23 48 20 302 62 30 181 218 257 110 33 218
internal_value=0 -3.89698e-05 3.13084e-05 -0.000153494 1.76685e-05 2.60974e-05 -2.07454e-05 2.99276e-05 4.12233e-05 -2.36737e-05 -3.27534e-05 -3.98323e-05 -4.37084e-05
internal_weight=1580 734 846 63 798 496 671 461 280 641 384 274 241
internal_count=1580 734 846 63 798 496 671 461 280 641 384 274 241
is_linear=0
shrinkage=0.05


Tree=61
num_leaves=17
num_cat=0
split_feature=48 49 48 17 45 37 11 25 0 9 30 22 45 34 5 34
split_gain=0.000725216 0.000231756 0.000194969 4.46287e-05 3.08403e-05 2.81808e-05 3.16733e-05 2.7394e-05 3.6591e-05 2.31747e-05 1.45986e-05 2.59921e-05 9.65575e-06 1.08962e-05 3.76603e-06 2.96452e-06
threshold=-0.018342407387937149 0.041666666666666678 1.8662803723893886 -0.92162978582543686 0.83498677248677267 0.16749338624338603 0.27347883597883604 2.0701348137707756 2.2603885904472203 0.5421626984126986 1.9588028946452403 -0.50647728814230641 0.93022486772486812 -1.6390933047909397 -0.70073428533167992 1.1325577064873502
decision_type=2 2 2 2 2 2 2 2 2 2 2 2 2 2 2 2
left_child=1 3 4 -1 5 -2 -7 8 12 10 11 -8 13 -3 -13 -15
right_child=2 7 -4 -5 -6 6 9 -9 -10 -11 -12 14 -14 15 -16 -17
leaf_value=0 0 0 0.00015691432531075009 -0.00018650957225875003 0 0 0 0 0 0 0 0 0 -4.3261802828742733e-05 5.2956734988981162e-05 0
leaf_weight=21 131 20 41 42 63 99 50 269 77 38 174 21 24 260 229 21
leaf_count=21 131 20 41 42 63 99 50 269 77 38 174 21 24 260 229 21
internal_value=0 -3.76674e-05 3.0196e-05 -0.000146427 1.7513e-05 2.08958e-05 2.54072e-05 -1.99853e-05 -2.89298e-05 3.04129e-05 3.34855e-05 4.35089e-05 -3.62842e-05 -3.87511e-05 5.0312e-05 -4.12965e-05
internal_weight=1580 734 846 63 805 742 611 671 402 512 474 300 325 301 250 281
internal_count=1580 734 846 63 805 742 611 671 402 512 474 300 325 301 250 281
is_linear=0
shrinkage=0.05


Tree=62
num_leaves=17
num_cat=0
split_feature=48 49 48 24 41 8 48 31 9 17 1 46 45 48 2 24
split_gain=0.000675217 0.000200532 0.000174786 0.000124474 3.32957e-05 2.59746e-05 2.36164e-05 1.67725e-05 1.3352e-05 1.50656e-05 1.48412e-05 1.2232e-05 4.58452e-06 5.67354e-06 3.40956e-06 1.70302e-06
threshold=-0.051089449159965626 0.041666666666666678 1.8078359568985811 2.0988666520846406 0.28935185185185203 0.99619708994709011 0.23357324724840253 3.4404944894108502 0.55439814814814803 -0.73188323551377599 0.020667989417989405 0.0087632275132275023 0.94543650793650758 -0.1608271838362311 0.93601190476190521 2.3589528323052007
decision_type=2 2 2 2 2 2 2 2 2 2 2 2 2 2 2 2
left_child=1 3 4 -1 6 7 -2 11 9 10 -8 -3 13 14 15 -13
right_child=2 5 -4 -5 -6 -7 8 -9 -10 -11 -12 12 -14 -15 -16 -17
leaf_value=-0.00019199075865525026 0 0 0.00013926167222712659 0 0 0 0 0 0 0 4.8704297258517497e-05 -3.2224182424316228e-05 0 0 0 0
leaf_weight=42 100 22 48 21 454 29 22 29 28 20 191 410 21 78 39 26
leaf_count=42 100 22 48 21 454 29 22 29 28 20 191 410 21 78 39 26
internal_value=0 -3.71424e-05 2.84534e-05 -0.000140219 1.57767e-05 -1.9549e-05 2.81489e-05 -2.24449e-05 3.63587e-05 4.02983e-05 4.4194e-05 -2.44668e-05 -2.59775e-05 -2.68547e-05 -2.94861e-05 -3.10922e-05
internal_weight=1580 717 863 63 815 654 361 625 261 233 213 596 574 553 475 436
internal_count=1580 717 863 63 815 654 361 625 261 233 213 596 574 553 475 436
is_linear=0
shrinkage=0.05


Tree=63
num_leaves=15
num_cat=0
